{"learner":{"attributes":{"scikit_learn":"{\"_estimator_type\": \"regressor\"}"},"feature_names":["Process Stage","Technology","Time Period","Location","Functional Unit","Raw Material Type","Raw Material Quantity (kg or unit)","Energy Input Type","Energy Input Quantity (MJ)","Processing Method","Transport Mode","Transport Distance (km)","Fuel Type","Metal Quality Grade","Material Scarcity Level","Material Cost (USD)","Processing Cost (USD)","Emissions to Air CO2 (kg)","Emissions to Air SOx (kg)","Emissions to Air NOx (kg)","Emissions to Air Particulate Matter (kg)","Emissions to Water Acid Mine Drainage (kg)","Emissions to Water Heavy Metals (kg)","Emissions to Water BOD (kg)","Greenhouse Gas Emissions (kg CO2-eq)","Scope 1 Emissions (kg CO2-eq)","Scope 2 Emissions (kg CO2-eq)","Scope 3 Emissions (kg CO2-eq)","End-of-Life Treatment","Environmental Impact Score","Metal Recyclability Factor","Energy_per_Material","Total_Air_Emissions","Total_Water_Emissions","Transport_Intensity","GHG_per_Material","Time_Period_Numeric","Total_Cost","Circularity_Score","Circular_Economy_Index"],"feature_types":["c","c","c","c","c","c","int","c","float","c","c","float","c","c","c","float","float","float","float","float","float","float","float","float","float","float","float","float","c","float","float","float","float","float","float","float","int","float","float","float"],"gradient_booster":{"model":{"gbtree_model_param":{"num_parallel_tree":"1","num_trees":"200"},"iteration_indptr":[0,1,2,3,4,5,6,7,8,9,10,11,12,13,14,15,16,17,18,19,20,21,22,23,24,25,26,27,28,29,30,31,32,33,34,35,36,37,38,39,40,41,42,43,44,45,46,47,48,49,50,51,52,53,54,55,56,57,58,59,60,61,62,63,64,65,66,67,68,69,70,71,72,73,74,75,76,77,78,79,80,81,82,83,84,85,86,87,88,89,90,91,92,93,94,95,96,97,98,99,100,101,102,103,104,105,106,107,108,109,110,111,112,113,114,115,116,117,118,119,120,121,122,123,124,125,126,127,128,129,130,131,132,133,134,135,136,137,138,139,140,141,142,143,144,145,146,147,148,149,150,151,152,153,154,155,156,157,158,159,160,161,162,163,164,165,166,167,168,169,170,171,172,173,174,175,176,177,178,179,180,181,182,183,184,185,186,187,188,189,190,191,192,193,194,195,196,197,198,199,200],"tree_info":[0,0,0,0,0,0,0,0,0,0,0,0,0,0,0,0,0,0,0,0,0,0,0,0,0,0,0,0,0,0,0,0,0,0,0,0,0,0,0,0,0,0,0,0,0,0,0,0,0,0,0,0,0,0,0,0,0,0,0,0,0,0,0,0,0,0,0,0,0,0,0,0,0,0,0,0,0,0,0,0,0,0,0,0,0,0,0,0,0,0,0,0,0,0,0,0,0,0,0,0,0,0,0,0,0,0,0,0,0,0,0,0,0,0,0,0,0,0,0,0,0,0,0,0,0,0,0,0,0,0,0,0,0,0,0,0,0,0,0,0,0,0,0,0,0,0,0,0,0,0,0,0,0,0,0,0,0,0,0,0,0,0,0,0,0,0,0,0,0,0,0,0,0,0,0,0,0,0,0,0,0,0,0,0,0,0,0,0,0,0,0,0,0,0,0,0,0,0,0,0],"trees":[{"base_weights":[-0E0,1.2726677E1,-2.543911E1,3.5351788E1,5.0575814E0,-1.891232E1,-2.7645569E1,2.5269075E1,5.393484E1,-1.3484813E0,1.7554317E1,-2.1761288E1,-1.3046327E1,-2.955106E1,-2.3983604E1,1.6376139E0,7.3208576E-1,2.4755416E0,1.2077128E0,3.2132205E-1,-2.4005748E-1,1.318185E0,4.3365657E-1,-7.49565E-1,-9.807941E-1,-6.7889136E-1,-3.254887E-1,-1.0245922E0,-1.2145916E0,-8.552355E-1,-1.0671374E0],"categories":[0,0,1,2,0,1,2,0,0,0,0],"categories_nodes":[0,1,2,3,4,5,6],"categories_segments":[0,1,4,7,8,9,10],"categories_sizes":[1,3,3,1,1,1,1],"default_left":[1,1,1,1,1,1,1,0,0,0,0,0,0,0,0,0,0,0,0,0,0,0,0,0,0,0,0,0,0,0,0],"id":0,"left_children":[1,3,5,7,9,11,13,15,17,19,21,23,25,27,29,-1,-1,-1,-1,-1,-1,-1,-1,-1,-1,-1,-1,-1,-1,-1,-1],"loss_changes":[6.0710605E6,2.1685705E6,8.952225E4,5.9146025E5,7.474176E5,2.6167812E4,3.18795E4,2.2339262E5,2.0810875E5,2.6951094E5,3.2673512E5,8.406531E3,9.881328E3,9.044E3,1.0675E4,0E0,0E0,0E0,0E0,0E0,0E0,0E0,0E0,0E0,0E0,0E0,0E0,0E0,0E0,0E0,0E0],"parents":[2147483647,0,0,1,1,2,2,3,3,4,4,5,5,6,6,7,7,8,8,9,9,10,10,11,11,12,12,13,13,14,14],"right_children":[2,4,6,8,10,12,14,16,18,20,22,24,26,28,30,-1,-1,-1,-1,-1,-1,-1,-1,-1,-1,-1,-1,-1,-1,-1,-1],"split_conditions":[1E-45,1E-45,1E-45,1E-45,1E-45,1E-45,1E-45,1.22971E3,8.06762E3,1.26935E3,1.15797E3,2.64E0,8E-1,2.175E1,2.87321E3,1.6376139E0,7.3208576E-1,2.4755416E0,1.2077128E0,3.2132205E-1,-2.4005748E-1,1.318185E0,4.3365657E-1,-7.49565E-1,-9.807941E-1,-6.7889136E-1,-3.254887E-1,-1.0245922E0,-1.2145916E0,-8.552355E-1,-1.0671374E0],"split_indices":[4,28,28,13,13,13,13,8,8,8,8,31,39,29,8,0,0,0,0,0,0,0,0,0,0,0,0,0,0,0,0],"split_type":[1,1,1,1,1,1,1,0,0,0,0,0,0,0,0,0,0,0,0,0,0,0,0,0,0,0,0,0,0,0,0],"sum_hessian":[1.875E4,1.2498E4,6.252E3,3.163E3,9.335E3,1.582E3,4.67E3,2.052E3,1.111E3,6.172E3,3.163E3,1.063E3,5.19E2,3.067E3,1.603E3,6.3E2,1.422E3,8.31E2,2.8E2,2.046E3,4.126E3,9.59E2,2.204E3,5.11E2,5.52E2,2.87E2,2.32E2,5.31E2,2.536E3,8.2E2,7.83E2],"tree_param":{"num_deleted":"0","num_feature":"40","num_nodes":"31","size_leaf_vector":"1"}},{"base_weights":[4.698136E-5,1.2218244E1,-2.4422651E1,3.3939632E1,4.855476E0,-1.815756E1,-2.6540638E1,4.3072655E1,1.4755579E1,-1.2945278E0,1.6852701E1,-2.0892467E1,-1.2526413E1,-2.8369747E1,-2.302546E1,2.019076E0,9.0398765E-1,1.0643886E0,3.491228E-1,3.084754E-1,-2.3045745E-1,1.2202507E0,3.9484748E-1,-7.19641E-1,-9.416333E-1,-6.518301E-1,-3.12525E-1,-1.0675492E0,-1.206967E0,-1.0694329E0,-8.498459E-1],"categories":[0,0,1,2,0,1,2,1,0,0,0],"categories_nodes":[0,1,2,3,4,5,6],"categories_segments":[0,1,4,7,8,9,10],"categories_sizes":[1,3,3,1,1,1,1],"default_left":[1,1,1,1,1,1,1,0,0,0,0,0,0,0,0,0,0,0,0,0,0,0,0,0,0,0,0,0,0,0,0],"id":1,"left_children":[1,3,5,7,9,11,13,15,17,19,21,23,25,27,29,-1,-1,-1,-1,-1,-1,-1,-1,-1,-1,-1,-1,-1,-1,-1,-1],"loss_changes":[5.5956205E6,1.9987908E6,8.2487E4,5.53718E5,6.8886125E5,2.4114188E4,2.937425E4,3.2370275E5,7.278706E4,2.4838912E5,3.012955E5,7.7481562E3,9.10857E3,8.495E3,1.00165625E4,0E0,0E0,0E0,0E0,0E0,0E0,0E0,0E0,0E0,0E0,0E0,0E0,0E0,0E0,0E0,0E0],"parents":[2147483647,0,0,1,1,2,2,3,3,4,4,5,5,6,6,7,7,8,8,9,9,10,10,11,11,12,12,13,13,14,14],"right_children":[2,4,6,8,10,12,14,16,18,20,22,24,26,28,30,-1,-1,-1,-1,-1,-1,-1,-1,-1,-1,-1,-1,-1,-1,-1,-1],"split_conditions":[1E-45,1E-45,1E-45,1E-45,1E-45,1E-45,1E-45,7.88659E3,1.32971E3,1.26935E3,1.30188E3,2.64E0,8E-1,7.434E1,1E-2,2.019076E0,9.0398765E-1,1.0643886E0,3.491228E-1,3.084754E-1,-2.3045745E-1,1.2202507E0,3.9484748E-1,-7.19641E-1,-9.416333E-1,-6.518301E-1,-3.12525E-1,-1.0675492E0,-1.206967E0,-1.0694329E0,-8.498459E-1],"split_indices":[4,28,28,13,13,13,13,8,8,8,8,31,39,29,39,0,0,0,0,0,0,0,0,0,0,0,0,0,0,0,0],"split_type":[1,1,1,1,1,1,1,0,0,0,0,0,0,0,0,0,0,0,0,0,0,0,0,0,0,0,0,0,0,0,0],"sum_hessian":[1.875E4,1.2498E4,6.252E3,3.163E3,9.335E3,1.582E3,4.67E3,2.142E3,1.021E3,6.172E3,3.163E3,1.063E3,5.19E2,3.067E3,1.603E3,1.572E3,5.7E2,3.43E2,6.78E2,2.046E3,4.126E3,1.069E3,2.094E3,5.11E2,5.52E2,2.87E2,2.32E2,1.596E3,1.471E3,5.15E2,1.088E3],"tree_param":{"num_deleted":"0","num_feature":"40","num_nodes":"31","size_leaf_vector":"1"}},{"base_weights":[2.4211558E-6,1.1729998E1,-2.344684E1,3.2583424E1,4.661439E0,-1.7432924E1,-2.5479914E1,2.3106089E1,5.00513E1,-1.2427335E0,1.6179104E1,-2.005833E1,-1.2027219E1,-2.72357E1,-2.210564E1,1.5195996E0,6.673784E-1,2.296348E0,1.1235453E0,9.087404E-2,-4.8200786E-1,1.2167534E0,3.9888442E-1,-6.951948E-1,-9.109969E-1,-3.0339235E-1,-6.288155E-1,-9.3523854E-1,-1.1189405E0,-7.8540534E-1,-9.8304737E-1],"categories":[0,0,1,2,0,1,2,0,0,0,0,1,0,2],"categories_nodes":[0,1,2,3,4,5,6,11,12],"categories_segments":[0,1,4,7,8,9,10,11,12],"categories_sizes":[1,3,3,1,1,1,1,1,2],"default_left":[1,1,1,1,1,1,1,0,0,0,0,1,1,0,0,0,0,0,0,0,0,0,0,0,0,0,0,0,0,0,0],"id":2,"left_children":[1,3,5,7,9,11,13,15,17,19,21,23,25,27,29,-1,-1,-1,-1,-1,-1,-1,-1,-1,-1,-1,-1,-1,-1,-1,-1],"loss_changes":[5.157387E6,1.8422429E6,7.600525E4,5.2263275E5,6.3489094E5,2.2221719E4,2.706625E4,1.9558412E5,1.7806525E5,2.34502E5,2.7934562E5,7.342125E3,8.409844E3,8.0665E3,9.303E3,0E0,0E0,0E0,0E0,0E0,0E0,0E0,0E0,0E0,0E0,0E0,0E0,0E0,0E0,0E0,0E0],"parents":[2147483647,0,0,1,1,2,2,3,3,4,4,5,5,6,6,7,7,8,8,9,9,10,10,11,11,12,12,13,13,14,14],"right_children":[2,4,6,8,10,12,14,16,18,20,22,24,26,28,30,-1,-1,-1,-1,-1,-1,-1,-1,-1,-1,-1,-1,-1,-1,-1,-1],"split_conditions":[1E-45,1E-45,1E-45,1E-45,1E-45,1E-45,1E-45,1.19832E3,8.06762E3,1.37547E4,1.15797E3,1E-45,1E-45,1.894E1,6.714E1,1.5195996E0,6.673784E-1,2.296348E0,1.1235453E0,9.087404E-2,-4.8200786E-1,1.2167534E0,3.9888442E-1,-6.951948E-1,-9.109969E-1,-3.0339235E-1,-6.288155E-1,-9.3523854E-1,-1.1189405E0,-7.8540534E-1,-9.8304737E-1],"split_indices":[4,28,28,13,13,13,13,8,8,8,8,13,5,29,29,0,0,0,0,0,0,0,0,0,0,0,0,0,0,0,0],"split_type":[1,1,1,1,1,1,1,0,0,0,0,1,1,0,0,0,0,0,0,0,0,0,0,0,0,0,0,0,0,0,0],"sum_hessian":[1.875E4,1.2498E4,6.252E3,3.163E3,9.335E3,1.582E3,4.67E3,2.052E3,1.111E3,6.172E3,3.163E3,1.063E3,5.19E2,3.067E3,1.603E3,6.17E2,1.435E3,8.31E2,2.8E2,4.658E3,1.514E3,9.59E2,2.204E3,5.39E2,5.24E2,2.37E2,2.82E2,4.98E2,2.569E3,8.06E2,7.97E2],"tree_param":{"num_deleted":"0","num_feature":"40","num_nodes":"31","size_leaf_vector":"1"}},{"base_weights":[2.6808588E-5,1.1261346E1,-2.2509989E1,3.1281862E1,4.4751124E0,-1.6737219E1,-2.4461536E1,3.986949E1,1.32440195E1,1.0116512E1,-6.718938E0,-1.9257513E1,-1.1547932E1,-2.2743628E1,-2.7698124E1,1.8708355E0,8.3149666E-1,7.196736E-1,-1.2681886E-2,8.551871E-1,1.7694987E-1,3.0051796E-2,-4.154024E-1,-6.5890944E-1,-8.720327E-1,-2.9130772E-1,-6.037517E-1,-1.0376378E0,-8.4678596E-1,-1.1847496E0,-1.0691956E0],"categories":[0,0,1,2,0,1,2,1,1,0,1,0,2],"categories_nodes":[0,1,2,3,4,5,6,12],"categories_segments":[0,1,4,7,8,9,10,11],"categories_sizes":[1,3,3,1,1,1,1,2],"default_left":[1,1,1,1,1,1,1,0,0,0,0,0,1,0,0,0,0,0,0,0,0,0,0,0,0,0,0,0,0,0,0],"id":3,"left_children":[1,3,5,7,9,11,13,15,17,19,21,23,25,27,29,-1,-1,-1,-1,-1,-1,-1,-1,-1,-1,-1,-1,-1,-1,-1,-1],"loss_changes":[4.7534895E6,1.6980191E6,7.003175E4,4.8957775E5,5.896379E5,2.0477812E4,2.533675E4,2.81239E5,6.580945E4,3.9795088E5,8.5702016E4,7.1729062E3,7.752289E3,1.4830375E4,2.205875E3,0E0,0E0,0E0,0E0,0E0,0E0,0E0,0E0,0E0,0E0,0E0,0E0,0E0,0E0,0E0,0E0],"parents":[2147483647,0,0,1,1,2,2,3,3,4,4,5,5,6,6,7,7,8,8,9,9,10,10,11,11,12,12,13,13,14,14],"right_children":[2,4,6,8,10,12,14,16,18,20,22,24,26,28,30,-1,-1,-1,-1,-1,-1,-1,-1,-1,-1,-1,-1,-1,-1,-1,-1],"split_conditions":[1E-45,1E-45,1E-45,1E-45,1E-45,1E-45,1E-45,7.88659E3,7.9571E3,1.30188E3,1.24356E3,2.64E0,1E-45,1E-2,1E-2,1.8708355E0,8.3149666E-1,7.196736E-1,-1.2681886E-2,8.551871E-1,1.7694987E-1,3.0051796E-2,-4.154024E-1,-6.5890944E-1,-8.720327E-1,-2.9130772E-1,-6.037517E-1,-1.0376378E0,-8.4678596E-1,-1.1847496E0,-1.0691956E0],"split_indices":[4,28,28,13,13,13,13,8,8,8,8,31,5,39,39,0,0,0,0,0,0,0,0,0,0,0,0,0,0,0,0],"split_type":[1,1,1,1,1,1,1,0,0,0,0,0,1,0,0,0,0,0,0,0,0,0,0,0,0,0,0,0,0,0,0],"sum_hessian":[1.875E4,1.2498E4,6.252E3,3.163E3,9.335E3,1.582E3,4.67E3,2.142E3,1.021E3,6.207E3,3.128E3,1.063E3,5.19E2,3.056E3,1.614E3,1.572E3,5.7E2,7.56E2,2.65E2,2.083E3,4.124E3,1.03E3,2.098E3,5.11E2,5.52E2,2.37E2,2.82E2,1.003E3,2.053E3,5.31E2,1.083E3],"tree_param":{"num_deleted":"0","num_feature":"40","num_nodes":"31","size_leaf_vector":"1"}},{"base_weights":[-9.80143E-5,1.0811218E1,-2.1610643E1,3.0031666E1,4.2961783E0,-1.6069271E1,-2.3483963E1,2.112329E1,4.645142E1,-1.255586E0,1.5126408E1,-1.3561208E1,-2.1097591E1,-2.513307E1,-2.0314985E1,1.4070759E0,6.0241467E-1,2.1302109E0,1.0456219E0,8.225061E-2,-4.5758346E-1,8.190547E-1,-1.6547837E-3,-4.0333354E-1,-6.6428417E-1,-7.510884E-1,-9.274595E-1,-8.651465E-1,-1.0343194E0,-8.628714E-1,-6.339299E-1],"categories":[0,0,1,2,0,1,2,0,0,1,0,0,2,0,2],"categories_nodes":[0,1,2,3,4,5,6,11,12],"categories_segments":[0,1,4,7,8,9,10,11,13],"categories_sizes":[1,3,3,1,1,1,1,2,2],"default_left":[1,1,1,1,1,1,1,0,0,0,0,1,1,0,0,0,0,0,0,0,0,0,0,0,0,0,0,0,0,0,0],"id":4,"left_children":[1,3,5,7,9,11,13,15,17,19,21,23,25,27,29,-1,-1,-1,-1,-1,-1,-1,-1,-1,-1,-1,-1,-1,-1,-1,-1],"loss_changes":[4.381189E6,1.565017E6,6.45295E4,4.61821E5,5.613649E5,1.9674188E4,2.389525E4,1.74393E5,1.5226975E5,2.0822677E5,2.5675206E5,1.1048125E4,2.105125E3,7.229875E3,8.658875E3,0E0,0E0,0E0,0E0,0E0,0E0,0E0,0E0,0E0,0E0,0E0,0E0,0E0,0E0,0E0,0E0],"parents":[2147483647,0,0,1,1,2,2,3,3,4,4,5,5,6,6,7,7,8,8,9,9,10,10,11,11,12,12,13,13,14,14],"right_children":[2,4,6,8,10,12,14,16,18,20,22,24,26,28,30,-1,-1,-1,-1,-1,-1,-1,-1,-1,-1,-1,-1,-1,-1,-1,-1],"split_conditions":[1E-45,1E-45,1E-45,1E-45,1E-45,1E-45,1E-45,1.19832E3,8.06762E3,1.37547E4,8.06762E3,1E-45,1E-45,2.175E1,7.1E-1,1.4070759E0,6.0241467E-1,2.1302109E0,1.0456219E0,8.225061E-2,-4.5758346E-1,8.190547E-1,-1.6547837E-3,-4.0333354E-1,-6.6428417E-1,-7.510884E-1,-9.274595E-1,-8.651465E-1,-1.0343194E0,-8.628714E-1,-6.339299E-1],"split_indices":[4,28,28,13,13,13,13,8,8,8,8,5,5,29,39,0,0,0,0,0,0,0,0,0,0,0,0,0,0,0,0],"split_type":[1,1,1,1,1,1,1,0,0,0,0,1,1,0,0,0,0,0,0,0,0,0,0,0,0,0,0,0,0,0,0],"sum_hessian":[1.875E4,1.2498E4,6.252E3,3.163E3,9.335E3,1.582E3,4.67E3,2.052E3,1.111E3,6.172E3,3.163E3,1.058E3,5.24E2,3.067E3,1.603E3,6.17E2,1.435E3,8.31E2,2.8E2,4.658E3,1.514E3,2.338E3,8.25E2,4.96E2,5.62E2,2.53E2,2.71E2,5.31E2,2.536E3,1.248E3,3.55E2],"tree_param":{"num_deleted":"0","num_feature":"40","num_nodes":"31","size_leaf_vector":"1"}},{"base_weights":[-1.2216199E-4,1.037922E1,-2.0747204E1,2.8832043E1,4.1243777E0,-1.5428243E1,-2.2545334E1,3.6907093E1,1.1871408E1,9.427097E0,-6.3976135E0,-1.7800846E1,-1.0543671E1,-2.0932114E1,-2.5584944E1,1.7241415E0,7.3548204E-1,6.5380675E-1,-3.618253E-2,8.085562E-1,1.6478094E-1,-5.4583585E-1,-1.20263904E-1,-6.070872E-1,-8.032924E-1,-5.5086106E-1,-2.6032767E-1,-9.583597E-1,-7.776931E-1,-1.0961537E0,-9.8674315E-1],"categories":[0,0,1,2,0,1,2,1,1,0,1],"categories_nodes":[0,1,2,3,4,5,6],"categories_segments":[0,1,4,7,8,9,10],"categories_sizes":[1,3,3,1,1,1,1],"default_left":[1,1,1,1,1,1,1,0,0,0,0,0,0,0,0,0,0,0,0,0,0,0,0,0,0,0,0,0,0,0,0],"id":5,"left_children":[1,3,5,7,9,11,13,15,17,19,21,23,25,27,29,-1,-1,-1,-1,-1,-1,-1,-1,-1,-1,-1,-1,-1,-1,-1,-1],"loss_changes":[4.0380765E6,1.4425061E6,5.9453E4,4.32892E5,5.209643E5,1.8155125E4,2.236425E4,2.451285E5,5.843042E4,3.5533338E5,7.686514E4,6.0605625E3,6.681832E3,1.3315125E4,2.0105E3,0E0,0E0,0E0,0E0,0E0,0E0,0E0,0E0,0E0,0E0,0E0,0E0,0E0,0E0,0E0,0E0],"parents":[2147483647,0,0,1,1,2,2,3,3,4,4,5,5,6,6,7,7,8,8,9,9,10,10,11,11,12,12,13,13,14,14],"right_children":[2,4,6,8,10,12,14,16,18,20,22,24,26,28,30,-1,-1,-1,-1,-1,-1,-1,-1,-1,-1,-1,-1,-1,-1,-1,-1],"split_conditions":[1E-45,1E-45,1E-45,1E-45,1E-45,1E-45,1E-45,8.06762E3,7.9571E3,1.26935E3,1.524E1,1.959E1,8E-1,1E-2,1E-2,1.7241415E0,7.3548204E-1,6.5380675E-1,-3.618253E-2,8.085562E-1,1.6478094E-1,-5.4583585E-1,-1.20263904E-1,-6.070872E-1,-8.032924E-1,-5.5086106E-1,-2.6032767E-1,-9.583597E-1,-7.776931E-1,-1.0961537E0,-9.8674315E-1],"split_indices":[4,28,28,13,13,13,13,8,8,8,38,29,39,39,39,0,0,0,0,0,0,0,0,0,0,0,0,0,0,0,0],"split_type":[1,1,1,1,1,1,1,0,0,0,0,0,0,0,0,0,0,0,0,0,0,0,0,0,0,0,0,0,0,0,0],"sum_hessian":[1.875E4,1.2498E4,6.252E3,3.163E3,9.335E3,1.582E3,4.67E3,2.142E3,1.021E3,6.207E3,3.128E3,1.063E3,5.19E2,3.056E3,1.614E3,1.604E3,5.38E2,7.56E2,2.65E2,2.046E3,4.161E3,9.96E2,2.132E3,4.98E2,5.65E2,2.87E2,2.32E2,1.003E3,2.053E3,5.31E2,1.083E3],"tree_param":{"num_deleted":"0","num_feature":"40","num_nodes":"31","size_leaf_vector":"1"}},{"base_weights":[-2.5963614E-4,9.964323E0,-1.9918285E1,2.7679735E1,3.9594355E0,-1.4812525E1,-2.164434E1,1.9301645E1,4.3122578E1,-1.2610502E0,1.4143443E1,-1.245166E1,-1.954632E1,-2.3193277E1,-1.8668104E1,1.2955111E0,5.3940934E-1,1.976222E0,9.746312E-1,1.01454094E-1,-3.7192303E-1,7.681693E-1,-8.171847E-3,-3.6941653E-1,-6.10743E-1,-6.966973E-1,-8.5848397E-1,-9.7987425E-1,-8.566283E-1,-5.5001086E-1,-7.879067E-1],"categories":[0,0,1,2,0,1,2,0,0,1,0,0,2,0,2],"categories_nodes":[0,1,2,3,4,5,6,11,12],"categories_segments":[0,1,4,7,8,9,10,11,13],"categories_sizes":[1,3,3,1,1,1,1,2,2],"default_left":[1,1,1,1,1,1,1,0,0,0,0,1,1,0,0,0,0,0,0,0,0,0,0,0,0,0,0,0,0,0,0],"id":6,"left_children":[1,3,5,7,9,11,13,15,17,19,21,23,25,27,29,-1,-1,-1,-1,-1,-1,-1,-1,-1,-1,-1,-1,-1,-1,-1,-1],"loss_changes":[3.7218005E6,1.329519E6,5.47825E4,4.0852475E5,4.9637194E5,1.7444812E4,2.1096E4,1.5582131E5,1.29836375E5,1.8842314E5,2.2974669E5,9.450969E3,1.7634844E3,6.58E3,7.84725E3,0E0,0E0,0E0,0E0,0E0,0E0,0E0,0E0,0E0,0E0,0E0,0E0,0E0,0E0,0E0,0E0],"parents":[2147483647,0,0,1,1,2,2,3,3,4,4,5,5,6,6,7,7,8,8,9,9,10,10,11,11,12,12,13,13,14,14],"right_children":[2,4,6,8,10,12,14,16,18,20,22,24,26,28,30,-1,-1,-1,-1,-1,-1,-1,-1,-1,-1,-1,-1,-1,-1,-1,-1],"split_conditions":[1E-45,1E-45,1E-45,1E-45,1E-45,1E-45,1E-45,1.22971E3,8.06762E3,8.476E1,8.06762E3,1E-45,1E-45,4.626E1,2.016E1,1.2955111E0,5.3940934E-1,1.976222E0,9.746312E-1,1.01454094E-1,-3.7192303E-1,7.681693E-1,-8.171847E-3,-3.6941653E-1,-6.10743E-1,-6.966973E-1,-8.5848397E-1,-9.7987425E-1,-8.566283E-1,-5.5001086E-1,-7.879067E-1],"split_indices":[4,28,28,13,13,13,13,8,8,29,8,5,5,38,29,0,0,0,0,0,0,0,0,0,0,0,0,0,0,0,0],"split_type":[1,1,1,1,1,1,1,0,0,0,0,1,1,0,0,0,0,0,0,0,0,0,0,0,0,0,0,0,0,0,0],"sum_hessian":[1.875E4,1.2498E4,6.252E3,3.163E3,9.335E3,1.582E3,4.67E3,2.052E3,1.111E3,6.172E3,3.163E3,1.058E3,5.24E2,3.067E3,1.603E3,6.3E2,1.422E3,8.31E2,2.8E2,4.192E3,1.98E3,2.338E3,8.25E2,4.96E2,5.62E2,2.53E2,2.71E2,1.762E3,1.305E3,2.8E2,1.323E3],"tree_param":{"num_deleted":"0","num_feature":"40","num_nodes":"31","size_leaf_vector":"1"}},{"base_weights":[-2.7367123E-4,9.566172E0,-1.9122473E1,2.6574062E1,3.801109E0,-1.4221633E1,-2.077925E1,3.4166935E1,1.0626705E1,8.787167E0,-6.0925136E0,-1.645518E1,-9.623912E0,-1.9263493E1,-2.3635464E1,1.5979257E0,6.755374E-1,5.93636E-1,-5.6235947E-2,2.1704432E-1,9.783553E-1,2.6315495E-2,-3.762145E-1,-5.670597E-1,-7.5069755E-1,-5.0472575E-1,-2.3524612E-1,-8.293611E-1,-6.5973634E-1,-1.0132687E0,-9.1124356E-1],"categories":[0,0,1,2,0,1,2,1,1,0,1,1],"categories_nodes":[0,1,2,3,4,5,6,11],"categories_segments":[0,1,4,7,8,9,10,11],"categories_sizes":[1,3,3,1,1,1,1,1],"default_left":[1,1,1,1,1,1,1,0,0,0,0,1,0,0,0,0,0,0,0,0,0,0,0,0,0,0,0,0,0,0,0],"id":7,"left_children":[1,3,5,7,9,11,13,15,17,19,21,23,25,27,29,-1,-1,-1,-1,-1,-1,-1,-1,-1,-1,-1,-1,-1,-1,-1,-1],"loss_changes":[3.430332E6,1.2254421E6,5.0473E4,3.827495E5,4.6060025E5,1.60951875E4,1.9762625E4,2.1338525E5,5.1845523E4,3.2686178E5,6.998109E4,5.3367812E3,5.751418E3,1.2107E4,1.758625E3,0E0,0E0,0E0,0E0,0E0,0E0,0E0,0E0,0E0,0E0,0E0,0E0,0E0,0E0,0E0,0E0],"parents":[2147483647,0,0,1,1,2,2,3,3,4,4,5,5,6,6,7,7,8,8,9,9,10,10,11,11,12,12,13,13,14,14],"right_children":[2,4,6,8,10,12,14,16,18,20,22,24,26,28,30,-1,-1,-1,-1,-1,-1,-1,-1,-1,-1,-1,-1,-1,-1,-1,-1],"split_conditions":[1E-45,1E-45,1E-45,1E-45,1E-45,1E-45,1E-45,8.06762E3,7.9571E3,7.7E-1,1.24356E3,1E-45,8E-1,5.6E-1,1E-2,1.5979257E0,6.755374E-1,5.93636E-1,-5.6235947E-2,2.1704432E-1,9.783553E-1,2.6315495E-2,-3.762145E-1,-5.670597E-1,-7.5069755E-1,-5.0472575E-1,-2.3524612E-1,-8.293611E-1,-6.5973634E-1,-1.0132687E0,-9.1124356E-1],"split_indices":[4,28,28,13,13,13,13,8,8,39,8,13,39,39,39,0,0,0,0,0,0,0,0,0,0,0,0,0,0,0,0],"split_type":[1,1,1,1,1,1,1,0,0,0,0,1,0,0,0,0,0,0,0,0,0,0,0,0,0,0,0,0,0,0,0],"sum_hessian":[1.875E4,1.2498E4,6.252E3,3.163E3,9.335E3,1.582E3,4.67E3,2.142E3,1.021E3,6.207E3,3.128E3,1.063E3,5.19E2,3.056E3,1.614E3,1.604E3,5.38E2,7.56E2,2.65E2,5.112E3,1.095E3,1.03E3,2.098E3,5.39E2,5.24E2,2.87E2,2.32E2,1.992E3,1.064E3,5.31E2,1.083E3],"tree_param":{"num_deleted":"0","num_feature":"40","num_nodes":"31","size_leaf_vector":"1"}},{"base_weights":[-3.604527E-4,9.183818E0,-1.8358452E1,2.5511988E1,3.6491551E0,-1.3654076E1,-1.9948812E1,1.7632584E1,4.0036095E1,-1.2600669E0,1.3225982E1,-1.5798215E1,-9.240386E0,-2.1402914E1,-1.7155025E1,1.1723008E0,4.7213876E-1,1.844969E0,9.3915844E-1,7.030456E-2,-4.2157665E-1,7.1925975E-2,7.6390225E-1,-5.377765E-1,-7.1795017E-1,-4.846068E-1,-2.2587673E-1,-8.8109314E-1,-7.2418374E-1,-5.165695E-1,-7.2823614E-1],"categories":[0,0,1,2,0,1,2,0,0,0,0],"categories_nodes":[0,1,2,3,4,5,6],"categories_segments":[0,1,4,7,8,9,10],"categories_sizes":[1,3,3,1,1,1,1],"default_left":[1,1,1,1,1,1,1,0,0,0,0,0,0,0,0,0,0,0,0,0,0,0,0,0,0,0,0,0,0,0,0],"id":8,"left_children":[1,3,5,7,9,11,13,15,17,19,21,23,25,27,29,-1,-1,-1,-1,-1,-1,-1,-1,-1,-1,-1,-1,-1,-1,-1,-1],"loss_changes":[3.161663E6,1.1294501E6,4.6507E4,3.613805E5,4.3894778E5,1.4832344E4,1.860475E4,1.3936588E5,1.11002E5,1.7287647E5,2.12266E5,5.1414375E3,5.3016406E3,5.91575E3,6.9100625E3,0E0,0E0,0E0,0E0,0E0,0E0,0E0,0E0,0E0,0E0,0E0,0E0,0E0,0E0,0E0,0E0],"parents":[2147483647,0,0,1,1,2,2,3,3,4,4,5,5,6,6,7,7,8,8,9,9,10,10,11,11,12,12,13,13,14,14],"right_children":[2,4,6,8,10,12,14,16,18,20,22,24,26,28,30,-1,-1,-1,-1,-1,-1,-1,-1,-1,-1,-1,-1,-1,-1,-1,-1],"split_conditions":[1E-45,1E-45,1E-45,1E-45,1E-45,1E-45,1E-45,1.32971E3,7.80906E3,1.37547E4,1E-2,2.64E0,8E-1,8.2E-1,2.524E1,1.1723008E0,4.7213876E-1,1.844969E0,9.3915844E-1,7.030456E-2,-4.2157665E-1,7.1925975E-2,7.6390225E-1,-5.377765E-1,-7.1795017E-1,-4.846068E-1,-2.2587673E-1,-8.8109314E-1,-7.2418374E-1,-5.165695E-1,-7.2823614E-1],"split_indices":[4,28,28,13,13,13,13,8,8,8,39,31,39,39,29,0,0,0,0,0,0,0,0,0,0,0,0,0,0,0,0],"split_type":[1,1,1,1,1,1,1,0,0,0,0,0,0,0,0,0,0,0,0,0,0,0,0,0,0,0,0,0,0,0,0],"sum_hessian":[1.875E4,1.2498E4,6.252E3,3.163E3,9.335E3,1.582E3,4.67E3,2.052E3,1.111E3,6.172E3,3.163E3,1.063E3,5.19E2,3.067E3,1.603E3,6.82E2,1.37E3,8.11E2,3E2,4.658E3,1.514E3,1.074E3,2.089E3,5.11E2,5.52E2,2.87E2,2.32E2,2.574E3,4.93E2,3.21E2,1.282E3],"tree_param":{"num_deleted":"0","num_feature":"40","num_nodes":"31","size_leaf_vector":"1"}},{"base_weights":[-3.408883E-4,8.81686E0,-1.762489E1,2.5043283E1,3.6647835E0,-1.3109162E1,-1.9151472E1,1.7351591E1,3.978369E1,8.393687E0,-5.8572288E0,-1.0975417E1,-1.7388071E1,-1.7728207E1,-2.183362E1,1.02342E0,3.8525364E-1,1.9604983E0,1.2366267E0,9.253465E-1,2.0686322E-1,-4.8641977E-1,-1.1742313E-1,-3.226311E-1,-5.409716E-1,-6.1757463E-1,-7.6574093E-1,-8.196327E-1,-6.547662E-1,-8.329934E-1,-9.250257E-1],"categories":[0,0,1,2,0,1,1,1,1,1,0,1,2,0,2,0,2],"categories_nodes":[0,2,3,4,5,6,7,8,9,11,12],"categories_segments":[0,1,4,5,6,7,8,9,10,13,15],"categories_sizes":[1,3,1,1,1,1,1,1,3,2,2],"default_left":[1,0,1,1,1,1,1,1,1,1,0,1,1,0,0,0,0,0,0,0,0,0,0,0,0,0,0,0,0,0,0],"id":9,"left_children":[1,3,5,7,9,11,13,15,17,19,21,23,25,27,29,-1,-1,-1,-1,-1,-1,-1,-1,-1,-1,-1,-1,-1,-1,-1,-1],"loss_changes":[2.9140465E6,1.04481894E6,4.28515E4,3.4080062E5,4.272816E5,1.4259281E4,1.7440125E4,1.2567794E5,8.2936625E4,3.0098803E5,5.7954586E4,7.742617E3,1.4969219E3,1.11385E4,1.6189375E3,0E0,0E0,0E0,0E0,0E0,0E0,0E0,0E0,0E0,0E0,0E0,0E0,0E0,0E0,0E0,0E0],"parents":[2147483647,0,0,1,1,2,2,3,3,4,4,5,5,6,6,7,7,8,8,9,9,10,10,11,11,12,12,13,13,14,14],"right_children":[2,4,6,8,10,12,14,16,18,20,22,24,26,28,30,-1,-1,-1,-1,-1,-1,-1,-1,-1,-1,-1,-1,-1,-1,-1,-1],"split_conditions":[1E-45,1.959E1,1E-45,1E-45,1E-45,1E-45,1E-45,1E-45,1E-45,1E-45,1.524E1,1E-45,1E-45,1E-2,7.777E1,1.02342E0,3.8525364E-1,1.9604983E0,1.2366267E0,9.253465E-1,2.0686322E-1,-4.8641977E-1,-1.1742313E-1,-3.226311E-1,-5.409716E-1,-6.1757463E-1,-7.6574093E-1,-8.196327E-1,-6.547662E-1,-8.329934E-1,-9.250257E-1],"split_indices":[4,29,28,13,13,13,13,4,4,28,38,5,5,39,29,0,0,0,0,0,0,0,0,0,0,0,0,0,0,0,0],"split_type":[1,0,1,1,1,1,1,1,1,1,0,1,1,0,0,0,0,0,0,0,0,0,0,0,0,0,0,0,0,0,0],"sum_hessian":[1.875E4,1.2498E4,6.252E3,3.011E3,9.487E3,1.582E3,4.67E3,1.98E3,1.031E3,6.339E3,3.148E3,1.058E3,5.24E2,3.056E3,1.614E3,9.57E2,1.023E3,5.03E2,5.28E2,1.136E3,5.203E3,9.96E2,2.152E3,4.96E2,5.62E2,2.53E2,2.71E2,1.003E3,2.053E3,9.16E2,6.98E2],"tree_param":{"num_deleted":"0","num_feature":"40","num_nodes":"31","size_leaf_vector":"1"}},{"base_weights":[-3.4625063E-4,8.464598E0,-1.6920774E1,2.3710371E1,3.2968397E0,-1.2586224E1,-1.8386108E1,3.0606264E1,9.227288E0,-1.3000001E0,1.2264317E1,-1.4604694E1,-8.431727E0,-1.9751846E1,-1.5762309E1,1.4363159E0,5.7450825E-1,5.2224326E-1,-6.813015E-2,6.1531413E-2,-4.0110552E-1,6.7656773E-1,-3.6702372E-2,-5.018013E-1,-6.678077E-1,-4.4387776E-1,-2.0403059E-1,-6.7112184E-1,-8.1470466E-1,-4.551064E-1,-6.672363E-1],"categories":[0,0,1,2,0,1,2,1,0,0,0,1],"categories_nodes":[0,1,2,3,4,5,6,11],"categories_segments":[0,1,4,7,8,9,10,11],"categories_sizes":[1,3,3,1,1,1,1,1],"default_left":[1,1,1,1,1,1,1,0,0,0,0,1,0,0,0,0,0,0,0,0,0,0,0,0,0,0,0,0,0,0,0],"id":10,"left_children":[1,3,5,7,9,11,13,15,17,19,21,23,25,27,29,-1,-1,-1,-1,-1,-1,-1,-1,-1,-1,-1,-1,-1,-1,-1,-1],"loss_changes":[2.6858588E6,9.846712E5,3.948175E4,3.1571425E5,3.8486612E5,1.3149172E4,1.6423375E4,1.8402888E5,4.2794875E4,1.529309E5,1.9395172E5,4.368922E3,4.558203E3,5.272625E3,6.2679062E3,0E0,0E0,0E0,0E0,0E0,0E0,0E0,0E0,0E0,0E0,0E0,0E0,0E0,0E0,0E0,0E0],"parents":[2147483647,0,0,1,1,2,2,3,3,4,4,5,5,6,6,7,7,8,8,9,9,10,10,11,11,12,12,13,13,14,14],"right_children":[2,4,6,8,10,12,14,16,18,20,22,24,26,28,30,-1,-1,-1,-1,-1,-1,-1,-1,-1,-1,-1,-1,-1,-1,-1,-1],"split_conditions":[1E-45,1E-45,1E-45,1E-45,1E-45,1E-45,1E-45,1.37547E4,7.9571E3,1.37547E4,8.06762E3,1E-45,8E-1,2.175E1,2.016E1,1.4363159E0,5.7450825E-1,5.2224326E-1,-6.813015E-2,6.1531413E-2,-4.0110552E-1,6.7656773E-1,-3.6702372E-2,-5.018013E-1,-6.678077E-1,-4.4387776E-1,-2.0403059E-1,-6.7112184E-1,-8.1470466E-1,-4.551064E-1,-6.672363E-1],"split_indices":[4,28,28,13,13,13,13,8,8,8,8,13,39,29,29,0,0,0,0,0,0,0,0,0,0,0,0,0,0,0,0],"split_type":[1,1,1,1,1,1,1,0,0,0,0,1,0,0,0,0,0,0,0,0,0,0,0,0,0,0,0,0,0,0,0],"sum_hessian":[1.875E4,1.2498E4,6.252E3,3.163E3,9.335E3,1.582E3,4.67E3,2.142E3,1.021E3,6.172E3,3.163E3,1.063E3,5.19E2,3.067E3,1.603E3,1.614E3,5.28E2,7.56E2,2.65E2,4.658E3,1.514E3,2.338E3,8.25E2,5.39E2,5.24E2,2.87E2,2.32E2,5.31E2,2.536E3,2.8E2,1.323E3],"tree_param":{"num_deleted":"0","num_feature":"40","num_nodes":"31","size_leaf_vector":"1"}},{"base_weights":[-4.2218997E-4,8.126235E0,-1.6244656E1,2.334423E1,3.2943609E0,-1.2083931E1,-1.7651224E1,3.047214E1,9.015219E0,-1.2324746E0,1.2007953E1,-1.0116825E1,-1.6028656E1,-1.6314705E1,-2.0170105E1,1.5874032E0,8.6775154E-1,6.104227E-1,1.2879507E-1,8.270316E-2,-3.3347052E-1,4.8477076E-2,6.940254E-1,-2.9550517E-1,-5.0068176E-1,-5.663618E-1,-7.086098E-1,-7.5734997E-1,-6.010607E-1,-8.681781E-1,-7.7593535E-1],"categories":[0,0,1,2,1,0,1,1,1,1,0,2],"categories_nodes":[0,2,3,4,5,6,7,8,12],"categories_segments":[0,1,4,5,6,7,8,9,10],"categories_sizes":[1,3,1,1,1,1,1,1,2],"default_left":[1,0,1,1,1,1,1,1,1,0,0,0,1,0,0,0,0,0,0,0,0,0,0,0,0,0,0,0,0,0,0],"id":11,"left_children":[1,3,5,7,9,11,13,15,17,19,21,23,25,27,29,-1,-1,-1,-1,-1,-1,-1,-1,-1,-1,-1,-1,-1,-1,-1,-1],"loss_changes":[2.475477E6,9.1898994E5,3.63785E4,3.0735475E5,3.7427E5,1.2118828E4,1.5392375E4,1.6177138E5,3.621533E4,1.4642898E5,1.8709019E5,6.8426953E3,1.4014531E3,1.0025875E4,1.487125E3,0E0,0E0,0E0,0E0,0E0,0E0,0E0,0E0,0E0,0E0,0E0,0E0,0E0,0E0,0E0,0E0],"parents":[2147483647,0,0,1,1,2,2,3,3,4,4,5,5,6,6,7,7,8,8,9,9,10,10,11,11,12,12,13,13,14,14],"right_children":[2,4,6,8,10,12,14,16,18,20,22,24,26,28,30,-1,-1,-1,-1,-1,-1,-1,-1,-1,-1,-1,-1,-1,-1,-1,-1],"split_conditions":[1E-45,1.959E1,1E-45,1E-45,1E-45,1E-45,1E-45,1E-45,1E-45,8.476E1,1E-2,6.022E1,1E-45,1E-2,1E-2,1.5874032E0,8.6775154E-1,6.104227E-1,1.2879507E-1,8.270316E-2,-3.3347052E-1,4.8477076E-2,6.940254E-1,-2.9550517E-1,-5.0068176E-1,-5.663618E-1,-7.086098E-1,-7.5734997E-1,-6.010607E-1,-8.681781E-1,-7.7593535E-1],"split_indices":[4,29,28,13,13,13,13,4,4,29,39,29,5,39,39,0,0,0,0,0,0,0,0,0,0,0,0,0,0,0,0],"split_type":[1,0,1,1,1,1,1,1,1,0,0,0,1,0,0,0,0,0,0,0,0,0,0,0,0,0,0,0,0,0,0],"sum_hessian":[1.875E4,1.2498E4,6.252E3,3.011E3,9.487E3,1.582E3,4.67E3,2.01E3,1.001E3,6.244E3,3.243E3,1.058E3,5.24E2,3.056E3,1.614E3,9.79E2,1.031E3,4.81E2,5.2E2,4.264E3,1.98E3,1.074E3,2.169E3,4.97E2,5.61E2,2.53E2,2.71E2,1.003E3,2.053E3,5.31E2,1.083E3],"tree_param":{"num_deleted":"0","num_feature":"40","num_nodes":"31","size_leaf_vector":"1"}},{"base_weights":[-4.796897E-4,7.801482E0,-1.5595685E1,2.2168694E1,2.931542E0,-1.160189E1,-1.694582E1,1.5173159E1,3.5063988E1,7.249418E0,-5.636117E0,-1.3502766E1,-7.6899004E0,-1.822857E1,-1.4481653E1,7.7517086E-1,9.1010295E-2,1.6198828E0,8.116191E-1,5.485672E-1,3.452041E-2,1.3651167E-2,-3.343249E-1,-4.5498618E-1,-6.1419713E-1,-1.8395358E-1,-4.065442E-1,-7.5140697E-1,-6.1160564E-1,-5.038742E-1,-6.5747213E-1],"categories":[0,0,1,2,0,1,2,0,1,0,0,1],"categories_nodes":[0,1,2,3,4,5,6,9],"categories_segments":[0,1,4,7,8,9,10,11],"categories_sizes":[1,3,3,1,1,1,1,1],"default_left":[1,1,1,1,1,1,1,0,0,1,0,0,0,0,0,0,0,0,0,0,0,0,0,0,0,0,0,0,0,0,0],"id":12,"left_children":[1,3,5,7,9,11,13,15,17,19,21,23,25,27,29,-1,-1,-1,-1,-1,-1,-1,-1,-1,-1,-1,-1,-1,-1,-1,-1],"loss_changes":[2.2816165E6,8.744558E5,3.351775E4,2.8488575E5,3.454178E5,1.1665547E4,1.44975E4,1.11329125E5,8.8427625E4,2.562939E5,5.091408E4,4.0165469E3,3.9279004E3,4.7271875E3,5.700875E3,0E0,0E0,0E0,0E0,0E0,0E0,0E0,0E0,0E0,0E0,0E0,0E0,0E0,0E0,0E0,0E0],"parents":[2147483647,0,0,1,1,2,2,3,3,4,4,5,5,6,6,7,7,8,8,9,9,10,10,11,11,12,12,13,13,14,14],"right_children":[2,4,6,8,10,12,14,16,18,20,22,24,26,28,30,-1,-1,-1,-1,-1,-1,-1,-1,-1,-1,-1,-1,-1,-1,-1,-1],"split_conditions":[1E-45,1E-45,1E-45,1E-45,1E-45,1E-45,1E-45,1.37547E4,7.80906E3,1E-45,1.169E3,1.959E1,2.54173E3,8.2E-1,2.87321E3,7.7517086E-1,9.1010295E-2,1.6198828E0,8.116191E-1,5.485672E-1,3.452041E-2,1.3651167E-2,-3.343249E-1,-4.5498618E-1,-6.1419713E-1,-1.8395358E-1,-4.065442E-1,-7.5140697E-1,-6.1160564E-1,-5.038742E-1,-6.5747213E-1],"split_indices":[4,28,28,13,13,13,13,8,8,4,8,29,8,39,8,0,0,0,0,0,0,0,0,0,0,0,0,0,0,0,0],"split_type":[1,1,1,1,1,1,1,0,0,1,0,0,0,0,0,0,0,0,0,0,0,0,0,0,0,0,0,0,0,0,0],"sum_hessian":[1.875E4,1.2498E4,6.252E3,3.163E3,9.335E3,1.582E3,4.67E3,2.052E3,1.111E3,6.207E3,3.128E3,1.063E3,5.19E2,3.067E3,1.603E3,1.547E3,5.05E2,8.11E2,3E2,3.084E3,3.123E3,9.79E2,2.149E3,4.98E2,5.65E2,2.32E2,2.87E2,2.574E3,4.93E2,8.2E2,7.83E2],"tree_param":{"num_deleted":"0","num_feature":"40","num_nodes":"31","size_leaf_vector":"1"}},{"base_weights":[-4.940715E-4,7.489709E0,-1.4972531E1,2.1802202E1,2.9453561E0,-1.113887E1,-1.626853E1,2.8497972E1,8.342026E0,7.100625E0,-5.421506E0,-1.2963664E1,-7.3834486E0,-1.501361E1,-1.8633808E1,1.4896141E0,8.067356E-1,5.710754E-1,1.13408946E-1,-7.974181E-2,4.579978E-1,-5.8455918E-2,-3.7272984E-1,-4.368232E-1,-5.896727E-1,-3.903468E-1,-1.7661737E-1,-6.989872E-1,-5.5213106E-1,-8.035165E-1,-7.161155E-1],"categories":[0,0,1,2,1,1,0,1,1,1,1],"categories_nodes":[0,2,3,4,5,6,7,8,10],"categories_segments":[0,1,4,5,6,7,8,9,10],"categories_sizes":[1,3,1,1,1,1,1,1,1],"default_left":[1,0,1,1,1,1,1,1,1,0,1,0,0,0,0,0,0,0,0,0,0,0,0,0,0,0,0,0,0,0,0],"id":13,"left_children":[1,3,5,7,9,11,13,15,17,19,21,23,25,27,29,-1,-1,-1,-1,-1,-1,-1,-1,-1,-1,-1,-1,-1,-1,-1,-1],"loss_changes":[2.1029175E6,8.128811E5,3.0883625E4,2.7121888E5,3.2990378E5,1.0750344E4,1.3581375E4,1.4568488E5,3.2705273E4,2.5079278E5,4.857914E4,3.7018594E3,3.621332E3,8.861625E3,1.3530625E3,0E0,0E0,0E0,0E0,0E0,0E0,0E0,0E0,0E0,0E0,0E0,0E0,0E0,0E0,0E0,0E0],"parents":[2147483647,0,0,1,1,2,2,3,3,4,4,5,5,6,6,7,7,8,8,9,9,10,10,11,11,12,12,13,13,14,14],"right_children":[2,4,6,8,10,12,14,16,18,20,22,24,26,28,30,-1,-1,-1,-1,-1,-1,-1,-1,-1,-1,-1,-1,-1,-1,-1,-1],"split_conditions":[1E-45,1.959E1,1E-45,1E-45,1E-45,1E-45,1E-45,1E-45,1E-45,1.5E-1,1E-45,1.959E1,8E-1,1E-2,1E-2,1.4896141E0,8.067356E-1,5.710754E-1,1.13408946E-1,-7.974181E-2,4.579978E-1,-5.8455918E-2,-3.7272984E-1,-4.368232E-1,-5.896727E-1,-3.903468E-1,-1.7661737E-1,-6.989872E-1,-5.5213106E-1,-8.035165E-1,-7.161155E-1],"split_indices":[4,29,28,13,13,13,13,4,4,39,4,29,39,39,39,0,0,0,0,0,0,0,0,0,0,0,0,0,0,0,0],"split_type":[1,0,1,1,1,1,1,1,1,0,1,0,0,0,0,0,0,0,0,0,0,0,0,0,0,0,0,0,0,0,0],"sum_hessian":[1.875E4,1.2498E4,6.252E3,3.011E3,9.487E3,1.582E3,4.67E3,2.01E3,1.001E3,6.339E3,3.148E3,1.063E3,5.19E2,3.056E3,1.614E3,9.79E2,1.031E3,4.81E2,5.2E2,2.051E3,4.288E3,1.562E3,1.586E3,4.98E2,5.65E2,2.87E2,2.32E2,1.003E3,2.053E3,5.31E2,1.083E3],"tree_param":{"num_deleted":"0","num_feature":"40","num_nodes":"31","size_leaf_vector":"1"}},{"base_weights":[-5.5126107E-4,7.1903563E0,-1.4374331E1,2.0746368E1,2.5953996E0,-1.0516545E1,-1.5582117E1,1.4154992E1,3.2896774E1,-1.4732602E0,1.0532612E1,-1.2294058E1,-6.9687133E0,-1.4361851E1,-1.785432E1,8.754614E-1,3.1529066E-1,1.5097842E0,7.286858E-1,1.1877897E-1,-2.330885E-1,7.0708317E-1,1.4009386E-1,-4.1931656E-1,-5.62779E-1,-1.697172E-1,-3.6917132E-1,-6.710555E-1,-5.2800125E-1,-7.714363E-1,-6.865289E-1],"categories":[0,0,1,2,0,0,0,1,1,1,0,2,0,2],"categories_nodes":[0,1,3,4,5,6,9,10,11,12],"categories_segments":[0,1,4,5,6,7,8,9,10,12],"categories_sizes":[1,3,1,1,1,1,1,1,2,2],"default_left":[1,1,0,1,1,1,1,0,0,1,1,1,1,0,0,0,0,0,0,0,0,0,0,0,0,0,0,0,0,0,0],"id":14,"left_children":[1,3,5,7,9,11,13,15,17,19,21,23,25,27,29,-1,-1,-1,-1,-1,-1,-1,-1,-1,-1,-1,-1,-1,-1,-1,-1],"loss_changes":[1.9382172E6,7.7849756E5,2.8968625E4,2.5292788E5,3.015115E5,9.334031E3,1.2938375E4,9.939056E4,7.84415E4,1.1942472E5,1.5885581E5,3.0462969E3,3.0465664E3,8.4775E3,1.3066875E3,0E0,0E0,0E0,0E0,0E0,0E0,0E0,0E0,0E0,0E0,0E0,0E0,0E0,0E0,0E0,0E0],"parents":[2147483647,0,0,1,1,2,2,3,3,4,4,5,5,6,6,7,7,8,8,9,9,10,10,11,11,12,12,13,13,14,14],"right_children":[2,4,6,8,10,12,14,16,18,20,22,24,26,28,30,-1,-1,-1,-1,-1,-1,-1,-1,-1,-1,-1,-1,-1,-1,-1,-1],"split_conditions":[1E-45,1E-45,1.894E1,1E-45,1E-45,1E-45,1E-45,9.8545E2,1.37547E4,1E-45,1E-45,1E-45,1E-45,1E-2,1E-2,8.754614E-1,3.1529066E-1,1.5097842E0,7.286858E-1,1.1877897E-1,-2.330885E-1,7.0708317E-1,1.4009386E-1,-4.1931656E-1,-5.62779E-1,-1.697172E-1,-3.6917132E-1,-6.710555E-1,-5.2800125E-1,-7.714363E-1,-6.865289E-1],"split_indices":[4,28,29,13,13,13,13,15,8,4,4,28,28,39,39,0,0,0,0,0,0,0,0,0,0,0,0,0,0,0,0],"split_type":[1,1,0,1,1,1,1,0,0,1,1,1,1,0,0,0,0,0,0,0,0,0,0,0,0,0,0,0,0,0,0],"sum_hessian":[1.875E4,1.2498E4,6.252E3,3.163E3,9.335E3,1.493E3,4.759E3,2.052E3,1.111E3,6.172E3,3.163E3,9.93E2,5E2,3.101E3,1.658E3,9.18E2,1.134E3,8.34E2,2.77E2,3.055E3,3.117E3,1.568E3,1.595E3,4.95E2,4.98E2,2.28E2,2.72E2,1.003E3,2.098E3,5.31E2,1.127E3],"tree_param":{"num_deleted":"0","num_feature":"40","num_nodes":"31","size_leaf_vector":"1"}},{"base_weights":[-5.3020054E-4,6.9030766E0,-1.3800032E1,2.0415392E1,2.612805E0,-1.0224111E1,-1.5008933E1,1.3941439E1,3.2822742E1,6.5145535E0,-5.2435308E0,-8.455562E0,-1.3771864E1,-1.6181091E1,-1.2757505E1,8.377006E-1,2.951156E-1,1.6329314E0,1.0055226E0,-8.412444E-2,4.2544138E-1,-4.231141E-1,-1.1256525E-1,-2.456114E-1,-4.196781E-1,-4.9069488E-1,-6.050317E-1,-5.535492E-1,-6.708895E-1,-3.5602507E-1,-5.4265445E-1],"categories":[0,0,1,2,0,1,1,0,1,1,0,2],"categories_nodes":[0,2,3,4,5,6,7,8,12],"categories_segments":[0,1,4,5,6,7,8,9,10],"categories_sizes":[1,3,1,1,1,1,1,1,2],"default_left":[1,0,1,1,1,1,1,1,1,0,0,0,1,0,0,0,0,0,0,0,0,0,0,0,0,0,0,0,0,0,0],"id":15,"left_children":[1,3,5,7,9,11,13,15,17,19,21,23,25,27,29,-1,-1,-1,-1,-1,-1,-1,-1,-1,-1,-1,-1,-1,-1,-1,-1],"loss_changes":[1.786435E6,7.245303E5,2.6875375E4,2.4147538E5,2.908742E5,9.813672E3,1.21175E4,9.087341E4,6.241625E4,2.2520447E5,4.07774E4,4.9268984E3,8.81125E2,4.0130625E3,4.8809375E3,0E0,0E0,0E0,0E0,0E0,0E0,0E0,0E0,0E0,0E0,0E0,0E0,0E0,0E0,0E0,0E0],"parents":[2147483647,0,0,1,1,2,2,3,3,4,4,5,5,6,6,7,7,8,8,9,9,10,10,11,11,12,12,13,13,14,14],"right_children":[2,4,6,8,10,12,14,16,18,20,22,24,26,28,30,-1,-1,-1,-1,-1,-1,-1,-1,-1,-1,-1,-1,-1,-1,-1,-1],"split_conditions":[1E-45,1.959E1,1E-45,1E-45,1E-45,1E-45,1E-45,1E-45,1E-45,1.5E-1,1E-2,6.022E1,1E-45,2.923E1,2.016E1,8.377006E-1,2.951156E-1,1.6329314E0,1.0055226E0,-8.412444E-2,4.2544138E-1,-4.231141E-1,-1.1256525E-1,-2.456114E-1,-4.196781E-1,-4.9069488E-1,-6.050317E-1,-5.535492E-1,-6.708895E-1,-3.5602507E-1,-5.4265445E-1],"split_indices":[4,29,28,13,13,13,13,4,4,39,39,29,5,29,29,0,0,0,0,0,0,0,0,0,0,0,0,0,0,0,0],"split_type":[1,0,1,1,1,1,1,1,1,0,0,0,1,0,0,0,0,0,0,0,0,0,0,0,0,0,0,0,0,0,0],"sum_hessian":[1.875E4,1.2498E4,6.252E3,3.011E3,9.487E3,1.582E3,4.67E3,1.98E3,1.031E3,6.339E3,3.148E3,1.058E3,5.24E2,3.067E3,1.603E3,9.57E2,1.023E3,5.03E2,5.28E2,2.051E3,4.288E3,9.84E2,2.164E3,4.97E2,5.61E2,2.53E2,2.71E2,6.23E2,2.444E3,2.8E2,1.323E3],"tree_param":{"num_deleted":"0","num_feature":"40","num_nodes":"31","size_leaf_vector":"1"}},{"base_weights":[-5.265978E-4,6.6272397E0,-1.3248656E1,1.9400785E1,2.297524E0,-9.816266E0,-1.4409034E1,2.5198936E1,7.223746E0,-1.5038433E0,9.713341E0,-8.11797E0,-1.3223084E1,-1.5534249E1,-1.2247768E1,1.1867996E0,4.6005175E-1,4.140802E-1,-6.822546E-2,1.0850202E-1,-2.2543785E-1,6.60399E-1,1.2102146E-1,-2.3563495E-1,-4.0277556E-1,-4.711444E-1,-5.8091944E-1,-6.616538E-1,-5.6864744E-1,-5.355355E-1,-3.8690296E-1],"categories":[0,0,1,2,0,1,2,1,0,1,0,1,1,0,2,0,2],"categories_nodes":[0,1,2,3,4,5,6,9,10,11,12],"categories_segments":[0,1,4,7,8,9,10,11,12,13,15],"categories_sizes":[1,3,3,1,1,1,1,1,1,2,2],"default_left":[1,1,1,1,1,1,1,0,0,1,1,1,1,0,0,0,0,0,0,0,0,0,0,0,0,0,0,0,0,0,0],"id":16,"left_children":[1,3,5,7,9,11,13,15,17,19,21,23,25,27,29,-1,-1,-1,-1,-1,-1,-1,-1,-1,-1,-1,-1,-1,-1,-1,-1],"loss_changes":[1.6465295E6,6.912207E5,2.4761E4,2.2320688E5,2.6319953E5,9.049422E3,1.1166375E4,1.30898125E5,2.8566473E4,1.07565125E5,1.4376631E5,4.5415E3,8.1209375E2,3.83425E3,4.5796562E3,0E0,0E0,0E0,0E0,0E0,0E0,0E0,0E0,0E0,0E0,0E0,0E0,0E0,0E0,0E0,0E0],"parents":[2147483647,0,0,1,1,2,2,3,3,4,4,5,5,6,6,7,7,8,8,9,9,10,10,11,11,12,12,13,13,14,14],"right_children":[2,4,6,8,10,12,14,16,18,20,22,24,26,28,30,-1,-1,-1,-1,-1,-1,-1,-1,-1,-1,-1,-1,-1,-1,-1,-1],"split_conditions":[1E-45,1E-45,1E-45,1E-45,1E-45,1E-45,1E-45,1.37547E4,7.9571E3,1E-45,1E-45,1E-45,1E-45,4.5E-1,6.1E-1,1.1867996E0,4.6005175E-1,4.140802E-1,-6.822546E-2,1.0850202E-1,-2.2543785E-1,6.60399E-1,1.2102146E-1,-2.3563495E-1,-4.0277556E-1,-4.711444E-1,-5.8091944E-1,-6.616538E-1,-5.6864744E-1,-5.355355E-1,-3.8690296E-1],"split_indices":[4,28,28,13,13,13,13,8,8,4,4,5,5,39,39,0,0,0,0,0,0,0,0,0,0,0,0,0,0,0,0],"split_type":[1,1,1,1,1,1,1,0,0,1,1,1,1,0,0,0,0,0,0,0,0,0,0,0,0,0,0,0,0,0,0],"sum_hessian":[1.875E4,1.2498E4,6.252E3,3.163E3,9.335E3,1.582E3,4.67E3,2.142E3,1.021E3,6.172E3,3.163E3,1.058E3,5.24E2,3.067E3,1.603E3,1.614E3,5.28E2,7.56E2,2.65E2,3.055E3,3.117E3,1.568E3,1.595E3,4.96E2,5.62E2,2.53E2,2.71E2,1.732E3,1.335E3,1.108E3,4.95E2],"tree_param":{"num_deleted":"0","num_feature":"40","num_nodes":"31","size_leaf_vector":"1"}},{"base_weights":[-5.6958024E-4,6.362364E0,-1.2719329E1,1.9171835E1,2.3466952E0,-9.276525E0,-1.3797214E1,2.5181988E1,7.047074E0,-1.4006166E0,9.563007E0,-7.6902275E0,-1.2601116E1,-1.2686004E1,-1.5866578E1,1.322366E0,7.081134E-1,4.8649615E-1,9.1442525E-2,1.093805E-1,-2.2078094E-1,9.679613E-3,5.662822E-1,-2.489372E-1,-4.2420456E-1,-4.5130497E-1,-5.559793E-1,-5.962102E-1,-4.6473572E-1,-6.8743527E-1,-6.092079E-1],"categories":[0,1,0,1,1,1,1,1,1,0,2],"categories_nodes":[0,3,4,5,6,7,8,9,11,12],"categories_segments":[0,1,2,3,4,5,6,7,8,9],"categories_sizes":[1,1,1,1,1,1,1,1,1,2],"default_left":[1,0,0,1,1,1,1,1,1,1,0,1,1,0,0,0,0,0,0,0,0,0,0,0,0,0,0,0,0,0,0],"id":17,"left_children":[1,3,5,7,9,11,13,15,17,19,21,23,25,27,29,-1,-1,-1,-1,-1,-1,-1,-1,-1,-1,-1,-1,-1,-1,-1,-1],"loss_changes":[1.517574E6,6.428839E5,2.3074312E4,2.1719538E5,2.5737075E5,7.780117E3,1.07414375E4,1.1688525E5,2.4081355E4,1.0672219E5,1.3929247E5,4.2677266E3,6.640703E2,7.1737188E3,1.1279062E3,0E0,0E0,0E0,0E0,0E0,0E0,0E0,0E0,0E0,0E0,0E0,0E0,0E0,0E0,0E0,0E0],"parents":[2147483647,0,0,1,1,2,2,3,3,4,4,5,5,6,6,7,7,8,8,9,9,10,10,11,11,12,12,13,13,14,14],"right_children":[2,4,6,8,10,12,14,16,18,20,22,24,26,28,30,-1,-1,-1,-1,-1,-1,-1,-1,-1,-1,-1,-1,-1,-1,-1,-1],"split_conditions":[1E-45,1.894E1,1.894E1,1E-45,1E-45,1E-45,1E-45,1E-45,1E-45,1E-45,1E-2,1E-45,1E-45,1E-2,1E-2,1.322366E0,7.081134E-1,4.8649615E-1,9.1442525E-2,1.093805E-1,-2.2078094E-1,9.679613E-3,5.662822E-1,-2.489372E-1,-4.2420456E-1,-4.5130497E-1,-5.559793E-1,-5.962102E-1,-4.6473572E-1,-6.8743527E-1,-6.092079E-1],"split_indices":[4,29,29,13,13,13,13,4,4,4,39,1,28,39,39,0,0,0,0,0,0,0,0,0,0,0,0,0,0,0,0],"split_type":[1,0,0,1,1,1,1,1,1,1,0,1,1,0,0,0,0,0,0,0,0,0,0,0,0,0,0,0,0,0,0],"sum_hessian":[1.875E4,1.2498E4,6.252E3,2.982E3,9.516E3,1.493E3,4.759E3,1.993E3,9.89E2,6.264E3,3.252E3,1.013E3,4.8E2,3.101E3,1.658E3,9.69E2,1.024E3,4.76E2,5.13E2,3.126E3,3.138E3,1.074E3,2.178E3,6.76E2,3.37E2,2.43E2,2.37E2,1.003E3,2.098E3,5.31E2,1.127E3],"tree_param":{"num_deleted":"0","num_feature":"40","num_nodes":"31","size_leaf_vector":"1"}},{"base_weights":[-5.983162E-4,6.108117E0,-1.2211206E1,1.8180508E1,2.0160804E0,-8.98494E0,-1.3301951E1,1.2319363E1,2.898505E1,5.5822406E0,-5.059867E0,-1.060065E1,-5.6614776E0,-1.4355628E1,-1.1278208E1,7.6731795E-1,2.7004132E-1,1.3315828E0,6.454597E-1,5.5910176E-1,7.906382E-2,8.70355E-2,-2.6510993E-1,-3.6254486E-1,-4.8644847E-1,-1.6010778E-1,-3.585966E-1,-5.323149E-1,-6.168884E-1,-4.9311858E-1,-3.563252E-1],"categories":[0,0,1,2,0,1,2,0,1,0,0,1,1],"categories_nodes":[0,1,2,3,4,5,6,11,12],"categories_segments":[0,1,4,7,8,9,10,11,12],"categories_sizes":[1,3,3,1,1,1,1,1,1],"default_left":[1,1,1,1,1,1,1,0,0,0,0,1,1,0,0,0,0,0,0,0,0,0,0,0,0,0,0,0,0,0,0],"id":18,"left_children":[1,3,5,7,9,11,13,15,17,19,21,23,25,27,29,-1,-1,-1,-1,-1,-1,-1,-1,-1,-1,-1,-1,-1,-1,-1,-1],"loss_changes":[1.3987335E6,6.1742025E5,2.188275E4,2.0000538E5,2.3561258E5,8.438664E3,9.795875E3,7.833097E4,6.0959125E4,1.8788995E5,3.5512766E4,2.4397969E3,2.8122559E3,3.2204375E3,3.8788125E3,0E0,0E0,0E0,0E0,0E0,0E0,0E0,0E0,0E0,0E0,0E0,0E0,0E0,0E0,0E0,0E0],"parents":[2147483647,0,0,1,1,2,2,3,3,4,4,5,5,6,6,7,7,8,8,9,9,10,10,11,11,12,12,13,13,14,14],"right_children":[2,4,6,8,10,12,14,16,18,20,22,24,26,28,30,-1,-1,-1,-1,-1,-1,-1,-1,-1,-1,-1,-1,-1,-1,-1,-1],"split_conditions":[1E-45,1E-45,1E-45,1E-45,1E-45,1E-45,1E-45,9.8545E2,8.06762E3,1.15797E3,2.252E1,1E-45,1E-45,7.132E1,6.1E-1,7.6731795E-1,2.7004132E-1,1.3315828E0,6.454597E-1,5.5910176E-1,7.906382E-2,8.70355E-2,-2.6510993E-1,-3.6254486E-1,-4.8644847E-1,-1.6010778E-1,-3.585966E-1,-5.323149E-1,-6.168884E-1,-4.9311858E-1,-3.563252E-1],"split_indices":[4,28,28,13,13,13,13,15,8,8,29,13,1,29,39,0,0,0,0,0,0,0,0,0,0,0,0,0,0,0,0],"split_type":[1,1,1,1,1,1,1,0,0,0,0,1,1,0,0,0,0,0,0,0,0,0,0,0,0,0,0,0,0,0,0],"sum_hessian":[1.875E4,1.2498E4,6.252E3,3.163E3,9.335E3,1.582E3,4.67E3,2.052E3,1.111E3,6.207E3,3.128E3,1.063E3,5.19E2,3.067E3,1.603E3,9.18E2,1.134E3,8.31E2,2.8E2,1.864E3,4.343E3,5.57E2,2.571E3,5.39E2,5.24E2,3.47E2,1.72E2,1.554E3,1.513E3,1.108E3,4.95E2],"tree_param":{"num_deleted":"0","num_feature":"40","num_nodes":"31","size_leaf_vector":"1"}},{"base_weights":[-5.687888E-4,5.8640723E0,-1.1723301E1,1.7454245E1,1.9354872E0,-8.490278E0,-1.2735552E1,2.2745682E1,6.341616E0,5.359055E0,-4.8575277E0,-1.0004343E1,-5.469178E0,-1.3756203E1,-1.075426E1,1.3491849E0,7.180627E-1,3.6668453E-1,-6.8913266E-2,4.3163246E-1,-2.6300907E-4,-3.9018795E-1,-1.0425596E-1,-3.3999065E-1,-4.6364552E-1,-1.5697013E-1,-3.4477088E-1,-4.631693E-1,-5.6931174E-1,-2.9080078E-1,-4.6039695E-1],"categories":[0,0,1,2,1,1,0,0,1,1,1,0,1,2,0,1,2],"categories_nodes":[0,1,3,4,5,6,9,11,12,13,14],"categories_segments":[0,1,4,5,6,7,8,9,10,11,14],"categories_sizes":[1,3,1,1,1,1,1,1,1,3,3],"default_left":[1,1,0,1,1,1,1,0,0,1,0,1,1,1,1,0,0,0,0,0,0,0,0,0,0,0,0,0,0,0,0],"id":19,"left_children":[1,3,5,7,9,11,13,15,17,19,21,23,25,27,29,-1,-1,-1,-1,-1,-1,-1,-1,-1,-1,-1,-1,-1,-1,-1,-1],"loss_changes":[1.2891935E6,5.69081E5,2.03535E4,1.8590169E5,2.1714734E5,6.777508E3,9.4753125E3,1.12236E5,2.3303914E4,1.8093206E5,3.4467938E4,2.2726016E3,2.4031172E3,3.088375E3,4.1876562E3,0E0,0E0,0E0,0E0,0E0,0E0,0E0,0E0,0E0,0E0,0E0,0E0,0E0,0E0,0E0,0E0],"parents":[2147483647,0,0,1,1,2,2,3,3,4,4,5,5,6,6,7,7,8,8,9,9,10,10,11,11,12,12,13,13,14,14],"right_children":[2,4,6,8,10,12,14,16,18,20,22,24,26,28,30,-1,-1,-1,-1,-1,-1,-1,-1,-1,-1,-1,-1,-1,-1,-1,-1],"split_conditions":[1E-45,1E-45,1.894E1,1E-45,1E-45,1E-45,1E-45,1.22971E3,7.9571E3,1E-45,1E-2,1E-45,1E-45,1E-45,1E-45,1.3491849E0,7.180627E-1,3.6668453E-1,-6.8913266E-2,4.3163246E-1,-2.6300907E-4,-3.9018795E-1,-1.0425596E-1,-3.3999065E-1,-4.6364552E-1,-1.5697013E-1,-3.4477088E-1,-4.631693E-1,-5.6931174E-1,-2.9080078E-1,-4.6039695E-1],"split_indices":[4,28,29,13,13,13,13,8,8,4,39,13,1,28,28,0,0,0,0,0,0,0,0,0,0,0,0,0,0,0,0],"split_type":[1,1,0,1,1,1,1,0,0,1,0,1,1,1,1,0,0,0,0,0,0,0,0,0,0,0,0,0,0,0,0],"sum_hessian":[1.875E4,1.2498E4,6.252E3,3.163E3,9.335E3,1.493E3,4.759E3,2.142E3,1.021E3,6.207E3,3.128E3,9.93E2,5E2,3.137E3,1.622E3,6.49E2,1.493E3,7.56E2,2.65E2,3.084E3,3.123E3,9.84E2,2.144E3,5.13E2,4.8E2,3.37E2,1.63E2,5.68E2,2.569E3,2.91E2,1.331E3],"tree_param":{"num_deleted":"0","num_feature":"40","num_nodes":"31","size_leaf_vector":"1"}},{"base_weights":[-5.896554E-4,5.629693E0,-1.1254868E1,1.8142873E0,1.6967398E1,-8.250557E0,-1.22705965E1,-1.5953338E0,8.352228E0,1.1330263E1,2.789908E1,-9.743757E0,-5.1791806E0,-1.1262607E1,-1.4170939E1,-2.8985316E-1,4.196316E-2,-2.2697481E-3,5.035336E-1,6.925979E-1,2.2617126E-1,1.390042E0,8.483907E-1,-3.4922907E-1,-4.79599E-1,-1.4455377E-1,-3.3189735E-1,-5.29759E-1,-4.1154307E-1,-6.1263084E-1,-5.438368E-1],"categories":[0,0,1,2,0,0,0,1,1,1,1,1],"categories_nodes":[0,2,3,4,5,6,9,10,11,12],"categories_segments":[0,1,4,5,6,7,8,9,10,11],"categories_sizes":[1,3,1,1,1,1,1,1,1,1],"default_left":[1,0,1,1,1,1,1,0,0,1,1,1,1,0,0,0,0,0,0,0,0,0,0,0,0,0,0,0,0,0,0],"id":20,"left_children":[1,3,5,7,9,11,13,15,17,19,21,23,25,27,29,-1,-1,-1,-1,-1,-1,-1,-1,-1,-1,-1,-1,-1,-1,-1,-1],"loss_changes":[1.1882166E6,5.406484E5,1.8978188E4,2.0851012E5,1.9360869E5,7.2079688E3,8.78525E3,9.188126E4,1.1420405E5,7.048734E4,4.8300688E4,2.3143594E3,2.507004E3,5.761125E3,8.5203125E2,0E0,0E0,0E0,0E0,0E0,0E0,0E0,0E0,0E0,0E0,0E0,0E0,0E0,0E0,0E0,0E0],"parents":[2147483647,0,0,1,1,2,2,3,3,4,4,5,5,6,6,7,7,8,8,9,9,10,10,11,11,12,12,13,13,14,14],"right_children":[2,4,6,8,10,12,14,16,18,20,22,24,26,28,30,-1,-1,-1,-1,-1,-1,-1,-1,-1,-1,-1,-1,-1,-1,-1,-1],"split_conditions":[1E-45,7.748E1,1E-45,1E-45,1E-45,1E-45,1E-45,1E-2,1E-2,1E-45,1E-45,1E-45,1E-45,1E-2,1E-2,-2.8985316E-1,4.196316E-2,-2.2697481E-3,5.035336E-1,6.925979E-1,2.2617126E-1,1.390042E0,8.483907E-1,-3.4922907E-1,-4.79599E-1,-1.4455377E-1,-3.3189735E-1,-5.29759E-1,-4.1154307E-1,-6.1263084E-1,-5.438368E-1],"split_indices":[4,38,28,13,13,13,13,39,39,4,4,1,1,39,39,0,0,0,0,0,0,0,0,0,0,0,0,0,0,0,0],"split_type":[1,0,1,1,1,1,1,0,0,1,1,1,1,0,0,0,0,0,0,0,0,0,0,0,0,0,0,0,0,0,0],"sum_hessian":[1.875E4,1.2498E4,6.252E3,9.352E3,3.146E3,1.582E3,4.67E3,6.147E3,3.205E3,2.077E3,1.069E3,1.063E3,5.19E2,3.056E3,1.614E3,1.959E3,4.188E3,1.074E3,2.131E3,1.01E3,1.067E3,5.26E2,5.43E2,7.36E2,3.27E2,3.47E2,1.72E2,1.003E3,2.053E3,5.31E2,1.083E3],"tree_param":{"num_deleted":"0","num_feature":"40","num_nodes":"31","size_leaf_vector":"1"}},{"base_weights":[-5.658214E-4,5.40478E0,-1.0805222E1,1.6326021E1,1.7029468E0,-1.1779286E1,-7.8164926E0,2.131615E1,5.8463044E0,4.9173064E0,-4.6749206E0,-1.0809653E1,-1.3593498E1,-6.399663E0,-1.0733165E1,1.0085024E0,3.7520778E-1,3.3955902E-1,-6.783928E-2,4.0331453E-1,-7.4122674E-3,-4.5180074E-3,-2.7008435E-1,-5.0858974E-1,-3.952864E-1,-5.8817166E-1,-5.218922E-1,-2.026253E-1,-3.6180592E-1,-3.9427173E-1,-5.0523484E-1],"categories":[0,0,1,2,1,1,1,1,1,1,1],"categories_nodes":[0,1,3,4,5,6,9,13,14],"categories_segments":[0,1,4,5,6,7,8,9,10],"categories_sizes":[1,3,1,1,1,1,1,1,1],"default_left":[1,1,0,1,1,1,1,0,0,1,0,0,0,1,1,0,0,0,0,0,0,0,0,0,0,0,0,0,0,0,0],"id":21,"left_children":[1,3,5,7,9,11,13,15,17,19,21,23,25,27,29,-1,-1,-1,-1,-1,-1,-1,-1,-1,-1,-1,-1,-1,-1,-1,-1],"loss_changes":[1.0951718E6,5.0528766E5,1.810975E4,1.6533444E5,1.914181E5,8.143125E3,6.293547E3,9.942544E4,2.0385352E4,1.6363233E5,2.9649188E4,5.309E3,7.9915625E2,3.6195664E3,7.08125E2,0E0,0E0,0E0,0E0,0E0,0E0,0E0,0E0,0E0,0E0,0E0,0E0,0E0,0E0,0E0,0E0],"parents":[2147483647,0,0,1,1,2,2,3,3,4,4,5,5,6,6,7,7,8,8,9,9,10,10,11,11,12,12,13,13,14,14],"right_children":[2,4,6,8,10,12,14,16,18,20,22,24,26,28,30,-1,-1,-1,-1,-1,-1,-1,-1,-1,-1,-1,-1,-1,-1,-1,-1],"split_conditions":[1E-45,1E-45,7.889E1,1E-45,1E-45,1E-45,1E-45,1.37547E4,7.9571E3,1E-45,1.169E3,1E-2,1E-2,1E-45,1E-45,1.0085024E0,3.7520778E-1,3.3955902E-1,-6.783928E-2,4.0331453E-1,-7.4122674E-3,-4.5180074E-3,-2.7008435E-1,-5.0858974E-1,-3.952864E-1,-5.8817166E-1,-5.218922E-1,-2.026253E-1,-3.6180592E-1,-3.9427173E-1,-5.0523484E-1],"split_indices":[4,28,38,13,13,13,13,8,8,4,8,39,39,1,1,0,0,0,0,0,0,0,0,0,0,0,0,0,0,0,0],"split_type":[1,1,0,1,1,1,1,0,0,1,0,0,0,1,1,0,0,0,0,0,0,0,0,0,0,0,0,0,0,0,0],"sum_hessian":[1.875E4,1.2498E4,6.252E3,3.163E3,9.335E3,4.713E3,1.539E3,2.142E3,1.021E3,6.207E3,3.128E3,3.076E3,1.637E3,1.038E3,5.01E2,1.614E3,5.28E2,7.56E2,2.65E2,3.084E3,3.123E3,9.79E2,2.149E3,1.003E3,2.073E3,5.31E2,1.106E3,6.92E2,3.46E2,3.47E2,1.54E2],"tree_param":{"num_deleted":"0","num_feature":"40","num_nodes":"31","size_leaf_vector":"1"}},{"base_weights":[-6.34927E-4,5.188731E0,-1.0373573E1,1.625138E1,1.7207084E0,-7.542552E0,-1.1330764E1,1.0899134E1,2.649518E1,-1.4877234E0,7.8993754E0,-8.952442E0,-4.6430035E0,-1.2257164E1,-9.551694E0,6.6857517E-1,2.1717153E-1,1.3307691E0,8.022515E-1,-2.764694E-1,3.9479893E-2,-9.8910155E-3,4.7659642E-1,-4.093469E-1,-2.9318932E-1,-1.2660967E-1,-3.0352777E-1,-5.2151406E-1,-4.4775337E-1,-4.3711883E-1,-3.2549235E-1],"categories":[0,0,1,2,0,0,0,0,1,1,1],"categories_nodes":[0,2,3,4,5,6,7,8,12],"categories_segments":[0,1,4,5,6,7,8,9,10],"categories_sizes":[1,3,1,1,1,1,1,1,1],"default_left":[1,0,1,1,1,1,1,1,1,0,0,0,1,0,0,0,0,0,0,0,0,0,0,0,0,0,0,0,0,0,0],"id":22,"left_children":[1,3,5,7,9,11,13,15,17,19,21,23,25,27,29,-1,-1,-1,-1,-1,-1,-1,-1,-1,-1,-1,-1,-1,-1,-1,-1],"loss_changes":[1.0094015E6,4.795009E5,1.6857188E4,1.632575E5,1.8867578E5,6.4284453E3,7.579125E3,6.228353E4,4.3947875E4,8.410197E4,1.0642E5,2.1353594E3,2.2380967E3,2.3984688E3,3.0315E3,0E0,0E0,0E0,0E0,0E0,0E0,0E0,0E0,0E0,0E0,0E0,0E0,0E0,0E0,0E0,0E0],"parents":[2147483647,0,0,1,1,2,2,3,3,4,4,5,5,6,6,7,7,8,8,9,9,10,10,11,11,12,12,13,13,14,14],"right_children":[2,4,6,8,10,12,14,16,18,20,22,24,26,28,30,-1,-1,-1,-1,-1,-1,-1,-1,-1,-1,-1,-1,-1,-1,-1,-1],"split_conditions":[1E-45,1.894E1,1E-45,1E-45,1E-45,1E-45,1E-45,1E-45,1E-45,1.5E-1,1E-2,7.3E-1,1E-45,4.626E1,3.648E1,6.6857517E-1,2.1717153E-1,1.3307691E0,8.022515E-1,-2.764694E-1,3.9479893E-2,-9.8910155E-3,4.7659642E-1,-4.093469E-1,-2.9318932E-1,-1.2660967E-1,-3.0352777E-1,-5.2151406E-1,-4.4775337E-1,-4.3711883E-1,-3.2549235E-1],"split_indices":[4,29,28,13,13,13,13,4,4,39,39,30,1,38,38,0,0,0,0,0,0,0,0,0,0,0,0,0,0,0,0],"split_type":[1,0,1,1,1,1,1,1,1,0,0,0,1,0,0,0,0,0,0,0,0,0,0,0,0,0,0,0,0,0,0],"sum_hessian":[1.875E4,1.2498E4,6.252E3,2.982E3,9.516E3,1.582E3,4.67E3,1.96E3,1.022E3,6.264E3,3.252E3,1.063E3,5.19E2,3.067E3,1.603E3,9.49E2,1.011E3,4.96E2,5.26E2,1.962E3,4.302E3,1.074E3,2.178E3,5.91E2,4.72E2,3.47E2,1.72E2,1.762E3,1.305E3,8.09E2,7.94E2],"tree_param":{"num_deleted":"0","num_feature":"40","num_nodes":"31","size_leaf_vector":"1"}},{"base_weights":[-5.890086E-4,4.9814434E0,-9.959093E0,1.5268227E1,1.494676E0,-7.1112943E0,-1.0850805E1,1.02353525E1,2.4546213E1,5.79588E0,-2.7256002E0,-8.4590225E0,-4.4229636E0,-9.93665E0,-1.2553493E1,6.318228E-1,1.891888E-1,1.1827025E0,5.979724E-1,7.878192E-2,5.297925E-1,-1.7422773E-1,1.9846973E-1,-2.8513202E-1,-3.945299E-1,-8.911549E-2,-2.499075E-1,-3.6203554E-1,-4.6787056E-1,-4.806721E-1,-5.4501283E-1],"categories":[0,0,1,2,0,1,0,1,1,1,0,1,0,2,1,1],"categories_nodes":[0,1,3,4,5,6,7,8,9,11,12,13,14],"categories_segments":[0,1,4,5,6,7,8,9,10,11,12,14,15],"categories_sizes":[1,3,1,1,1,1,1,1,1,1,2,1,1],"default_left":[1,1,0,1,1,1,1,1,1,1,0,1,1,1,1,0,0,0,0,0,0,0,0,0,0,0,0,0,0,0,0],"id":23,"left_children":[1,3,5,7,9,11,13,15,17,19,21,23,25,27,29,-1,-1,-1,-1,-1,-1,-1,-1,-1,-1,-1,-1,-1,-1,-1,-1],"loss_changes":[9.3035456E5,4.4828488E5,1.58E4,1.4748806E5,1.6948569E5,5.3742734E3,7.2820625E3,6.2770766E4,5.3140188E4,1.3176605E5,5.9080562E4,1.7854141E3,1.9919424E3,4.7281875E3,7.880156E2,0E0,0E0,0E0,0E0,0E0,0E0,0E0,0E0,0E0,0E0,0E0,0E0,0E0,0E0,0E0,0E0],"parents":[2147483647,0,0,1,1,2,2,3,3,4,4,5,5,6,6,7,7,8,8,9,9,10,10,11,11,12,12,13,13,14,14],"right_children":[2,4,6,8,10,12,14,16,18,20,22,24,26,28,30,-1,-1,-1,-1,-1,-1,-1,-1,-1,-1,-1,-1,-1,-1,-1,-1],"split_conditions":[1E-45,1E-45,1.894E1,1E-45,1E-45,1E-45,1E-45,1E-45,1E-45,1E-45,7.7E-1,1E-45,1E-45,1E-45,1E-45,6.318228E-1,1.891888E-1,1.1827025E0,5.979724E-1,7.878192E-2,5.297925E-1,-1.7422773E-1,1.9846973E-1,-2.8513202E-1,-3.945299E-1,-8.911549E-2,-2.499075E-1,-3.6203554E-1,-4.6787056E-1,-4.806721E-1,-5.4501283E-1],"split_indices":[4,28,29,13,4,13,13,4,1,13,39,13,28,1,1,0,0,0,0,0,0,0,0,0,0,0,0,0,0,0,0],"split_type":[1,1,0,1,1,1,1,1,1,1,0,1,1,1,1,0,0,0,0,0,0,0,0,0,0,0,0,0,0,0,0],"sum_hessian":[1.875E4,1.2498E4,6.252E3,3.163E3,9.335E3,1.493E3,4.759E3,2.052E3,1.111E3,4.623E3,4.712E3,9.93E2,5E2,3.101E3,1.658E3,1.02E3,1.032E3,7.28E2,3.83E2,3.055E3,1.568E3,3.888E3,8.24E2,5.13E2,4.8E2,2.28E2,2.72E2,2.067E3,1.034E3,1.113E3,5.45E2],"tree_param":{"num_deleted":"0","num_feature":"40","num_nodes":"31","size_leaf_vector":"1"}},{"base_weights":[-5.461314E-4,4.7824464E0,-9.561193E0,1.5052353E1,1.474488E0,-6.8896847E0,-1.0464498E1,2.0101028E1,5.024224E0,4.424571E0,-4.488323E0,-8.199733E0,-4.195684E0,-1.1332872E1,-8.796956E0,1.0655084E0,5.538973E-1,3.160233E-1,-4.976096E-2,-9.759891E-2,3.087416E-1,-6.15632E-2,-2.9551736E-1,-2.9034314E-1,-4.1156623E-1,-1.12076506E-1,-2.789803E-1,-4.28307E-1,-5.0138354E-1,-4.2946845E-1,-3.1478694E-1],"categories":[0,0,1,2,1,1,0,0,1,1,1,1,1],"categories_nodes":[0,2,3,4,5,6,7,8,10,11,12],"categories_segments":[0,1,4,5,6,7,8,9,10,11,12],"categories_sizes":[1,3,1,1,1,1,1,1,1,1,1],"default_left":[1,0,1,1,1,1,1,1,1,0,1,1,1,0,0,0,0,0,0,0,0,0,0,0,0,0,0,0,0,0,0],"id":24,"left_children":[1,3,5,7,9,11,13,15,17,19,21,23,25,27,29,-1,-1,-1,-1,-1,-1,-1,-1,-1,-1,-1,-1,-1,-1,-1,-1],"loss_changes":[8.575014E5,4.2459747E5,1.5015875E4,1.5406112E5,1.6634075E5,5.5511953E3,6.6620938E3,8.240456E4,1.8418852E4,1.4306033E5,2.6754422E4,2.0158828E3,1.9934629E3,2.1685312E3,2.7987578E3,0E0,0E0,0E0,0E0,0E0,0E0,0E0,0E0,0E0,0E0,0E0,0E0,0E0,0E0,0E0,0E0],"parents":[2147483647,0,0,1,1,2,2,3,3,4,4,5,5,6,6,7,7,8,8,9,9,10,10,11,11,12,12,13,13,14,14],"right_children":[2,4,6,8,10,12,14,16,18,20,22,24,26,28,30,-1,-1,-1,-1,-1,-1,-1,-1,-1,-1,-1,-1,-1,-1,-1,-1],"split_conditions":[1E-45,2.016E1,1E-45,1E-45,1E-45,1E-45,1E-45,1E-45,1E-45,1.5E-1,1E-45,1E-45,1E-45,8.412E1,1E-2,1.0655084E0,5.538973E-1,3.160233E-1,-4.976096E-2,-9.759891E-2,3.087416E-1,-6.15632E-2,-2.9551736E-1,-2.9034314E-1,-4.1156623E-1,-1.12076506E-1,-2.789803E-1,-4.28307E-1,-5.0138354E-1,-4.2946845E-1,-3.1478694E-1],"split_indices":[4,29,28,13,13,13,13,4,1,39,4,1,1,29,39,0,0,0,0,0,0,0,0,0,0,0,0,0,0,0,0],"split_type":[1,0,1,1,1,1,1,1,1,0,1,1,1,0,0,0,0,0,0,0,0,0,0,0,0,0,0,0,0,0,0],"sum_hessian":[1.875E4,1.2498E4,6.252E3,3.044E3,9.454E3,1.582E3,4.67E3,2.024E3,1.02E3,6.325E3,3.129E3,1.063E3,5.19E2,3.067E3,1.603E3,9.88E2,1.036E3,6.99E2,3.21E2,2.051E3,4.274E3,1.552E3,1.577E3,7.36E2,3.27E2,3.47E2,1.72E2,2.024E3,1.043E3,5.15E2,1.088E3],"tree_param":{"num_deleted":"0","num_feature":"40","num_nodes":"31","size_leaf_vector":"1"}},{"base_weights":[-5.8091234E-4,4.591287E0,-9.179193E0,1.4292866E1,1.3028891E0,-9.979842E0,-6.3473015E0,9.55231E0,2.3032045E1,-1.5837334E0,6.9343424E0,-9.121144E0,-1.1591683E1,-5.0532746E0,-9.013048E0,5.2432996E-1,7.2876185E-2,1.1138452E0,5.533026E-1,3.365071E-2,-2.4643299E-1,4.964723E-1,6.1805308E-2,-3.3103377E-1,-4.3209064E-1,-4.4304106E-1,-5.0526774E-1,-1.5148616E-1,-3.027578E-1,-3.2694274E-1,-4.3251196E-1],"categories":[0,0,1,2,0,0,1,1,1,1,1,1,1,1,1,1],"categories_nodes":[0,1,3,4,5,6,7,8,9,10,11,12,13,14],"categories_segments":[0,1,4,5,6,7,8,9,10,11,12,13,14,15],"categories_sizes":[1,3,1,1,1,1,1,1,1,1,1,1,1,1],"default_left":[1,1,0,1,1,1,1,1,1,1,1,1,1,1,1,0,0,0,0,0,0,0,0,0,0,0,0,0,0,0,0],"id":25,"left_children":[1,3,5,7,9,11,13,15,17,19,21,23,25,27,29,-1,-1,-1,-1,-1,-1,-1,-1,-1,-1,-1,-1,-1,-1,-1,-1],"loss_changes":[7.903406E5,3.987311E5,1.411275E4,1.3085675E5,1.517764E5,6.6368438E3,4.716875E3,5.640925E4,4.8857938E4,6.852264E4,9.337822E4,4.4333125E3,7.640625E2,2.93875E3,5.8960547E2,0E0,0E0,0E0,0E0,0E0,0E0,0E0,0E0,0E0,0E0,0E0,0E0,0E0,0E0,0E0,0E0],"parents":[2147483647,0,0,1,1,2,2,3,3,4,4,5,5,6,6,7,7,8,8,9,9,10,10,11,11,12,12,13,13,14,14],"right_children":[2,4,6,8,10,12,14,16,18,20,22,24,26,28,30,-1,-1,-1,-1,-1,-1,-1,-1,-1,-1,-1,-1,-1,-1,-1,-1],"split_conditions":[1E-45,1E-45,8.452E1,1E-45,1E-45,1E-45,1E-45,1E-45,1E-45,1E-45,1E-45,1E-45,1E-45,1E-45,1E-45,5.2432996E-1,7.2876185E-2,1.1138452E0,5.533026E-1,3.365071E-2,-2.4643299E-1,4.964723E-1,6.1805308E-2,-3.3103377E-1,-4.3209064E-1,-4.4304106E-1,-5.0526774E-1,-1.5148616E-1,-3.027578E-1,-3.2694274E-1,-4.3251196E-1],"split_indices":[4,28,38,13,13,13,13,1,1,1,4,1,1,1,1,0,0,0,0,0,0,0,0,0,0,0,0,0,0,0,0],"split_type":[1,1,0,1,1,1,1,1,1,1,1,1,1,1,1,0,0,0,0,0,0,0,0,0,0,0,0,0,0,0,0],"sum_hessian":[1.875E4,1.2498E4,6.252E3,3.163E3,9.335E3,4.872E3,1.38E3,2.052E3,1.111E3,6.172E3,3.163E3,3.183E3,1.689E3,9.31E2,4.49E2,1.405E3,6.47E2,7.28E2,3.83E2,4.035E3,2.137E3,1.568E3,1.595E3,2.122E3,1.061E3,1.137E3,5.52E2,6.21E2,3.1E2,3.1E2,1.39E2],"tree_param":{"num_deleted":"0","num_feature":"40","num_nodes":"31","size_leaf_vector":"1"}},{"base_weights":[-5.7442376E-4,4.407847E0,-8.812497E0,1.2023084E0,1.3933393E1,-6.2815447E0,-9.668328E0,5.1865473E0,-2.7280147E0,1.8669954E1,4.590018E0,-7.520421E0,-3.7343414E0,-1.0482867E1,-8.104255E0,3.4046382E-1,-6.407178E-2,-1.8436491E-2,-2.8481767E-1,9.216767E-1,3.9571115E-1,3.5012722E-1,2.4994463E-2,-2.65885E-1,-3.7837765E-1,-1.9710249E-1,-3.568252E-2,-3.9610374E-1,-4.6614435E-1,-2.8708744E-1,-3.9392796E-1],"categories":[0,0,1,2,1,1,0,0,1,1,1,1,1,2,1,1],"categories_nodes":[0,2,3,4,5,6,7,8,9,10,11,12,13,14],"categories_segments":[0,1,4,5,6,7,8,9,10,11,12,13,14,15],"categories_sizes":[1,3,1,1,1,1,1,1,1,1,1,1,1,1],"default_left":[1,0,1,1,1,1,1,1,1,1,1,1,1,1,1,0,0,0,0,0,0,0,0,0,0,0,0,0,0,0,0],"id":26,"left_children":[1,3,5,7,9,11,13,15,17,19,21,23,25,27,29,-1,-1,-1,-1,-1,-1,-1,-1,-1,-1,-1,-1,-1,-1,-1,-1],"loss_changes":[7.284531E5,3.8163244E5,1.3482125E4,1.4647628E5,1.39184E5,4.966215E3,5.8640312E3,1.0485922E5,4.6888566E4,7.989256E4,1.7491639E4,1.7372227E3,1.758585E3,1.9666875E3,2.5208828E3,0E0,0E0,0E0,0E0,0E0,0E0,0E0,0E0,0E0,0E0,0E0,0E0,0E0,0E0,0E0,0E0],"parents":[2147483647,0,0,1,1,2,2,3,3,4,4,5,5,6,6,7,7,8,8,9,9,10,10,11,11,12,12,13,13,14,14],"right_children":[2,4,6,8,10,12,14,16,18,20,22,24,26,28,30,-1,-1,-1,-1,-1,-1,-1,-1,-1,-1,-1,-1,-1,-1,-1,-1],"split_conditions":[1E-45,7.748E1,1E-45,1E-45,1E-45,1E-45,1E-45,1E-45,1E-45,1E-45,1E-45,1E-45,1E-45,1E-45,1E-45,3.4046382E-1,-6.407178E-2,-1.8436491E-2,-2.8481767E-1,9.216767E-1,3.9571115E-1,3.5012722E-1,2.4994463E-2,-2.65885E-1,-3.7837765E-1,-1.9710249E-1,-3.568252E-2,-3.9610374E-1,-4.6614435E-1,-2.8708744E-1,-3.9392796E-1],"split_indices":[4,38,28,4,13,13,13,13,1,1,4,1,1,1,1,0,0,0,0,0,0,0,0,0,0,0,0,0,0,0,0],"split_type":[1,0,1,1,1,1,1,1,1,1,1,1,1,1,1,0,0,0,0,0,0,0,0,0,0,0,0,0,0,0,0],"sum_hessian":[1.875E4,1.2498E4,6.252E3,9.352E3,3.146E3,1.582E3,4.67E3,4.644E3,4.708E3,2.087E3,1.059E3,1.063E3,5.19E2,3.067E3,1.603E3,3.117E3,1.527E3,3.106E3,1.602E3,1.392E3,6.95E2,5.16E2,5.43E2,7.36E2,3.27E2,3.65E2,1.54E2,2.057E3,1.01E3,1.05E3,5.53E2],"tree_param":{"num_deleted":"0","num_feature":"40","num_nodes":"31","size_leaf_vector":"1"}},{"base_weights":[-5.931765E-4,4.231666E0,-8.460389E0,1.3419868E1,1.1172907E0,-9.276937E0,-5.955347E0,1.7648214E1,4.540356E0,3.8269033E0,-4.258961E0,-8.480083E0,-1.0768109E1,-4.7561455E0,-8.425298E0,8.7435734E-1,3.6618125E-1,2.886588E-1,-5.410427E-2,-1.02444805E-1,2.7917185E-1,-5.9454672E-2,-2.77665E-1,-4.0517005E-1,-3.071041E-1,-4.6882093E-1,-4.120233E-1,-1.439048E-1,-2.8223446E-1,-3.0649444E-1,-4.0332842E-1],"categories":[0,0,1,2,1,1,1,1,1,1,1,1,1],"categories_nodes":[0,1,3,4,5,6,7,8,10,13,14],"categories_segments":[0,1,4,5,6,7,8,9,10,11,12],"categories_sizes":[1,3,1,1,1,1,1,1,1,1,1],"default_left":[1,1,0,1,1,1,1,1,1,0,1,0,0,1,1,0,0,0,0,0,0,0,0,0,0,0,0,0,0,0,0],"id":27,"left_children":[1,3,5,7,9,11,13,15,17,19,21,23,25,27,29,-1,-1,-1,-1,-1,-1,-1,-1,-1,-1,-1,-1,-1,-1,-1,-1],"loss_changes":[6.7139794E5,3.5764884E5,1.2733656E4,1.1871206E5,1.3601898E5,5.508125E3,4.520043E3,7.644025E4,1.6127527E4,1.2503231E5,2.3262148E4,3.9926406E3,6.064375E2,2.7417383E3,5.559375E2,0E0,0E0,0E0,0E0,0E0,0E0,0E0,0E0,0E0,0E0,0E0,0E0,0E0,0E0,0E0,0E0],"parents":[2147483647,0,0,1,1,2,2,3,3,4,4,5,5,6,6,7,7,8,8,9,9,10,10,11,11,12,12,13,13,14,14],"right_children":[2,4,6,8,10,12,14,16,18,20,22,24,26,28,30,-1,-1,-1,-1,-1,-1,-1,-1,-1,-1,-1,-1,-1,-1,-1,-1],"split_conditions":[1E-45,1E-45,7.889E1,1E-45,1E-45,1E-45,1E-45,1E-45,1E-45,1.5E-1,1E-45,1E-2,1E-2,1E-45,1E-45,8.7435734E-1,3.6618125E-1,2.886588E-1,-5.410427E-2,-1.02444805E-1,2.7917185E-1,-5.9454672E-2,-2.77665E-1,-4.0517005E-1,-3.071041E-1,-4.6882093E-1,-4.120233E-1,-1.439048E-1,-2.8223446E-1,-3.0649444E-1,-4.0332842E-1],"split_indices":[4,28,38,13,13,13,13,1,1,39,4,39,39,1,1,0,0,0,0,0,0,0,0,0,0,0,0,0,0,0,0],"split_type":[1,1,0,1,1,1,1,1,1,0,1,0,0,1,1,0,0,0,0,0,0,0,0,0,0,0,0,0,0,0,0],"sum_hessian":[1.875E4,1.2498E4,6.252E3,3.163E3,9.335E3,4.713E3,1.539E3,2.142E3,1.021E3,6.207E3,3.128E3,3.076E3,1.637E3,1.038E3,5.01E2,1.431E3,7.11E2,7.02E2,3.19E2,2.051E3,4.156E3,1.539E3,1.589E3,1.003E3,2.073E3,5.31E2,1.106E3,6.92E2,3.46E2,3.47E2,1.54E2],"tree_param":{"num_deleted":"0","num_feature":"40","num_nodes":"31","size_leaf_vector":"1"}},{"base_weights":[-6.463797E-4,-4.046899E0,8.228659E0,-1.329387E-2,-8.122415E0,1.9145044E1,4.989545E0,8.505352E0,-2.545126E0,-5.737557E0,-8.928882E0,2.423746E1,8.666308E0,8.30605E0,-1.3352073E0,1.6659647E-1,6.6705E-1,-1.8865548E-1,6.498145E-2,-2.762863E-1,-1.3332592E-1,-3.8770407E-1,-2.984988E-1,1.2260016E0,7.2769964E-1,4.8860142E-1,8.398571E-2,1.8678033E-1,6.048073E-1,-2.563487E-1,4.4172086E-2],"categories":[2,0,0,1,2,1,1,0,0,0,0,0,1,2,1,0],"categories_nodes":[0,1,4,5,6,7,8,9,10,11,12,13],"categories_segments":[0,1,2,5,6,7,8,9,10,11,14,15],"categories_sizes":[1,1,3,1,1,1,1,1,1,3,1,1],"default_left":[1,1,0,0,1,1,1,1,1,1,1,1,1,1,0,0,0,0,0,0,0,0,0,0,0,0,0,0,0,0,0],"id":28,"left_children":[1,3,5,7,9,11,13,15,17,19,21,23,25,27,29,-1,-1,-1,-1,-1,-1,-1,-1,-1,-1,-1,-1,-1,-1,-1,-1],"loss_changes":[6.244008E5,2.0665405E5,2.184586E5,1.3630786E5,1.1973719E4,7.524066E4,1.0002573E5,5.128222E4,4.4116258E4,4.42766E3,5.157125E3,3.6301938E4,1.0785652E4,7.743889E4,2.0318062E4,0E0,0E0,0E0,0E0,0E0,0E0,0E0,0E0,0E0,0E0,0E0,0E0,0E0,0E0,0E0,0E0],"parents":[2147483647,0,0,1,1,2,2,3,3,4,4,5,5,6,6,7,7,8,8,9,9,10,10,11,11,12,12,13,13,14,14],"right_children":[2,4,6,8,10,12,14,16,18,20,22,24,26,28,30,-1,-1,-1,-1,-1,-1,-1,-1,-1,-1,-1,-1,-1,-1,-1,-1],"split_conditions":[1E-45,1E-45,1.792E1,1.49E1,1E-45,1E-45,1E-45,1E-45,1E-45,1E-45,1E-45,1E-45,1E-45,1E-45,1E-2,1.6659647E-1,6.6705E-1,-1.8865548E-1,6.498145E-2,-2.762863E-1,-1.3332592E-1,-3.8770407E-1,-2.984988E-1,1.2260016E0,7.2769964E-1,4.8860142E-1,8.398571E-2,1.8678033E-1,6.048073E-1,-2.563487E-1,4.4172086E-2],"split_indices":[4,4,29,29,28,13,1,13,13,13,13,28,1,13,39,0,0,0,0,0,0,0,0,0,0,0,0,0,0,0,0],"split_type":[1,1,0,0,1,1,1,1,1,1,1,1,1,1,0,0,0,0,0,0,0,0,0,0,0,0,0,0,0,0,0],"sum_hessian":[1.875E4,1.257E4,6.18E3,6.318E3,6.252E3,1.413E3,4.767E3,1.447E3,4.871E3,1.582E3,4.67E3,9.5E2,4.63E2,3.127E3,1.64E3,9.46E2,5.01E2,3.203E3,1.668E3,1.063E3,5.19E2,3.067E3,1.603E3,4.59E2,4.91E2,3E2,1.63E2,2.04E3,1.087E3,5.32E2,1.108E3],"tree_param":{"num_deleted":"0","num_feature":"40","num_nodes":"31","size_leaf_vector":"1"}},{"base_weights":[-4.737869E-4,-3.8850532E0,7.900019E0,-1.2647152E-2,-7.7976947E0,1.8381039E1,4.7900863E0,7.644276E0,-2.6234605E0,-5.1814623E0,-8.503425E0,2.3270021E1,8.320899E0,7.9740634E0,-1.2819254E0,1.3561308E-1,6.109247E-1,-1.858365E-2,-2.7183035E-1,-1.5970239E-1,-3.0417258E-1,-3.099822E-1,-3.9696863E-1,1.1770684E0,6.986508E-1,4.6912226E-1,8.064682E-2,4.5274168E-1,4.042086E-2,-2.4611402E-1,4.240685E-2],"categories":[2,0,0,1,2,1,1,0,1,1,1,0,1,2,1,1],"categories_nodes":[0,1,3,5,6,7,8,9,10,11,12,13],"categories_segments":[0,1,2,5,6,7,8,9,10,11,14,15],"categories_sizes":[1,1,3,1,1,1,1,1,1,3,1,1],"default_left":[1,1,0,1,0,1,1,1,1,1,1,1,1,1,0,0,0,0,0,0,0,0,0,0,0,0,0,0,0,0,0],"id":29,"left_children":[1,3,5,7,9,11,13,15,17,19,21,23,25,27,29,-1,-1,-1,-1,-1,-1,-1,-1,-1,-1,-1,-1,-1,-1,-1,-1],"loss_changes":[5.7550025E5,1.9046656E5,2.0138103E5,1.263414E5,1.14998125E4,6.934919E4,9.219131E4,5.209785E4,4.244822E4,3.8024727E3,5.1943438E3,3.3462344E4,9.942262E3,7.283664E4,1.8727852E4,0E0,0E0,0E0,0E0,0E0,0E0,0E0,0E0,0E0,0E0,0E0,0E0,0E0,0E0,0E0,0E0],"parents":[2147483647,0,0,1,1,2,2,3,3,4,4,5,5,6,6,7,7,8,8,9,9,10,10,11,11,12,12,13,13,14,14],"right_children":[2,4,6,8,10,12,14,16,18,20,22,24,26,28,30,-1,-1,-1,-1,-1,-1,-1,-1,-1,-1,-1,-1,-1,-1,-1,-1],"split_conditions":[1E-45,1E-45,1.792E1,1E-45,1.398E1,1E-45,1E-45,1E-45,1E-45,1E-45,1E-45,1E-45,1E-45,1E-45,1E-2,1.3561308E-1,6.109247E-1,-1.858365E-2,-2.7183035E-1,-1.5970239E-1,-3.0417258E-1,-3.099822E-1,-3.9696863E-1,1.1770684E0,6.986508E-1,4.6912226E-1,8.064682E-2,4.5274168E-1,4.042086E-2,-2.4611402E-1,4.240685E-2],"split_indices":[4,4,29,28,29,13,1,13,1,13,13,28,1,13,39,0,0,0,0,0,0,0,0,0,0,0,0,0,0,0,0],"split_type":[1,1,0,1,0,1,1,1,1,1,1,1,1,1,0,0,0,0,0,0,0,0,0,0,0,0,0,0,0,0,0],"sum_hessian":[1.875E4,1.257E4,6.18E3,6.318E3,6.252E3,1.413E3,4.767E3,1.606E3,4.712E3,1.33E3,4.922E3,9.5E2,4.63E2,3.127E3,1.64E3,1.032E3,5.74E2,3.106E3,1.606E3,8.94E2,4.36E2,3.22E3,1.702E3,4.59E2,4.91E2,3E2,1.63E2,2.112E3,1.015E3,5.32E2,1.108E3],"tree_param":{"num_deleted":"0","num_feature":"40","num_nodes":"31","size_leaf_vector":"1"}},{"base_weights":[-3.4751333E-4,-3.7297082E0,7.58446E0,-1.2067356E-2,-7.485976E0,1.7096083E1,4.3779736E0,8.052026E0,-2.4088027E0,-5.225893E0,-8.250293E0,2.1474031E1,7.924689E0,1.2011906E0,1.0562658E1,1.5929958E-1,6.2851113E-1,-1.3666074E-2,-2.5824934E-1,-1.6405377E-1,-2.9936495E-1,-3.5864666E-1,-2.7503297E-1,1.1298696E0,6.2957066E-1,4.5822436E-1,6.3791305E-2,-1.7219396E-1,1.4596978E-1,5.882088E-1,9.747554E-2],"categories":[2,0,0,1,2,0,1,2,1,0,0,1,1,0,1],"categories_nodes":[0,1,2,4,5,6,7,8,9,10,12],"categories_segments":[0,1,2,5,8,9,10,11,12,13,14],"categories_sizes":[1,1,3,3,1,1,1,1,1,1,1],"default_left":[1,1,1,0,1,1,1,1,1,1,1,0,1,0,0,0,0,0,0,0,0,0,0,0,0,0,0,0,0,0,0],"id":30,"left_children":[1,3,5,7,9,11,13,15,17,19,21,23,25,27,29,-1,-1,-1,-1,-1,-1,-1,-1,-1,-1,-1,-1,-1,-1,-1,-1],"loss_changes":[5.3042775E5,1.7554633E5,1.884366E5,1.2214928E5,1.07570625E4,6.238353E4,9.083573E4,4.5077875E4,4.0759438E4,3.9881562E3,4.5327812E3,4.048828E4,1.1267377E4,4.120772E4,5.277733E4,0E0,0E0,0E0,0E0,0E0,0E0,0E0,0E0,0E0,0E0,0E0,0E0,0E0,0E0,0E0,0E0],"parents":[2147483647,0,0,1,1,2,2,3,3,4,4,5,5,6,6,7,7,8,8,9,9,10,10,11,11,12,12,13,13,14,14],"right_children":[2,4,6,8,10,12,14,16,18,20,22,24,26,28,30,-1,-1,-1,-1,-1,-1,-1,-1,-1,-1,-1,-1,-1,-1,-1,-1],"split_conditions":[1E-45,1E-45,1E-45,1.49E1,1E-45,1E-45,1E-45,1E-45,1E-45,1E-45,1E-45,6.126E1,1E-45,1.5E-1,8.476E1,1.5929958E-1,6.2851113E-1,-1.3666074E-2,-2.5824934E-1,-1.6405377E-1,-2.9936495E-1,-3.5864666E-1,-2.7503297E-1,1.1298696E0,6.2957066E-1,4.5822436E-1,6.3791305E-2,-1.7219396E-1,1.4596978E-1,5.882088E-1,9.747554E-2],"split_indices":[4,4,28,29,28,13,13,13,1,13,13,29,1,39,29,0,0,0,0,0,0,0,0,0,0,0,0,0,0,0,0],"split_type":[1,1,1,0,1,1,1,1,1,1,1,0,1,0,0,0,0,0,0,0,0,0,0,0,0,0,0,0,0,0,0],"sum_hessian":[1.875E4,1.257E4,6.18E3,6.318E3,6.252E3,1.557E3,4.623E3,1.447E3,4.871E3,1.582E3,4.67E3,1.053E3,5.04E2,3.055E3,1.568E3,9.46E2,5.01E2,3.225E3,1.646E3,1.058E3,5.24E2,3.067E3,1.603E3,4.81E2,5.72E2,3.23E2,1.81E2,9.4E2,2.115E3,1.038E3,5.3E2],"tree_param":{"num_deleted":"0","num_feature":"40","num_nodes":"31","size_leaf_vector":"1"}},{"base_weights":[-2.0718145E-4,-3.5805674E0,7.281561E0,-1.150249E-2,-7.186715E0,1.642963E1,4.165808E0,7.2304354E0,-2.4808178E0,-5.0129204E0,-7.9565134E0,2.0900526E1,7.464828E0,7.192689E0,-1.6472268E0,1.2908779E-1,5.763838E-1,-1.9167569E-2,-2.539677E-1,-1.5883633E-1,-2.8662202E-1,-2.9058287E-1,-3.699018E-1,1.0855744E0,6.2607884E-1,4.9030784E-1,1.335841E-1,4.1303343E-1,2.194357E-2,-1.50263E-1,1.13486156E-1],"categories":[2,0,0,1,2,1,1,0,1,1,1,0,1,2,0,1,2,1,0],"categories_nodes":[0,1,3,5,6,7,8,9,10,11,12,13,14],"categories_segments":[0,1,2,5,6,7,8,9,10,11,14,17,18],"categories_sizes":[1,1,3,1,1,1,1,1,1,3,3,1,1],"default_left":[1,1,0,1,0,1,1,1,1,1,1,1,1,1,1,0,0,0,0,0,0,0,0,0,0,0,0,0,0,0,0],"id":31,"left_children":[1,3,5,7,9,11,13,15,17,19,21,23,25,27,29,-1,-1,-1,-1,-1,-1,-1,-1,-1,-1,-1,-1,-1,-1,-1,-1],"loss_changes":[4.8888962E5,1.617952E5,1.7610734E5,1.1301778E5,1.0422469E4,6.276778E4,8.1162234E4,4.6136766E4,3.648927E4,3.6445742E3,4.0547188E3,3.3854875E4,1.0317857E4,6.313103E4,1.4956159E4,0E0,0E0,0E0,0E0,0E0,0E0,0E0,0E0,0E0,0E0,0E0,0E0,0E0,0E0,0E0,0E0],"parents":[2147483647,0,0,1,1,2,2,3,3,4,4,5,5,6,6,7,7,8,8,9,9,10,10,11,11,12,12,13,13,14,14],"right_children":[2,4,6,8,10,12,14,16,18,20,22,24,26,28,30,-1,-1,-1,-1,-1,-1,-1,-1,-1,-1,-1,-1,-1,-1,-1,-1],"split_conditions":[1E-45,1E-45,2.453E1,1E-45,2.524E1,1E-45,1E-45,1E-45,1E-45,1E-45,1E-45,1E-45,1E-45,1E-45,1E-45,1.2908779E-1,5.763838E-1,-1.9167569E-2,-2.539677E-1,-1.5883633E-1,-2.8662202E-1,-2.9058287E-1,-3.699018E-1,1.0855744E0,6.2607884E-1,4.9030784E-1,1.335841E-1,4.1303343E-1,2.194357E-2,-1.50263E-1,1.13486156E-1],"split_indices":[4,4,29,28,29,13,1,13,1,13,13,28,28,13,13,0,0,0,0,0,0,0,0,0,0,0,0,0,0,0,0],"split_type":[1,1,0,1,0,1,1,1,1,1,1,1,1,1,1,0,0,0,0,0,0,0,0,0,0,0,0,0,0,0,0],"sum_hessian":[1.875E4,1.257E4,6.18E3,6.318E3,6.252E3,1.569E3,4.611E3,1.606E3,4.712E3,1.637E3,4.615E3,1.046E3,5.23E2,3.032E3,1.579E3,1.032E3,5.74E2,3.106E3,1.606E3,1.105E3,5.32E2,3.009E3,1.606E3,4.76E2,5.7E2,2.41E2,2.82E2,2.06E3,9.72E2,1.074E3,5.05E2],"tree_param":{"num_deleted":"0","num_feature":"40","num_nodes":"31","size_leaf_vector":"1"}},{"base_weights":[-8.809214E-5,-3.4373994E0,6.990745E0,-1.0973328E-2,-6.8994255E0,1.5909824E1,3.9840374E0,7.622947E0,-2.279858E0,-4.755036E0,-7.6246595E0,1.9973972E1,7.395722E0,1.0150629E0,9.764217E0,1.5231101E-1,5.9218836E-1,-1.7244995E-1,6.4845376E-2,-2.329524E-1,-1.0235287E-1,-3.3181557E-1,-2.534771E-1,1.0418113E0,5.932732E-1,1.6869879E-1,5.5209994E-1,-1.6890743E-1,1.3346995E-1,7.837901E-2,5.470328E-1],"categories":[2,0,0,1,2,0,1,2,1,0,0,0,0,0,2],"categories_nodes":[0,1,2,4,5,6,7,8,9,10,12],"categories_segments":[0,1,2,5,8,9,10,11,12,13,14],"categories_sizes":[1,1,3,3,1,1,1,1,1,1,1],"default_left":[1,1,1,0,1,1,1,1,1,1,1,0,1,0,0,0,0,0,0,0,0,0,0,0,0,0,0,0,0,0,0],"id":32,"left_children":[1,3,5,7,9,11,13,15,17,19,21,23,25,27,29,-1,-1,-1,-1,-1,-1,-1,-1,-1,-1,-1,-1,-1,-1,-1,-1],"loss_changes":[4.50604E5,1.4912116E5,1.656909E5,1.0946499E5,9.687094E3,5.3760344E4,7.934243E4,3.961646E4,3.8615137E4,3.6999688E3,3.9804062E3,3.2515E4,1.0222975E4,3.717621E4,4.787172E4,0E0,0E0,0E0,0E0,0E0,0E0,0E0,0E0,0E0,0E0,0E0,0E0,0E0,0E0,0E0,0E0],"parents":[2147483647,0,0,1,1,2,2,3,3,4,4,5,5,6,6,7,7,8,8,9,9,10,10,11,11,12,12,13,13,14,14],"right_children":[2,4,6,8,10,12,14,16,18,20,22,24,26,28,30,-1,-1,-1,-1,-1,-1,-1,-1,-1,-1,-1,-1,-1,-1,-1,-1],"split_conditions":[1E-45,1E-45,1E-45,1.49E1,1E-45,1E-45,1E-45,1E-45,1E-45,1E-45,1E-45,6.126E1,1E-45,1E-2,1E-2,1.5231101E-1,5.9218836E-1,-1.7244995E-1,6.4845376E-2,-2.329524E-1,-1.0235287E-1,-3.3181557E-1,-2.534771E-1,1.0418113E0,5.932732E-1,1.6869879E-1,5.5209994E-1,-1.6890743E-1,1.3346995E-1,7.837901E-2,5.470328E-1],"split_indices":[4,4,28,29,28,13,13,13,13,13,13,29,1,39,39,0,0,0,0,0,0,0,0,0,0,0,0,0,0,0,0],"split_type":[1,1,1,0,1,1,1,1,1,1,1,0,1,0,0,0,0,0,0,0,0,0,0,0,0,0,0,0,0,0,0],"sum_hessian":[1.875E4,1.257E4,6.18E3,6.318E3,6.252E3,1.557E3,4.623E3,1.447E3,4.871E3,1.582E3,4.67E3,1.053E3,5.04E2,3.055E3,1.568E3,9.46E2,5.01E2,3.203E3,1.668E3,1.063E3,5.19E2,3.067E3,1.603E3,4.81E2,5.72E2,3.38E2,1.66E2,9.38E2,2.117E3,5.24E2,1.044E3],"tree_param":{"num_deleted":"0","num_feature":"40","num_nodes":"31","size_leaf_vector":"1"}},{"base_weights":[4.8039554E-5,-3.299926E0,6.7115955E0,-1.04313055E-2,-6.6235976E0,1.5878088E1,3.991748E0,6.839699E0,-2.3461514E0,-4.2064652E0,-7.247935E0,2.0072994E1,7.245904E0,6.9048347E0,-1.5634174E0,1.2478434E-1,5.404341E-1,-1.6425155E-2,-2.4589954E-1,-2.108001E-1,-8.277406E-2,-2.631931E-1,-3.4369072E-1,9.44503E-1,4.8641452E-1,4.1698822E-1,5.467388E-2,8.664623E-3,3.8972896E-1,-1.4258102E-1,1.04119375E-1],"categories":[2,0,0,1,2,1,1,0,1,0,1,1,1,0],"categories_nodes":[0,1,3,5,6,7,8,9,10,11,12,14],"categories_segments":[0,1,2,5,6,7,8,9,10,11,12,13],"categories_sizes":[1,1,3,1,1,1,1,1,1,1,1,1],"default_left":[1,1,0,1,0,1,1,1,1,1,1,1,1,0,1,0,0,0,0,0,0,0,0,0,0,0,0,0,0,0,0],"id":33,"left_children":[1,3,5,7,9,11,13,15,17,19,21,23,25,27,29,-1,-1,-1,-1,-1,-1,-1,-1,-1,-1,-1,-1,-1,-1,-1,-1],"loss_changes":[4.1531838E5,1.3744052E5,1.54036E5,1.01119516E5,9.4048125E3,5.1054438E4,7.717033E4,3.9837586E4,3.467307E4,2.9113086E3,4.4040156E3,2.6344344E4,8.655969E3,5.9378125E4,1.3691082E4,0E0,0E0,0E0,0E0,0E0,0E0,0E0,0E0,0E0,0E0,0E0,0E0,0E0,0E0,0E0,0E0],"parents":[2147483647,0,0,1,1,2,2,3,3,4,4,5,5,6,6,7,7,8,8,9,9,10,10,11,11,12,12,13,13,14,14],"right_children":[2,4,6,8,10,12,14,16,18,20,22,24,26,28,30,-1,-1,-1,-1,-1,-1,-1,-1,-1,-1,-1,-1,-1,-1,-1,-1],"split_conditions":[1E-45,1E-45,1.792E1,1E-45,1.275E1,1E-45,1E-45,1E-45,1E-45,1E-45,1E-45,1E-45,1E-45,1.5E-1,1E-45,1.2478434E-1,5.404341E-1,-1.6425155E-2,-2.4589954E-1,-2.108001E-1,-8.277406E-2,-2.631931E-1,-3.4369072E-1,9.44503E-1,4.8641452E-1,4.1698822E-1,5.467388E-2,8.664623E-3,3.8972896E-1,-1.4258102E-1,1.04119375E-1],"split_indices":[4,4,29,28,29,13,1,13,13,13,1,1,1,39,13,0,0,0,0,0,0,0,0,0,0,0,0,0,0,0,0],"split_type":[1,1,0,1,0,1,1,1,1,1,1,1,1,0,1,0,0,0,0,0,0,0,0,0,0,0,0,0,0,0,0],"sum_hessian":[1.875E4,1.257E4,6.18E3,6.318E3,6.252E3,1.413E3,4.767E3,1.606E3,4.712E3,1.285E3,4.967E3,9.5E2,4.63E2,3.127E3,1.64E3,1.032E3,5.74E2,3.123E3,1.589E3,8.57E2,4.28E2,3.322E3,1.645E3,6.55E2,2.95E2,3E2,1.63E2,9.32E2,2.195E3,1.108E3,5.32E2],"tree_param":{"num_deleted":"0","num_feature":"40","num_nodes":"31","size_leaf_vector":"1"}},{"base_weights":[1.4076919E-4,-3.1679692E0,6.4435015E0,-9.949262E-3,-6.3587995E0,1.486097E1,3.605924E0,-2.235872E0,6.9767942E0,-4.3660846E0,-7.0645204E0,1.8678944E1,6.862739E0,7.938775E-1,9.080689E0,-1.2468125E-2,-2.3961416E-1,1.397557E-1,5.454654E-1,-1.3589206E-1,-2.54719E-1,-2.5732327E-1,-3.335536E-1,9.691858E-1,5.590797E-1,1.5562555E-1,5.141692E-1,1.2641653E-1,-1.4155361E-1,5.0967616E-1,7.598224E-2],"categories":[2,0,0,1,2,1,0,1,0,1,1,2,1],"categories_nodes":[0,1,2,5,6,7,8,9,10,12,13],"categories_segments":[0,1,2,5,6,7,8,9,10,11,12],"categories_sizes":[1,1,3,1,1,1,1,1,1,1,1],"default_left":[1,1,1,0,0,1,1,1,1,1,1,0,1,1,0,0,0,0,0,0,0,0,0,0,0,0,0,0,0,0,0],"id":34,"left_children":[1,3,5,7,9,11,13,15,17,19,21,23,25,27,29,-1,-1,-1,-1,-1,-1,-1,-1,-1,-1,-1,-1,-1,-1,-1,-1],"loss_changes":[3.8279006E5,1.2667356E5,1.4757911E5,9.82879E4,8.761609E3,4.744597E4,7.117966E4,3.4623367E4,3.537028E4,3.154123E3,3.6591875E3,2.7166031E4,8.941004E3,3.134594E4,4.1225953E4,0E0,0E0,0E0,0E0,0E0,0E0,0E0,0E0,0E0,0E0,0E0,0E0,0E0,0E0,0E0,0E0],"parents":[2147483647,0,0,1,1,2,2,3,3,4,4,5,5,6,6,7,7,8,8,9,9,10,10,11,11,12,12,13,13,14,14],"right_children":[2,4,6,8,10,12,14,16,18,20,22,24,26,28,30,-1,-1,-1,-1,-1,-1,-1,-1,-1,-1,-1,-1,-1,-1,-1,-1],"split_conditions":[1E-45,1E-45,1E-45,8.165E1,2.524E1,1E-45,1E-45,1E-45,1E-45,1E-45,1E-45,6.126E1,1E-45,1E-45,8.476E1,-1.2468125E-2,-2.3961416E-1,1.397557E-1,5.454654E-1,-1.3589206E-1,-2.54719E-1,-2.5732327E-1,-3.335536E-1,9.691858E-1,5.590797E-1,1.5562555E-1,5.141692E-1,1.2641653E-1,-1.4155361E-1,5.0967616E-1,7.598224E-2],"split_indices":[4,4,28,38,29,13,13,1,13,13,1,29,1,1,29,0,0,0,0,0,0,0,0,0,0,0,0,0,0,0,0],"split_type":[1,1,1,0,0,1,1,1,1,1,1,0,1,1,0,0,0,0,0,0,0,0,0,0,0,0,0,0,0,0,0],"sum_hessian":[1.875E4,1.257E4,6.18E3,6.318E3,6.252E3,1.557E3,4.623E3,4.792E3,1.526E3,1.637E3,4.615E3,1.053E3,5.04E2,3.055E3,1.568E3,3.169E3,1.623E3,1.003E3,5.23E2,1.105E3,5.32E2,3.09E3,1.525E3,4.81E2,5.72E2,3.38E2,1.66E2,1.976E3,1.079E3,1.038E3,5.3E2],"tree_param":{"num_deleted":"0","num_feature":"40","num_nodes":"31","size_leaf_vector":"1"}},{"base_weights":[2.5355758E-4,-3.0412955E0,6.1862125E0,-9.482986E-3,-6.104606E0,1.4267949E1,3.4618113E0,-2.0664968E0,6.9677196E0,-4.095472E0,-6.7841725E0,1.0351438E1,2.167388E1,6.1913304E0,-1.7704526E0,-2.3791589E-1,-8.829596E-3,4.1113484E-1,8.231354E-3,-2.0394906E-1,-8.138358E-2,-2.9672644E-1,-2.2268955E-1,5.565738E-1,1.2054478E-1,1.0748413E0,6.715499E-1,1.2136247E-1,4.8229587E-1,1.269262E-2,-2.0882027E-1],"categories":[2,0,0,1,2,0,1,2,0,1,1,0,0,1,0],"categories_nodes":[0,1,2,4,5,6,8,9,10,11,13],"categories_segments":[0,1,2,5,8,9,10,11,12,13,14],"categories_sizes":[1,1,3,3,1,1,1,1,1,1,1],"default_left":[1,1,1,0,1,1,1,0,1,1,1,1,0,1,0,0,0,0,0,0,0,0,0,0,0,0,0,0,0,0,0],"id":35,"left_children":[1,3,5,7,9,11,13,15,17,19,21,23,25,27,29,-1,-1,-1,-1,-1,-1,-1,-1,-1,-1,-1,-1,-1,-1,-1,-1],"loss_changes":[3.5281728E5,1.16751016E5,1.3604144E5,9.070548E4,8.508609E3,4.4962875E4,6.604936E4,3.4966152E4,3.2210875E4,3.2619082E3,3.5611875E3,2.6649375E4,1.3203656E4,5.6246438E4,1.1425967E4,0E0,0E0,0E0,0E0,0E0,0E0,0E0,0E0,0E0,0E0,0E0,0E0,0E0,0E0,0E0,0E0],"parents":[2147483647,0,0,1,1,2,2,3,3,4,4,5,5,6,6,7,7,8,8,9,9,10,10,11,11,12,12,13,13,14,14],"right_children":[2,4,6,8,10,12,14,16,18,20,22,24,26,28,30,-1,-1,-1,-1,-1,-1,-1,-1,-1,-1,-1,-1,-1,-1,-1,-1],"split_conditions":[1E-45,1E-45,1E-45,8.6E-1,1E-45,1E-45,1E-45,1.5E-1,1E-45,1E-45,1E-45,1E-45,6.714E1,1E-45,8.154E1,-2.3791589E-1,-8.829596E-3,4.1113484E-1,8.231354E-3,-2.0394906E-1,-8.138358E-2,-2.9672644E-1,-2.2268955E-1,5.565738E-1,1.2054478E-1,1.0748413E0,6.715499E-1,1.2136247E-1,4.8229587E-1,1.269262E-2,-2.0882027E-1],"split_indices":[4,4,28,39,28,13,1,39,1,13,13,1,29,13,29,0,0,0,0,0,0,0,0,0,0,0,0,0,0,0,0],"split_type":[1,1,1,0,1,1,1,0,1,1,1,1,0,1,0,0,0,0,0,0,0,0,0,0,0,0,0,0,0,0,0],"sum_hessian":[1.875E4,1.257E4,6.18E3,6.318E3,6.252E3,1.557E3,4.623E3,4.88E3,1.438E3,1.582E3,4.67E3,1.02E3,5.37E2,3.038E3,1.585E3,1.572E3,3.308E3,9.65E2,4.73E2,1.063E3,5.19E2,3.067E3,1.603E3,6.86E2,3.34E2,2.58E2,2.79E2,1.976E3,1.062E3,9.88E2,5.97E2],"tree_param":{"num_deleted":"0","num_feature":"40","num_nodes":"31","size_leaf_vector":"1"}},{"base_weights":[3.61221E-4,-2.919695E0,5.939226E0,-9.075319E-3,-5.860553E0,1.3838465E1,3.2488873E0,6.3407702E0,-2.1742127E0,-3.969747E0,-6.530219E0,1.7599464E1,6.297041E0,5.8619514E0,-2.06521E0,1.136145E-1,5.0472504E-1,-1.294091E-2,-2.3235923E-1,-1.2054259E-1,-2.3675914E-1,-3.106259E-1,-2.3651035E-1,8.477179E-1,4.025803E-1,4.204964E-1,1.0679099E-1,-1.07300915E-2,3.5221785E-1,-2.3520464E-1,-1.6017778E-2],"categories":[2,0,0,1,2,1,1,0,1,1,1,0,1,2],"categories_nodes":[0,1,3,5,6,7,8,9,11,12],"categories_segments":[0,1,2,5,6,7,8,9,10,11],"categories_sizes":[1,1,3,1,1,1,1,1,1,3],"default_left":[1,1,0,1,0,1,1,1,1,1,0,1,1,0,0,0,0,0,0,0,0,0,0,0,0,0,0,0,0,0,0],"id":36,"left_children":[1,3,5,7,9,11,13,15,17,19,21,23,25,27,29,-1,-1,-1,-1,-1,-1,-1,-1,-1,-1,-1,-1,-1,-1,-1,-1],"loss_changes":[3.2519412E5,1.0760358E5,1.3130964E5,8.68888E4,7.8906406E3,4.4417156E4,6.4055066E4,3.5273723E4,3.1701049E4,3.034205E3,3.4739062E3,2.8132938E4,7.982715E3,5.579597E4,9.656773E3,0E0,0E0,0E0,0E0,0E0,0E0,0E0,0E0,0E0,0E0,0E0,0E0,0E0,0E0,0E0,0E0],"parents":[2147483647,0,0,1,1,2,2,3,3,4,4,5,5,6,6,7,7,8,8,9,9,10,10,11,11,12,12,13,13,14,14],"right_children":[2,4,6,8,10,12,14,16,18,20,22,24,26,28,30,-1,-1,-1,-1,-1,-1,-1,-1,-1,-1,-1,-1,-1,-1,-1,-1],"split_conditions":[1E-45,1E-45,2.453E1,1E-45,2.524E1,1E-45,1E-45,1E-45,1E-45,1E-45,1E-2,1E-45,1E-45,1.5E-1,1.5E-1,1.136145E-1,5.0472504E-1,-1.294091E-2,-2.3235923E-1,-1.2054259E-1,-2.3675914E-1,-3.106259E-1,-2.3651035E-1,8.477179E-1,4.025803E-1,4.204964E-1,1.0679099E-1,-1.07300915E-2,3.5221785E-1,-2.3520464E-1,-1.6017778E-2],"split_indices":[4,4,29,28,29,13,13,13,13,1,39,1,28,39,39,0,0,0,0,0,0,0,0,0,0,0,0,0,0,0,0],"split_type":[1,1,0,1,0,1,1,1,1,1,0,1,1,0,0,0,0,0,0,0,0,0,0,0,0,0,0,0,0,0,0],"sum_hessian":[1.875E4,1.257E4,6.18E3,6.318E3,6.252E3,1.569E3,4.611E3,1.606E3,4.712E3,1.637E3,4.615E3,1.046E3,5.23E2,3.091E3,1.52E3,1.032E3,5.74E2,3.123E3,1.589E3,1.1E3,5.37E2,1.534E3,3.081E3,7.07E2,3.39E2,2.41E2,2.82E2,1.003E3,2.088E3,4.61E2,1.059E3],"tree_param":{"num_deleted":"0","num_feature":"40","num_nodes":"31","size_leaf_vector":"1"}},{"base_weights":[4.1734418E-4,-2.8029504E0,5.70196E0,-8.652944E-3,-5.626277E0,1.4061363E1,3.3563852E0,-2.0337846E0,6.3478403E0,-3.7326517E0,-6.2668E0,1.0193098E1,2.1434685E1,5.992917E0,-1.6880647E0,-7.497774E-3,-2.2545889E-1,1.23970486E-1,5.023964E-1,-1.1016178E-1,-2.2797367E-1,-2.257328E-1,-2.9772118E-1,5.42852E-1,1.3193072E-1,9.697595E-1,6.125327E-1,1.2170313E-1,4.6025085E-1,5.326169E-3,-2.0621948E-1],"categories":[2,0,0,1,2,0,1,1,0,1,1,1,1,0,1],"categories_nodes":[0,1,4,5,6,7,8,9,10,11,12,13,14],"categories_segments":[0,1,2,5,6,7,8,9,10,11,12,13,14],"categories_sizes":[1,1,3,1,1,1,1,1,1,1,1,1,1],"default_left":[1,1,0,0,1,1,1,1,1,1,1,1,1,1,1,0,0,0,0,0,0,0,0,0,0,0,0,0,0,0,0],"id":37,"left_children":[1,3,5,7,9,11,13,15,17,19,21,23,25,27,29,-1,-1,-1,-1,-1,-1,-1,-1,-1,-1,-1,-1,-1,-1,-1,-1],"loss_changes":[2.9972325E5,9.917471E4,1.2114569E5,8.135529E4,7.5599375E3,3.8397062E4,6.422223E4,3.188038E4,3.0774969E4,3.030127E3,3.3821875E3,2.0683555E4,7.6212812E3,5.154386E4,1.0471352E4,0E0,0E0,0E0,0E0,0E0,0E0,0E0,0E0,0E0,0E0,0E0,0E0,0E0,0E0,0E0,0E0],"parents":[2147483647,0,0,1,1,2,2,3,3,4,4,5,5,6,6,7,7,8,8,9,9,10,10,11,11,12,12,13,13,14,14],"right_children":[2,4,6,8,10,12,14,16,18,20,22,24,26,28,30,-1,-1,-1,-1,-1,-1,-1,-1,-1,-1,-1,-1,-1,-1,-1,-1],"split_conditions":[1E-45,1E-45,1.548E1,8.165E1,1E-45,1E-45,1E-45,1E-45,1E-45,1E-45,1E-45,1E-45,1E-45,1E-45,1E-45,-7.497774E-3,-2.2545889E-1,1.23970486E-1,5.023964E-1,-1.1016178E-1,-2.2797367E-1,-2.257328E-1,-2.9772118E-1,5.42852E-1,1.3193072E-1,9.697595E-1,6.125327E-1,1.2170313E-1,4.6025085E-1,5.326169E-3,-2.0621948E-1],"split_indices":[4,4,29,38,28,13,1,1,13,13,13,1,1,13,13,0,0,0,0,0,0,0,0,0,0,0,0,0,0,0,0],"split_type":[1,1,0,0,1,1,1,1,1,1,1,1,1,1,1,0,0,0,0,0,0,0,0,0,0,0,0,0,0,0,0],"sum_hessian":[1.875E4,1.257E4,6.18E3,6.318E3,6.252E3,1.353E3,4.827E3,4.792E3,1.526E3,1.582E3,4.67E3,8.89E2,4.64E2,3.17E3,1.657E3,3.169E3,1.623E3,1.003E3,5.23E2,1.058E3,5.24E2,3.056E3,1.614E3,5.96E2,2.93E2,3.16E2,1.48E2,2.066E3,1.104E3,1.087E3,5.7E2],"tree_param":{"num_deleted":"0","num_feature":"40","num_nodes":"31","size_leaf_vector":"1"}},{"base_weights":[5.164008E-4,-2.6908708E0,5.4743114E0,-8.244408E-3,-5.4013658E0,1.2972479E1,2.9466903E0,5.9996367E0,-2.0567818E0,-3.2431016E0,-5.9345603E0,1.638473E1,5.8247895E0,5.3802533E0,-1.9301857E0,1.0816544E-1,4.7637865E-1,-1.1556081E-2,-2.2115678E-1,-1.6939119E-1,-4.948754E-2,-2.1276863E-1,-2.8683484E-1,7.8170174E-1,3.79542E-1,1.246213E-1,4.515576E-1,-1.8276053E-2,3.277024E-1,-2.2550723E-1,-1.3634006E-2],"categories":[2,0,0,1,2,0,1,2,1,1,0,1,2,1,1,2],"categories_nodes":[0,1,2,3,5,6,7,8,9,10,11,12],"categories_segments":[0,1,2,5,8,9,10,11,12,13,14,15],"categories_sizes":[1,1,3,3,1,1,1,1,1,1,1,1],"default_left":[1,1,1,1,0,1,1,1,1,1,1,1,1,0,0,0,0,0,0,0,0,0,0,0,0,0,0,0,0,0,0],"id":38,"left_children":[1,3,5,7,9,11,13,15,17,19,21,23,25,27,29,-1,-1,-1,-1,-1,-1,-1,-1,-1,-1,-1,-1,-1,-1,-1,-1],"loss_changes":[2.7625666E5,9.140623E4,1.17105766E5,7.77822E4,7.1756094E3,3.79015E4,5.488922E4,3.1264012E4,2.892773E4,2.462837E3,3.7742969E3,2.2764469E4,7.439301E3,5.0647477E4,9.071859E3,0E0,0E0,0E0,0E0,0E0,0E0,0E0,0E0,0E0,0E0,0E0,0E0,0E0,0E0,0E0,0E0],"parents":[2147483647,0,0,1,1,2,2,3,3,4,4,5,5,6,6,7,7,8,8,9,9,10,10,11,11,12,12,13,13,14,14],"right_children":[2,4,6,8,10,12,14,16,18,20,22,24,26,28,30,-1,-1,-1,-1,-1,-1,-1,-1,-1,-1,-1,-1,-1,-1,-1,-1],"split_conditions":[1E-45,1E-45,1E-45,1E-45,1.175E1,1E-45,1E-45,1E-45,1E-45,1E-45,1E-45,1E-45,1E-45,1.5E-1,1.5E-1,1.0816544E-1,4.7637865E-1,-1.1556081E-2,-2.2115678E-1,-1.6939119E-1,-4.948754E-2,-2.1276863E-1,-2.8683484E-1,7.8170174E-1,3.79542E-1,1.246213E-1,4.515576E-1,-1.8276053E-2,3.277024E-1,-2.2550723E-1,-1.3634006E-2],"split_indices":[4,4,28,28,29,13,13,13,13,1,1,1,1,39,39,0,0,0,0,0,0,0,0,0,0,0,0,0,0,0,0],"split_type":[1,1,1,1,0,1,1,1,1,1,1,1,1,0,0,0,0,0,0,0,0,0,0,0,0,0,0,0,0,0,0],"sum_hessian":[1.875E4,1.257E4,6.18E3,6.318E3,6.252E3,1.557E3,4.623E3,1.606E3,4.712E3,1.24E3,5.012E3,1.053E3,5.04E2,3.084E3,1.539E3,1.032E3,5.74E2,3.123E3,1.589E3,8.29E2,4.11E2,3.35E3,1.662E3,7.21E2,3.32E2,3.38E2,1.66E2,1.003E3,2.081E3,4.61E2,1.078E3],"tree_param":{"num_deleted":"0","num_feature":"40","num_nodes":"31","size_leaf_vector":"1"}},{"base_weights":[5.7183E-4,-2.5832663E0,5.2556324E0,-7.858919E-3,-5.1854277E0,1.2432661E1,2.8112934E0,3.388556E0,-3.4193838E0,-3.391278E0,-5.792333E0,8.879501E0,1.9155296E1,5.279504E0,-1.9284493E0,2.7545428E-2,3.3929962E-1,-1.9836153E-1,-9.82267E-3,-1.7351379E-1,-5.79097E-2,-2.5495595E-1,-1.8404537E-1,4.806187E-1,9.9557E-2,8.9148664E-1,5.11407E-1,3.1490263E-1,-8.736811E-3,-6.5714517E-3,-1.9300042E-1],"categories":[2,0,0,1,0,1,2,0,1,0,2,0,2,1,1,1],"categories_nodes":[0,1,3,4,5,6,7,8,9,10,11,12,13],"categories_segments":[0,1,2,4,7,8,9,10,11,12,13,14,15],"categories_sizes":[1,1,2,3,1,1,1,1,1,1,1,1,1],"default_left":[1,1,0,1,1,1,1,1,1,1,1,1,1,1,0,0,0,0,0,0,0,0,0,0,0,0,0,0,0,0,0],"id":39,"left_children":[1,3,5,7,9,11,13,15,17,19,21,23,25,27,29,-1,-1,-1,-1,-1,-1,-1,-1,-1,-1,-1,-1,-1,-1,-1,-1],"loss_changes":[2.5461916E5,8.424558E4,1.0839736E5,7.322955E4,6.788203E3,3.7329062E4,5.3964844E4,4.3549684E4,1.5405652E4,2.9053633E3,3.2054531E3,2.0590453E4,1.0524672E4,4.324232E4,8.072518E3,0E0,0E0,0E0,0E0,0E0,0E0,0E0,0E0,0E0,0E0,0E0,0E0,0E0,0E0,0E0,0E0],"parents":[2147483647,0,0,1,1,2,2,3,3,4,4,5,5,6,6,7,7,8,8,9,9,10,10,11,11,12,12,13,13,14,14],"right_children":[2,4,6,8,10,12,14,16,18,20,22,24,26,28,30,-1,-1,-1,-1,-1,-1,-1,-1,-1,-1,-1,-1,-1,-1,-1,-1],"split_conditions":[1E-45,1E-45,2.453E1,1E-45,1E-45,1E-45,1E-45,1E-45,1E-45,1E-45,1E-45,1E-45,1E-45,1E-45,8.154E1,2.7545428E-2,3.3929962E-1,-1.9836153E-1,-9.82267E-3,-1.7351379E-1,-5.79097E-2,-2.5495595E-1,-1.8404537E-1,4.806187E-1,9.9557E-2,8.9148664E-1,5.11407E-1,3.1490263E-1,-8.736811E-3,-6.5714517E-3,-1.9300042E-1],"split_indices":[4,4,29,28,28,13,1,13,1,13,1,1,1,13,29,0,0,0,0,0,0,0,0,0,0,0,0,0,0,0,0],"split_type":[1,1,0,1,1,1,1,1,1,1,1,1,1,1,0,0,0,0,0,0,0,0,0,0,0,0,0,0,0,0,0],"sum_hessian":[1.875E4,1.257E4,6.18E3,6.318E3,6.252E3,1.569E3,4.611E3,3.166E3,3.152E3,1.582E3,4.67E3,1.028E3,5.41E2,3.032E3,1.579E3,2.07E3,1.096E3,2.122E3,1.03E3,1.063E3,5.19E2,3.135E3,1.535E3,6.89E2,3.39E2,3.61E2,1.8E2,2.06E3,9.72E2,9.82E2,5.97E2],"tree_param":{"num_deleted":"0","num_feature":"40","num_nodes":"31","size_leaf_vector":"1"}},{"base_weights":[6.3224556E-4,-2.4799776E0,5.0457454E0,-7.5190407E-3,-4.97812E0,1.2149796E1,2.6510103E0,-1.9765403E0,5.6159687E0,-3.2637322E0,-5.585375E0,8.705744E0,1.8663042E1,5.021903E0,-1.8935636E0,-1.477394E-1,6.165154E-2,3.4212458E-1,-2.1147441E-2,-9.495038E-2,-2.0315124E-1,-1.9942696E-1,-2.682044E-1,2.1788457E-1,5.953293E-1,5.759276E-1,9.087732E-1,9.204745E-2,4.0308627E-1,-9.711719E-3,-2.0079051E-1],"categories":[2,0,0,1,2,0,1,2,1,1,1,2,0,1],"categories_nodes":[0,1,2,5,6,7,8,9,10,11,13,14],"categories_segments":[0,1,2,5,6,7,8,9,10,11,12,13],"categories_sizes":[1,1,3,1,1,1,1,1,1,1,1,1],"default_left":[1,1,1,0,0,1,1,1,1,1,1,1,0,1,1,0,0,0,0,0,0,0,0,0,0,0,0,0,0,0,0],"id":40,"left_children":[1,3,5,7,9,11,13,15,17,19,21,23,25,27,29,-1,-1,-1,-1,-1,-1,-1,-1,-1,-1,-1,-1,-1,-1,-1,-1],"loss_changes":[2.3468073E5,7.764492E4,1.0511945E5,6.997955E4,6.4906875E3,3.4783766E4,4.9832023E4,2.8278762E4,2.958559E4,2.6331348E3,3.0650781E3,2.0469781E4,8.976297E3,4.177372E4,8.1830264E3,0E0,0E0,0E0,0E0,0E0,0E0,0E0,0E0,0E0,0E0,0E0,0E0,0E0,0E0,0E0,0E0],"parents":[2147483647,0,0,1,1,2,2,3,3,4,4,5,5,6,6,7,7,8,8,9,9,10,10,11,11,12,12,13,13,14,14],"right_children":[2,4,6,8,10,12,14,16,18,20,22,24,26,28,30,-1,-1,-1,-1,-1,-1,-1,-1,-1,-1,-1,-1,-1,-1,-1,-1],"split_conditions":[1E-45,1E-45,1E-45,7.7E-1,2.524E1,1E-45,1E-45,1E-45,1E-45,1E-45,1E-45,1E-45,3.139E1,1E-45,1E-45,-1.477394E-1,6.165154E-2,3.4212458E-1,-2.1147441E-2,-9.495038E-2,-2.0315124E-1,-1.9942696E-1,-2.682044E-1,2.1788457E-1,5.953293E-1,5.759276E-1,9.087732E-1,9.204745E-2,4.0308627E-1,-9.711719E-3,-2.0079051E-1],"split_indices":[4,4,28,39,29,13,1,1,1,1,13,1,38,13,13,0,0,0,0,0,0,0,0,0,0,0,0,0,0,0,0],"split_type":[1,1,1,0,0,1,1,1,1,1,1,1,0,1,1,0,0,0,0,0,0,0,0,0,0,0,0,0,0,0,0],"sum_hessian":[1.875E4,1.257E4,6.18E3,6.318E3,6.252E3,1.557E3,4.623E3,4.68E3,1.638E3,1.637E3,4.615E3,1.02E3,5.37E2,3.038E3,1.585E3,3.145E3,1.535E3,1.108E3,5.3E2,1.1E3,5.37E2,3.009E3,1.606E3,6.69E2,3.51E2,2.64E2,2.73E2,1.976E3,1.062E3,1.038E3,5.47E2],"tree_param":{"num_deleted":"0","num_feature":"40","num_nodes":"31","size_leaf_vector":"1"}},{"base_weights":[7.157482E-4,-2.380822E0,4.8443346E0,-7.1808104E-3,-4.77912E0,1.1443406E1,2.4664195E0,5.542487E0,-1.8994807E0,-6.331664E0,-4.131326E0,1.4706325E1,4.9143615E0,1.6900547E-1,6.997964E0,3.3716568E-1,-2.1690177E-2,-2.0966186E-1,-9.006049E-3,-2.70902E-1,-2.1719676E-1,-1.3400011E-1,-2.2552983E-1,7.098125E-1,3.3632442E-1,3.5250643E-1,7.260024E-2,-1.4958477E-1,8.296644E-2,1.6162288E-1,5.0714576E-1],"categories":[2,0,0,1,2,1,2,1,2,1,1,0,1,2,0],"categories_nodes":[0,1,3,5,6,7,9,10,11,12,14],"categories_segments":[0,1,2,5,6,7,8,9,10,11,14],"categories_sizes":[1,1,3,1,1,1,1,1,1,3,1],"default_left":[1,1,0,1,0,1,1,1,0,1,1,1,1,0,1,0,0,0,0,0,0,0,0,0,0,0,0,0,0,0,0],"id":41,"left_children":[1,3,5,7,9,11,13,15,17,19,21,23,25,27,29,-1,-1,-1,-1,-1,-1,-1,-1,-1,-1,-1,-1,-1,-1,-1,-1],"loss_changes":[2.1630945E5,7.156241E4,9.696283E4,6.637E4,6.261625E3,3.48E4,4.7315336E4,2.8231594E4,2.6370896E4,6.93125E2,5.1783984E3,2.0730125E4,6.591913E3,2.2473795E4,2.5634305E4,0E0,0E0,0E0,0E0,0E0,0E0,0E0,0E0,0E0,0E0,0E0,0E0,0E0,0E0,0E0,0E0],"parents":[2147483647,0,0,1,1,2,2,3,3,4,4,5,5,6,6,7,7,8,8,9,9,10,10,11,11,12,12,13,13,14,14],"right_children":[2,4,6,8,10,12,14,16,18,20,22,24,26,28,30,-1,-1,-1,-1,-1,-1,-1,-1,-1,-1,-1,-1,-1,-1,-1,-1],"split_conditions":[1E-45,1E-45,2.745E1,1E-45,2.01E1,1E-45,1E-45,1E-45,1.5E-1,1E-45,1E-45,1E-45,1E-45,1E-2,1E-45,3.3716568E-1,-2.1690177E-2,-2.0966186E-1,-9.006049E-3,-2.70902E-1,-2.1719676E-1,-1.3400011E-1,-2.2552983E-1,7.098125E-1,3.3632442E-1,3.5250643E-1,7.260024E-2,-1.4958477E-1,8.296644E-2,1.6162288E-1,5.0714576E-1],"split_indices":[4,4,29,28,38,13,1,1,39,1,13,1,28,39,13,0,0,0,0,0,0,0,0,0,0,0,0,0,0,0,0],"split_type":[1,1,0,1,0,1,1,1,0,1,1,1,1,0,1,0,0,0,0,0,0,0,0,0,0,0,0,0,0,0,0],"sum_hessian":[1.875E4,1.257E4,6.18E3,6.318E3,6.252E3,1.636E3,4.544E3,1.606E3,4.712E3,1.838E3,4.414E3,1.09E3,5.46E2,3.016E3,1.528E3,1.089E3,5.17E2,1.572E3,3.14E3,1.23E3,6.08E2,2.909E3,1.505E3,7.34E2,3.56E2,2.41E2,3.05E2,9.88E2,2.028E3,1.006E3,5.22E2],"tree_param":{"num_deleted":"0","num_feature":"40","num_nodes":"31","size_leaf_vector":"1"}},{"base_weights":[7.5774797E-4,-2.2856498E0,4.6509E0,-6.8784542E-3,-4.588092E0,1.1347804E1,2.3934329E0,6.235227E0,-1.5921936E0,-2.9133012E0,-5.1546745E0,8.077883E0,1.7532084E1,-2.174002E0,4.510205E0,3.7639704E-1,-1.6006078E-3,5.814269E-3,-2.0121878E-1,-1.5207034E-1,-4.358342E-2,-2.2916786E-1,-1.6209997E-1,4.4282463E-1,7.664543E-2,8.0998135E-1,4.8057288E-1,-1.5220001E-1,3.0132774E-2,7.824723E-2,3.8709545E-1],"categories":[2,0,0,1,2,0,1,2,0,1,1,0,0,1,1,0,0],"categories_nodes":[0,1,2,4,5,7,8,9,10,11,12,13,14],"categories_segments":[0,1,2,5,8,9,10,11,12,13,14,15,16],"categories_sizes":[1,1,3,3,1,1,1,1,1,1,1,1,1],"default_left":[1,1,1,0,1,1,0,1,1,1,1,1,1,1,1,0,0,0,0,0,0,0,0,0,0,0,0,0,0,0,0],"id":42,"left_children":[1,3,5,7,9,11,13,15,17,19,21,23,25,27,29,-1,-1,-1,-1,-1,-1,-1,-1,-1,-1,-1,-1,-1,-1,-1,-1],"loss_changes":[1.9937375E5,6.5956266E4,9.341609E4,6.2540418E4,5.917703E3,3.136186E4,4.4715875E4,2.5501477E4,3.0111078E4,2.560295E3,2.9335938E3,1.8805203E4,7.820375E3,6.997752E3,4.168276E4,0E0,0E0,0E0,0E0,0E0,0E0,0E0,0E0,0E0,0E0,0E0,0E0,0E0,0E0,0E0,0E0],"parents":[2147483647,0,0,1,1,2,2,3,3,4,4,5,5,6,6,7,7,8,8,9,9,10,10,11,11,12,12,13,13,14,14],"right_children":[2,4,6,8,10,12,14,16,18,20,22,24,26,28,30,-1,-1,-1,-1,-1,-1,-1,-1,-1,-1,-1,-1,-1,-1,-1,-1],"split_conditions":[1E-45,1E-45,1E-45,1.023E1,1E-45,1E-45,1.5E-1,1E-45,1E-45,1E-45,1E-45,1E-45,1E-45,1E-45,1E-45,3.7639704E-1,-1.6006078E-3,5.814269E-3,-2.0121878E-1,-1.5207034E-1,-4.358342E-2,-2.2916786E-1,-1.6209997E-1,4.4282463E-1,7.664543E-2,8.0998135E-1,4.8057288E-1,-1.5220001E-1,3.0132774E-2,7.824723E-2,3.8709545E-1],"split_indices":[4,4,28,29,28,13,39,1,13,13,13,1,1,13,13,0,0,0,0,0,0,0,0,0,0,0,0,0,0,0,0],"split_type":[1,1,1,0,1,1,0,1,1,1,1,1,1,1,1,0,0,0,0,0,0,0,0,0,0,0,0,0,0,0,0],"sum_hessian":[1.875E4,1.257E4,6.18E3,6.318E3,6.252E3,1.557E3,4.623E3,1.279E3,5.039E3,1.582E3,4.67E3,1.02E3,5.37E2,1.464E3,3.159E3,8.49E2,4.3E2,3.348E3,1.691E3,1.063E3,5.19E2,3.067E3,1.603E3,6.86E2,3.34E2,3.58E2,1.79E2,9.4E2,5.24E2,2.115E3,1.044E3],"tree_param":{"num_deleted":"0","num_feature":"40","num_nodes":"31","size_leaf_vector":"1"}},{"base_weights":[8.2091504E-4,-2.194257E0,4.4652157E0,-6.5738377E-3,-4.404664E0,1.15367155E1,2.4810863E0,5.246662E0,-1.7977989E0,-2.1934896E0,-4.820163E0,1.4651594E1,5.119394E0,4.722163E0,-1.8065109E0,8.837487E-2,4.2775688E-1,-4.5781615E-3,-2.0204896E-1,-1.2581788E-1,-1.3457581E-2,-1.6917013E-1,-2.4007486E-1,4.7421318E-1,8.089249E-1,1.0290808E-1,4.1409662E-1,-2.6519889E-2,2.7856463E-1,-1.1255141E-2,-1.8836814E-1],"categories":[2,0,0,1,2,1,1,0,1,2,1,2,2,1],"categories_nodes":[0,1,3,5,6,7,8,9,10,11,12,14],"categories_segments":[0,1,2,5,6,7,8,9,10,11,12,13],"categories_sizes":[1,1,3,1,1,1,1,1,1,1,1,1],"default_left":[1,1,0,1,0,1,1,1,1,1,1,1,1,0,1,0,0,0,0,0,0,0,0,0,0,0,0,0,0,0,0],"id":43,"left_children":[1,3,5,7,9,11,13,15,17,19,21,23,25,27,29,-1,-1,-1,-1,-1,-1,-1,-1,-1,-1,-1,-1,-1,-1,-1,-1],"loss_changes":[1.837641E5,6.078874E4,8.6694164E4,5.9469156E4,5.733617E3,2.698836E4,4.6400277E4,2.6562758E4,2.5810293E4,1.7505166E3,3.6486484E3,1.3949953E4,5.889214E3,3.828961E4,7.3381265E3,0E0,0E0,0E0,0E0,0E0,0E0,0E0,0E0,0E0,0E0,0E0,0E0,0E0,0E0,0E0,0E0],"parents":[2147483647,0,0,1,1,2,2,3,3,4,4,5,5,6,6,7,7,8,8,9,9,10,10,11,11,12,12,13,13,14,14],"right_children":[2,4,6,8,10,12,14,16,18,20,22,24,26,28,30,-1,-1,-1,-1,-1,-1,-1,-1,-1,-1,-1,-1,-1,-1,-1,-1],"split_conditions":[1E-45,1E-45,1.548E1,1E-45,6.07E0,1E-45,1E-45,1E-45,1E-45,1E-45,1E-45,1E-45,1E-45,1.5E-1,1E-45,8.837487E-2,4.2775688E-1,-4.5781615E-3,-2.0204896E-1,-1.2581788E-1,-1.3457581E-2,-1.6917013E-1,-2.4007486E-1,4.7421318E-1,8.089249E-1,1.0290808E-1,4.1409662E-1,-2.6519889E-2,2.7856463E-1,-1.1255141E-2,-1.8836814E-1],"split_indices":[4,4,29,28,29,13,1,13,1,1,1,1,1,39,13,0,0,0,0,0,0,0,0,0,0,0,0,0,0,0,0],"split_type":[1,1,0,1,0,1,1,1,1,1,1,1,1,0,1,0,0,0,0,0,0,0,0,0,0,0,0,0,0,0,0],"sum_hessian":[1.875E4,1.257E4,6.18E3,6.318E3,6.252E3,1.353E3,4.827E3,1.606E3,4.712E3,9.9E2,5.262E3,9.1E2,4.43E2,3.17E3,1.657E3,1.032E3,5.74E2,3.106E3,1.606E3,6.54E2,3.36E2,3.511E3,1.751E3,6.08E2,3.02E2,2.99E2,1.44E2,9.32E2,2.238E3,1.087E3,5.7E2],"tree_param":{"num_deleted":"0","num_feature":"40","num_nodes":"31","size_leaf_vector":"1"}},{"base_weights":[8.735153E-4,-2.1065068E0,4.2869077E0,-6.2614074E-3,-4.228567E0,1.0604447E1,2.1573415E0,-1.7721511E0,5.03708E0,-5.679695E0,-3.6231415E0,1.35659895E1,4.4021306E0,4.288097E0,-1.9267845E0,-1.3848768E-1,5.7900507E-2,3.171851E-1,-2.6302485E-2,-2.4366477E-1,-1.9350253E-1,-1.1555345E-1,-2.0158184E-1,4.2412603E-1,7.6611817E-1,3.169109E-1,4.0019903E-2,2.649282E-1,-2.1191256E-2,-1.8961757E-2,-1.8709844E-1],"categories":[2,0,0,1,2,1,1,0,1,2,1,2,1,1],"categories_nodes":[0,1,2,5,6,7,8,9,10,11,13,14],"categories_segments":[0,1,2,5,6,7,8,9,10,11,12,13],"categories_sizes":[1,1,3,1,1,1,1,1,1,1,1,1],"default_left":[1,1,1,0,0,1,1,1,1,1,1,1,0,1,1,0,0,0,0,0,0,0,0,0,0,0,0,0,0,0,0],"id":44,"left_children":[1,3,5,7,9,11,13,15,17,19,21,23,25,27,29,-1,-1,-1,-1,-1,-1,-1,-1,-1,-1,-1,-1,-1,-1,-1,-1],"loss_changes":[1.6937397E5,5.6026582E4,8.313266E4,5.628551E4,5.4720625E3,2.8556484E4,4.024782E4,2.547624E4,2.7003594E4,6.073789E2,4.5765703E3,1.7241078E4,6.0390254E3,3.4193668E4,6.334954E3,0E0,0E0,0E0,0E0,0E0,0E0,0E0,0E0,0E0,0E0,0E0,0E0,0E0,0E0,0E0,0E0],"parents":[2147483647,0,0,1,1,2,2,3,3,4,4,5,5,6,6,7,7,8,8,9,9,10,10,11,11,12,12,13,13,14,14],"right_children":[2,4,6,8,10,12,14,16,18,20,22,24,26,28,30,-1,-1,-1,-1,-1,-1,-1,-1,-1,-1,-1,-1,-1,-1,-1,-1],"split_conditions":[1E-45,1E-45,1E-45,7.7E-1,2.01E1,1E-45,1E-45,1E-45,1E-45,1E-45,1E-45,1E-45,6.263E1,1E-45,1E-45,-1.3848768E-1,5.7900507E-2,3.171851E-1,-2.6302485E-2,-2.4366477E-1,-1.9350253E-1,-1.1555345E-1,-2.0158184E-1,4.2412603E-1,7.6611817E-1,3.169109E-1,4.0019903E-2,2.649282E-1,-2.1191256E-2,-1.8961757E-2,-1.8709844E-1],"split_indices":[4,4,28,39,38,13,1,13,13,1,13,1,29,13,13,0,0,0,0,0,0,0,0,0,0,0,0,0,0,0,0],"split_type":[1,1,1,0,0,1,1,1,1,1,1,1,0,1,1,0,0,0,0,0,0,0,0,0,0,0,0,0,0,0,0],"sum_hessian":[1.875E4,1.257E4,6.18E3,6.318E3,6.252E3,1.557E3,4.623E3,4.68E3,1.638E3,1.838E3,4.414E3,1.053E3,5.04E2,3.038E3,1.585E3,3.069E3,1.611E3,1.086E3,5.52E2,1.23E3,6.08E2,2.909E3,1.505E3,6.9E2,3.63E2,2.47E2,2.57E2,2.046E3,9.92E2,1.038E3,5.47E2],"tree_param":{"num_deleted":"0","num_feature":"40","num_nodes":"31","size_leaf_vector":"1"}},{"base_weights":[8.9366845E-4,-2.0222905E0,4.1156883E0,-5.9763356E-3,-4.059547E0,9.911412E0,1.9448982E0,4.9663687E0,-1.7014257E0,-2.2250197E0,-4.512866E0,6.9081903E0,1.5526649E1,-1.6928436E-1,6.1119986E0,3.0803818E-1,-3.189083E-2,-3.401363E-3,-1.930185E-1,-5.3890686E-2,-1.6240378E-1,-2.0249449E-1,-1.3595353E-1,1.6849047E-1,4.909442E-1,7.238119E-1,4.129091E-1,6.1270904E-2,-1.4230771E-1,1.3715877E-1,4.5056242E-1],"categories":[2,0,0,1,2,0,2,1,1,1,2,2,1,1,0],"categories_nodes":[0,1,3,5,6,7,8,9,10,11,12,13,14],"categories_segments":[0,1,2,5,6,7,8,9,10,11,12,13,14],"categories_sizes":[1,1,3,1,1,1,1,1,1,1,1,1,1],"default_left":[1,1,0,1,0,1,1,1,1,1,1,1,1,1,1,0,0,0,0,0,0,0,0,0,0,0,0,0,0,0,0],"id":45,"left_children":[1,3,5,7,9,11,13,15,17,19,21,23,25,27,29,-1,-1,-1,-1,-1,-1,-1,-1,-1,-1,-1,-1,-1,-1,-1,-1],"loss_changes":[1.5611036E5,5.1638082E4,7.774455E4,5.3279562E4,5.189453E3,2.828914E4,3.962906E4,2.5335027E4,2.3798176E4,1.9929199E3,3.0506797E3,1.5843441E4,7.643453E3,1.7210824E4,2.0888133E4,0E0,0E0,0E0,0E0,0E0,0E0,0E0,0E0,0E0,0E0,0E0,0E0,0E0,0E0,0E0,0E0],"parents":[2147483647,0,0,1,1,2,2,3,3,4,4,5,5,6,6,7,7,8,8,9,9,10,10,11,11,12,12,13,13,14,14],"right_children":[2,4,6,8,10,12,14,16,18,20,22,24,26,28,30,-1,-1,-1,-1,-1,-1,-1,-1,-1,-1,-1,-1,-1,-1,-1,-1],"split_conditions":[1E-45,1E-45,2.923E1,1E-45,1.175E1,1E-45,1E-45,1E-45,1E-45,1E-45,1E-45,1E-45,1E-45,1E-45,1E-45,3.0803818E-1,-3.189083E-2,-3.401363E-3,-1.930185E-1,-5.3890686E-2,-1.6240378E-1,-2.0249449E-1,-1.3595353E-1,1.6849047E-1,4.909442E-1,7.238119E-1,4.129091E-1,6.1270904E-2,-1.4230771E-1,1.3715877E-1,4.5056242E-1],"split_indices":[4,4,29,28,29,13,1,1,1,1,1,1,1,13,13,0,0,0,0,0,0,0,0,0,0,0,0,0,0,0,0],"split_type":[1,1,0,1,0,1,1,1,1,1,1,1,1,1,1,0,0,0,0,0,0,0,0,0,0,0,0,0,0,0,0],"sum_hessian":[1.875E4,1.257E4,6.18E3,6.318E3,6.252E3,1.683E3,4.497E3,1.606E3,4.712E3,1.24E3,5.012E3,1.098E3,5.85E2,2.984E3,1.513E3,1.089E3,5.17E2,3.106E3,1.606E3,8.4E2,4E2,3.354E3,1.658E3,7.32E2,3.66E2,3.9E2,1.95E2,1.987E3,9.97E2,9.96E2,5.17E2],"tree_param":{"num_deleted":"0","num_feature":"40","num_nodes":"31","size_leaf_vector":"1"}},{"base_weights":[9.5550925E-4,-1.9414377E0,3.9514368E0,-5.724231E-3,-3.8972561E0,9.955057E0,1.9277145E0,5.912917E0,-1.3659129E0,-2.3529222E0,-4.4197745E0,6.989897E0,1.5563559E1,-2.2084389E0,3.8446882E0,1.1496745E-1,4.817978E-1,1.0400102E-2,-1.834732E-1,-1.2781756E-1,-2.4971435E-2,-1.98464E-1,-1.3522387E-1,3.8740528E-1,5.7659563E-2,4.8099306E-1,7.5715554E-1,-1.4614402E-1,1.5434282E-2,6.167762E-2,3.401481E-1],"categories":[2,0,0,1,2,0,1,2,0,2,1,0,0,1,0,0],"categories_nodes":[0,1,2,4,5,7,8,9,10,11,13,14],"categories_segments":[0,1,2,5,8,9,10,11,12,13,14,15],"categories_sizes":[1,1,3,3,1,1,1,1,1,1,1,1],"default_left":[1,1,1,0,1,1,0,1,1,1,1,1,0,1,1,0,0,0,0,0,0,0,0,0,0,0,0,0,0,0,0],"id":46,"left_children":[1,3,5,7,9,11,13,15,17,19,21,23,25,27,29,-1,-1,-1,-1,-1,-1,-1,-1,-1,-1,-1,-1,-1,-1,-1,-1],"loss_changes":[1.4389158E5,4.759219E4,7.507668E4,5.0878535E4,5.0347344E3,2.5798656E4,3.667188E4,2.1970156E4,2.6914254E4,2.3031133E3,2.612414E3,1.5253227E4,6.176336E3,5.4942803E3,3.3888047E4,0E0,0E0,0E0,0E0,0E0,0E0,0E0,0E0,0E0,0E0,0E0,0E0,0E0,0E0,0E0,0E0],"parents":[2147483647,0,0,1,1,2,2,3,3,4,4,5,5,6,6,7,7,8,8,9,9,10,10,11,11,12,12,13,13,14,14],"right_children":[2,4,6,8,10,12,14,16,18,20,22,24,26,28,30,-1,-1,-1,-1,-1,-1,-1,-1,-1,-1,-1,-1,-1,-1,-1,-1],"split_conditions":[1E-45,1E-45,1E-45,7.99E0,1E-45,1E-45,1.5E-1,1E-45,1E-45,1E-45,1E-45,1E-45,3.139E1,1E-45,1E-45,1.1496745E-1,4.817978E-1,1.0400102E-2,-1.834732E-1,-1.2781756E-1,-2.4971435E-2,-1.98464E-1,-1.3522387E-1,3.8740528E-1,5.7659563E-2,4.8099306E-1,7.5715554E-1,-1.4614402E-1,1.5434282E-2,6.167762E-2,3.401481E-1],"split_indices":[4,4,28,29,28,13,39,1,13,13,13,1,38,13,13,0,0,0,0,0,0,0,0,0,0,0,0,0,0,0,0],"split_type":[1,1,1,0,1,1,0,1,1,1,1,1,0,1,1,0,0,0,0,0,0,0,0,0,0,0,0,0,0,0,0],"sum_hessian":[1.875E4,1.257E4,6.18E3,6.318E3,6.252E3,1.557E3,4.623E3,1.18E3,5.138E3,1.582E3,4.67E3,1.02E3,5.37E2,1.464E3,3.159E3,7.9E2,3.9E2,3.415E3,1.723E3,1.063E3,5.19E2,3.067E3,1.603E3,6.86E2,3.34E2,2.64E2,2.73E2,9.4E2,5.24E2,2.115E3,1.044E3],