{"learner":{"attributes":{"scikit_learn":"{\"_estimator_type\": \"regressor\"}"},"feature_names":["Process Stage","Technology","Time Period","Location","Functional Unit","Raw Material Type","Raw Material Quantity (kg or unit)","Energy Input Type","Energy Input Quantity (MJ)","Processing Method","Transport Mode","Transport Distance (km)","Fuel Type","Metal Quality Grade","Material Scarcity Level","Material Cost (USD)","Processing Cost (USD)","Emissions to Air CO2 (kg)","Emissions to Air SOx (kg)","Emissions to Air NOx (kg)","Emissions to Air Particulate Matter (kg)","Emissions to Water Acid Mine Drainage (kg)","Emissions to Water Heavy Metals (kg)","Emissions to Water BOD (kg)","Greenhouse Gas Emissions (kg CO2-eq)","Scope 1 Emissions (kg CO2-eq)","Scope 2 Emissions (kg CO2-eq)","Scope 3 Emissions (kg CO2-eq)","End-of-Life Treatment","Environmental Impact Score","Metal Recyclability Factor","Energy_per_Material","Total_Air_Emissions","Total_Water_Emissions","Transport_Intensity","GHG_per_Material","Time_Period_Numeric","Total_Cost","Circularity_Score","Circular_Economy_Index"],"feature_types":["c","c","c","c","c","c","int","c","float","c","c","float","c","c","c","float","float","float","float","float","float","float","float","float","float","float","float","float","c","float","float","float","float","float","float","float","int","float","float","float"],"gradient_booster":{"model":{"gbtree_model_param":{"num_parallel_tree":"1","num_trees":"200"},"iteration_indptr":[0,1,2,3,4,5,6,7,8,9,10,11,12,13,14,15,16,17,18,19,20,21,22,23,24,25,26,27,28,29,30,31,32,33,34,35,36,37,38,39,40,41,42,43,44,45,46,47,48,49,50,51,52,53,54,55,56,57,58,59,60,61,62,63,64,65,66,67,68,69,70,71,72,73,74,75,76,77,78,79,80,81,82,83,84,85,86,87,88,89,90,91,92,93,94,95,96,97,98,99,100,101,102,103,104,105,106,107,108,109,110,111,112,113,114,115,116,117,118,119,120,121,122,123,124,125,126,127,128,129,130,131,132,133,134,135,136,137,138,139,140,141,142,143,144,145,146,147,148,149,150,151,152,153,154,155,156,157,158,159,160,161,162,163,164,165,166,167,168,169,170,171,172,173,174,175,176,177,178,179,180,181,182,183,184,185,186,187,188,189,190,191,192,193,194,195,196,197,198,199,200],"tree_info":[0,0,0,0,0,0,0,0,0,0,0,0,0,0,0,0,0,0,0,0,0,0,0,0,0,0,0,0,0,0,0,0,0,0,0,0,0,0,0,0,0,0,0,0,0,0,0,0,0,0,0,0,0,0,0,0,0,0,0,0,0,0,0,0,0,0,0,0,0,0,0,0,0,0,0,0,0,0,0,0,0,0,0,0,0,0,0,0,0,0,0,0,0,0,0,0,0,0,0,0,0,0,0,0,0,0,0,0,0,0,0,0,0,0,0,0,0,0,0,0,0,0,0,0,0,0,0,0,0,0,0,0,0,0,0,0,0,0,0,0,0,0,0,0,0,0,0,0,0,0,0,0,0,0,0,0,0,0,0,0,0,0,0,0,0,0,0,0,0,0,0,0,0,0,0,0,0,0,0,0,0,0,0,0,0,0,0,0,0,0,0,0,0,0,0,0,0,0,0,0],"trees":[{"base_weights":[-0E0,3.707898E1,-1.4914079E0,2.9989382E1,4.4432545E1,2.6489454E1,3.3722843E1,4.060151E1,4.7914604E1,9.775167E-1,1.1275796E0,1.2664396E0,1.4072827E0,1.5458822E0,1.6858957E0,1.8482424E0,1.9974362E0],"categories":[0,2],"categories_nodes":[0],"categories_segments":[0],"categories_sizes":[2],"default_left":[1,0,0,0,0,0,0,0,0,0,0,0,0,0,0,0,0],"id":0,"left_children":[1,3,-1,5,7,9,11,13,15,-1,-1,-1,-1,-1,-1,-1,-1],"loss_changes":[2.5924586E7,4.88822E5,0E0,6.16905E4,5.9583E4,7.944875E3,5.84175E3,5.01925E3,6.009E3,0E0,0E0,0E0,0E0,0E0,0E0,0E0,0E0],"parents":[2147483647,0,0,1,1,3,3,4,4,5,5,6,6,7,7,8,8],"right_children":[2,4,-1,6,8,10,12,14,16,-1,-1,-1,-1,-1,-1,-1,-1],"split_conditions":[1E-45,8.5E-1,-1.4914079E0,7.8E-1,9.2E-1,7.4E-1,8.1E-1,8.8E-1,9.6E-1,9.775167E-1,1.1275796E0,1.2664396E0,1.4072827E0,1.5458822E0,1.6858957E0,1.8482424E0,1.9974362E0],"split_indices":[5,30,0,30,30,30,30,30,30,0,0,0,0,0,0,0,0],"split_type":[1,0,0,0,0,0,0,0,0,0,0,0,0,0,0,0,0],"sum_hessian":[1.875E4,9.401E3,9.349E3,4.789E3,4.612E3,2.476E3,2.313E3,2.202E3,2.41E3,1.129E3,1.347E3,9.68E2,1.345E3,9.84E2,1.218E3,1.319E3,1.091E3],"tree_param":{"num_deleted":"0","num_feature":"40","num_nodes":"17","size_leaf_vector":"1"}},{"base_weights":[5.481964E-4,3.5597084E1,-1.4317579E0,2.8790806E1,4.265678E1,2.5430729E1,3.2375084E1,3.8978916E1,4.5999615E1,9.384507E-1,1.0825099E0,1.2353284E0,1.3700218E0,1.4841098E0,1.6185151E0,1.7743688E0,1.9176118E0],"categories":[0,2],"categories_nodes":[0],"categories_segments":[0],"categories_sizes":[2],"default_left":[1,0,0,0,0,0,0,0,0,0,0,0,0,0,0,0,0],"id":1,"left_children":[1,3,-1,5,7,9,11,13,15,-1,-1,-1,-1,-1,-1,-1,-1],"loss_changes":[2.389305E7,4.50533E5,0E0,5.6859E4,5.4914E4,7.321625E3,5.41025E3,4.6245E3,5.5395E3,0E0,0E0,0E0,0E0,0E0,0E0,0E0,0E0],"parents":[2147483647,0,0,1,1,3,3,4,4,5,5,6,6,7,7,8,8],"right_children":[2,4,-1,6,8,10,12,14,16,-1,-1,-1,-1,-1,-1,-1,-1],"split_conditions":[1E-45,8.5E-1,-1.4317579E0,7.8E-1,9.2E-1,7.4E-1,8.2E-1,8.8E-1,9.6E-1,9.384507E-1,1.0825099E0,1.2353284E0,1.3700218E0,1.4841098E0,1.6185151E0,1.7743688E0,1.9176118E0],"split_indices":[5,30,0,30,30,30,30,30,30,0,0,0,0,0,0,0,0],"split_type":[1,0,0,0,0,0,0,0,0,0,0,0,0,0,0,0,0],"sum_hessian":[1.875E4,9.401E3,9.349E3,4.789E3,4.612E3,2.476E3,2.313E3,2.202E3,2.41E3,1.129E3,1.347E3,1.298E3,1.015E3,9.84E2,1.218E3,1.319E3,1.091E3],"tree_param":{"num_deleted":"0","num_feature":"40","num_nodes":"17","size_leaf_vector":"1"}},{"base_weights":[1.0611679E-3,3.417442E1,-1.3744937E0,2.7640142E1,4.0951984E1,2.4414318E1,3.108121E1,3.742117E1,4.4161163E1,9.009459E-1,1.0392417E0,1.166472E0,1.2975938E0,1.4418406E0,1.5729828E0,1.6830788E0,1.8231438E0],"categories":[0,2],"categories_nodes":[0],"categories_segments":[0],"categories_sizes":[2],"default_left":[1,0,0,0,0,0,0,0,0,0,0,0,0,0,0,0,0],"id":2,"left_children":[1,3,-1,5,7,9,11,13,15,-1,-1,-1,-1,-1,-1,-1,-1],"loss_changes":[2.2020716E7,4.15242E5,0E0,5.240625E4,5.06095E4,6.747125E3,5.08225E3,4.34125E3,5.196E3,0E0,0E0,0E0,0E0,0E0,0E0,0E0,0E0],"parents":[2147483647,0,0,1,1,3,3,4,4,5,5,6,6,7,7,8,8],"right_children":[2,4,-1,6,8,10,12,14,16,-1,-1,-1,-1,-1,-1,-1,-1],"split_conditions":[1E-45,8.5E-1,-1.3744937E0,7.8E-1,9.2E-1,7.4E-1,8.1E-1,8.9E-1,9.5E-1,9.009459E-1,1.0392417E0,1.166472E0,1.2975938E0,1.4418406E0,1.5729828E0,1.6830788E0,1.8231438E0],"split_indices":[5,30,0,30,30,30,30,30,30,0,0,0,0,0,0,0,0],"split_type":[1,0,0,0,0,0,0,0,0,0,0,0,0,0,0,0,0],"sum_hessian":[1.875E4,9.401E3,9.349E3,4.789E3,4.612E3,2.476E3,2.313E3,2.202E3,2.41E3,1.129E3,1.347E3,9.68E2,1.345E3,1.29E3,9.12E2,9.88E2,1.422E3],"tree_param":{"num_deleted":"0","num_feature":"40","num_nodes":"17","size_leaf_vector":"1"}},{"base_weights":[1.5288236E-3,3.280861E1,-1.3195198E0,2.653546E1,3.9315323E1,2.2980553E1,2.9424252E1,3.5925694E1,4.2396175E1,8.447621E-1,9.63179E-1,1.1045357E0,1.2457287E0,1.3671905E0,1.4922768E0,1.6347706E0,1.7681187E0],"categories":[0,2],"categories_nodes":[0],"categories_segments":[0],"categories_sizes":[2],"default_left":[1,0,0,0,0,0,0,0,0,0,0,0,0,0,0,0,0],"id":3,"left_children":[1,3,-1,5,7,9,11,13,15,-1,-1,-1,-1,-1,-1,-1,-1],"loss_changes":[2.02951E7,3.82716E5,0E0,4.8509E4,4.66425E4,3.889125E3,7.34875E3,4.0305E3,4.836E3,0E0,0E0,0E0,0E0,0E0,0E0,0E0,0E0],"parents":[2147483647,0,0,1,1,3,3,4,4,5,5,6,6,7,7,8,8],"right_children":[2,4,-1,6,8,10,12,14,16,-1,-1,-1,-1,-1,-1,-1,-1],"split_conditions":[1E-45,8.5E-1,-1.3195198E0,7.7E-1,9.2E-1,7.3E-1,8.1E-1,8.8E-1,9.6E-1,8.447621E-1,9.63179E-1,1.1045357E0,1.2457287E0,1.3671905E0,1.4922768E0,1.6347706E0,1.7681187E0],"split_indices":[5,30,0,30,30,30,30,30,30,0,0,0,0,0,0,0,0],"split_type":[1,0,0,0,0,0,0,0,0,0,0,0,0,0,0,0,0],"sum_hessian":[1.875E4,9.401E3,9.349E3,4.789E3,4.612E3,2.151E3,2.638E3,2.202E3,2.41E3,8.06E2,1.345E3,1.293E3,1.345E3,9.84E2,1.218E3,1.319E3,1.091E3],"tree_param":{"num_deleted":"0","num_feature":"40","num_nodes":"17","size_leaf_vector":"1"}},{"base_weights":[1.954141E-3,3.1497375E1,-1.2667446E0,2.5022518E1,3.73083E1,2.2062172E1,2.778265E1,3.3657734E1,4.0337044E1,8.110135E-1,9.246804E-1,1.0419836E0,1.1616557E0,1.2801769E0,1.3987681E0,1.5373404E0,1.6808349E0],"categories":[0,2],"categories_nodes":[0],"categories_segments":[0],"categories_sizes":[2],"default_left":[1,0,0,0,0,0,0,0,0,0,0,0,0,0,0,0,0],"id":4,"left_children":[1,3,-1,5,7,9,11,13,15,-1,-1,-1,-1,-1,-1,-1,-1],"loss_changes":[1.8704708E7,3.52809E5,0E0,3.5743E4,5.3399E4,3.58325E3,4.253E3,3.757E3,7.037E3,0E0,0E0,0E0,0E0,0E0,0E0,0E0,0E0],"parents":[2147483647,0,0,1,1,3,3,4,4,5,5,6,6,7,7,8,8],"right_children":[2,4,-1,6,8,10,12,14,16,-1,-1,-1,-1,-1,-1,-1,-1],"split_conditions":[1E-45,8.4E-1,-1.2667446E0,7.7E-1,9.1E-1,7.3E-1,8E-1,8.7E-1,9.5E-1,8.110135E-1,9.246804E-1,1.0419836E0,1.1616557E0,1.2801769E0,1.3987681E0,1.5373404E0,1.6808349E0],"split_indices":[5,30,0,30,30,30,30,30,30,0,0,0,0,0,0,0,0],"split_type":[1,0,0,0,0,0,0,0,0,0,0,0,0,0,0,0,0],"sum_hessian":[1.875E4,9.401E3,9.349E3,4.449E3,4.952E3,2.151E3,2.298E3,2.251E3,2.701E3,8.06E2,1.345E3,9.76E2,1.322E3,1.007E3,1.244E3,1.279E3,1.422E3],"tree_param":{"num_deleted":"0","num_feature":"40","num_nodes":"17","size_leaf_vector":"1"}},{"base_weights":[2.3331048E-3,3.023853E1,-1.2160804E0,2.4455013E1,3.623738E1,2.1593014E1,2.7508003E1,3.3499275E1,3.95123E1,8.1111705E-1,9.3768954E-1,1.0483844E0,1.1656351E0,1.2749238E0,1.4072059E0,1.5380952E0,1.6511508E0],"categories":[0,2],"categories_nodes":[0],"categories_segments":[0],"categories_sizes":[2],"default_left":[1,0,0,0,0,0,0,0,0,0,0,0,0,0,0,0,0],"id":5,"left_children":[1,3,-1,5,7,9,11,13,15,-1,-1,-1,-1,-1,-1,-1,-1],"loss_changes":[1.7238934E7,3.25304E5,0E0,4.125475E4,4.0035E4,5.544E3,4.136625E3,5.75725E3,2.32725E3,0E0,0E0,0E0,0E0,0E0,0E0,0E0,0E0],"parents":[2147483647,0,0,1,1,3,3,4,4,5,5,6,6,7,7,8,8],"right_children":[2,4,-1,6,8,10,12,14,16,-1,-1,-1,-1,-1,-1,-1,-1],"split_conditions":[1E-45,8.5E-1,-1.2160804E0,7.8E-1,9.3E-1,7.5E-1,8.2E-1,8.9E-1,9.7E-1,8.1111705E-1,9.3768954E-1,1.0483844E0,1.1656351E0,1.2749238E0,1.4072059E0,1.5380952E0,1.6511508E0],"split_indices":[5,30,0,30,30,30,30,30,30,0,0,0,0,0,0,0,0],"split_type":[1,0,0,0,0,0,0,0,0,0,0,0,0,0,0,0,0],"sum_hessian":[1.875E4,9.401E3,9.349E3,4.789E3,4.612E3,2.476E3,2.313E3,2.518E3,2.094E3,1.454E3,1.022E3,1.298E3,1.015E3,1.29E3,1.228E3,1.323E3,7.71E2],"tree_param":{"num_deleted":"0","num_feature":"40","num_nodes":"17","size_leaf_vector":"1"}},{"base_weights":[2.7003337E-3,2.9030037E1,-1.1674424E0,2.3865494E1,3.522623E1,2.1102364E1,2.72069E1,3.2606075E1,3.793333E1,7.786948E-1,9.1349006E-1,1.0404348E0,1.1509973E0,1.2571131E0,1.3680406E0,1.476618E0,1.5851904E0],"categories":[0,2],"categories_nodes":[0],"categories_segments":[0],"categories_sizes":[2],"default_left":[1,0,0,0,0,0,0,0,0,0,0,0,0,0,0,0,0],"id":6,"left_children":[1,3,-1,5,7,9,11,13,15,-1,-1,-1,-1,-1,-1,-1,-1],"loss_changes":[1.5888044E7,3.00022E5,0E0,4.679425E4,2.90575E4,7.53025E3,3.595125E3,3.01175E3,2.14725E3,0E0,0E0,0E0,0E0,0E0,0E0,0E0,0E0],"parents":[2147483647,0,0,1,1,3,3,4,4,5,5,6,6,7,7,8,8],"right_children":[2,4,-1,6,8,10,12,14,16,-1,-1,-1,-1,-1,-1,-1,-1],"split_conditions":[1E-45,8.6E-1,-1.1674424E0,7.9E-1,9.3E-1,7.5E-1,8.3E-1,9E-1,9.7E-1,7.786948E-1,9.1349006E-1,1.0404348E0,1.1509973E0,1.2571131E0,1.3680406E0,1.476618E0,1.5851904E0],"split_indices":[5,30,0,30,30,30,30,30,30,0,0,0,0,0,0,0,0],"split_type":[1,0,0,0,0,0,0,0,0,0,0,0,0,0,0,0,0],"sum_hessian":[1.875E4,9.401E3,9.349E3,5.13E3,4.271E3,2.812E3,2.318E3,2.177E3,2.094E3,1.454E3,1.358E3,1.325E3,9.93E2,1.264E3,9.13E2,1.323E3,7.71E2],"tree_param":{"num_deleted":"0","num_feature":"40","num_nodes":"17","size_leaf_vector":"1"}},{"base_weights":[3.0414006E-3,2.7869856E1,-1.1207497E0,2.2135828E1,3.301592E1,1.9506771E1,2.458711E1,2.9778738E1,3.5701714E1,7.150997E-1,8.187617E-1,9.217879E-1,1.0282992E0,1.1321818E0,1.2379322E0,1.3599426E0,1.4883418E0],"categories":[0,2],"categories_nodes":[0],"categories_segments":[0],"categories_sizes":[2],"default_left":[1,0,0,0,0,0,0,0,0,0,0,0,0,0,0,0,0],"id":7,"left_children":[1,3,-1,5,7,9,11,13,15,-1,-1,-1,-1,-1,-1,-1,-1],"loss_changes":[1.4643022E7,2.766945E5,0E0,2.819425E4,4.1994E4,3.004125E3,3.375625E3,3.000875E3,5.66225E3,0E0,0E0,0E0,0E0,0E0,0E0,0E0,0E0],"parents":[2147483647,0,0,1,1,3,3,4,4,5,5,6,6,7,7,8,8],"right_children":[2,4,-1,6,8,10,12,14,16,-1,-1,-1,-1,-1,-1,-1,-1],"split_conditions":[1E-45,8.4E-1,-1.1207497E0,7.7E-1,9.1E-1,7.3E-1,8E-1,8.7E-1,9.5E-1,7.150997E-1,8.187617E-1,9.217879E-1,1.0282992E0,1.1321818E0,1.2379322E0,1.3599426E0,1.4883418E0],"split_indices":[5,30,0,30,30,30,30,30,30,0,0,0,0,0,0,0,0],"split_type":[1,0,0,0,0,0,0,0,0,0,0,0,0,0,0,0,0],"sum_hessian":[1.875E4,9.401E3,9.349E3,4.449E3,4.952E3,2.151E3,2.298E3,2.251E3,2.701E3,8.06E2,1.345E3,9.76E2,1.322E3,1.007E3,1.244E3,1.279E3,1.422E3],"tree_param":{"num_deleted":"0","num_feature":"40","num_nodes":"17","size_leaf_vector":"1"}},{"base_weights":[3.3258505E-3,2.6755991E1,-1.0759245E0,2.1994133E1,3.246906E1,1.9445894E1,2.5075676E1,3.0047497E1,3.4971016E1,7.171375E-1,8.4224653E-1,9.5875996E-1,1.0610663E0,1.1584802E0,1.2606744E0,1.3607159E0,1.4624083E0],"categories":[0,2],"categories_nodes":[0],"categories_segments":[0],"categories_sizes":[2],"default_left":[1,0,0,0,0,0,0,0,0,0,0,0,0,0,0,0,0],"id":8,"left_children":[1,3,-1,5,7,9,11,13,15,-1,-1,-1,-1,-1,-1,-1,-1],"loss_changes":[1.3495536E7,2.5506E5,0E0,3.9799E4,2.48255E4,6.49225E3,3.082875E3,2.555125E3,1.92225E3,0E0,0E0,0E0,0E0,0E0,0E0,0E0,0E0],"parents":[2147483647,0,0,1,1,3,3,4,4,5,5,6,6,7,7,8,8],"right_children":[2,4,-1,6,8,10,12,14,16,-1,-1,-1,-1,-1,-1,-1,-1],"split_conditions":[1E-45,8.6E-1,-1.0759245E0,7.9E-1,9.3E-1,7.5E-1,8.3E-1,9E-1,9.7E-1,7.171375E-1,8.4224653E-1,9.5875996E-1,1.0610663E0,1.1584802E0,1.2606744E0,1.3607159E0,1.4624083E0],"split_indices":[5,30,0,30,30,30,30,30,30,0,0,0,0,0,0,0,0],"split_type":[1,0,0,0,0,0,0,0,0,0,0,0,0,0,0,0,0],"sum_hessian":[1.875E4,9.401E3,9.349E3,5.13E3,4.271E3,2.812E3,2.318E3,2.177E3,2.094E3,1.454E3,1.358E3,1.325E3,9.93E2,1.264E3,9.13E2,1.323E3,7.71E2],"tree_param":{"num_deleted":"0","num_feature":"40","num_nodes":"17","size_leaf_vector":"1"}},{"base_weights":[3.6068244E-3,2.5686691E1,-1.0328921E0,2.039997E1,3.0431316E1,1.796989E1,2.2665749E1,2.7446249E1,3.2907944E1,6.578812E-1,7.547801E-1,8.497962E-1,9.479119E-1,1.0432786E0,1.141148E0,1.253099E0,1.3722557E0],"categories":[0,2],"categories_nodes":[0],"categories_segments":[0],"categories_sizes":[2],"default_left":[1,0,0,0,0,0,0,0,0,0,0,0,0,0,0,0,0],"id":9,"left_children":[1,3,-1,5,7,9,11,13,15,-1,-1,-1,-1,-1,-1,-1,-1],"loss_changes":[1.2437997E7,2.35209E5,0E0,2.40905E4,3.5708E4,2.63425E3,2.86325E3,2.57625E3,4.89075E3,0E0,0E0,0E0,0E0,0E0,0E0,0E0,0E0],"parents":[2147483647,0,0,1,1,3,3,4,4,5,5,6,6,7,7,8,8],"right_children":[2,4,-1,6,8,10,12,14,16,-1,-1,-1,-1,-1,-1,-1,-1],"split_conditions":[1E-45,8.4E-1,-1.0328921E0,7.7E-1,9.1E-1,7.3E-1,8E-1,8.7E-1,9.5E-1,6.578812E-1,7.547801E-1,8.497962E-1,9.479119E-1,1.0432786E0,1.141148E0,1.253099E0,1.3722557E0],"split_indices":[5,30,0,30,30,30,30,30,30,0,0,0,0,0,0,0,0],"split_type":[1,0,0,0,0,0,0,0,0,0,0,0,0,0,0,0,0],"sum_hessian":[1.875E4,9.401E3,9.349E3,4.449E3,4.952E3,2.151E3,2.298E3,2.251E3,2.701E3,8.06E2,1.345E3,9.76E2,1.322E3,1.007E3,1.244E3,1.279E3,1.422E3],"tree_param":{"num_deleted":"0","num_feature":"40","num_nodes":"17","size_leaf_vector":"1"}},{"base_weights":[3.835657E-3,2.466008E1,-9.9158096E-1,1.9938034E1,2.9557945E1,1.7251753E1,2.2120995E1,2.7315441E1,3.2240143E1,6.467541E-1,7.3723835E-1,8.290324E-1,9.378308E-1,1.0386863E0,1.1483774E0,1.2538986E0,1.3491685E0],"categories":[0,2],"categories_nodes":[0],"categories_segments":[0],"categories_sizes":[2],"default_left":[1,0,0,0,0,0,0,0,0,0,0,0,0,0,0,0,0],"id":10,"left_children":[1,3,-1,5,7,9,11,13,15,-1,-1,-1,-1,-1,-1,-1,-1],"loss_changes":[1.1463307E7,2.16854E5,0E0,2.770325E4,2.686E4,2.4465625E3,4.387375E3,3.983625E3,1.72125E3,0E0,0E0,0E0,0E0,0E0,0E0,0E0,0E0],"parents":[2147483647,0,0,1,1,3,3,4,4,5,5,6,6,7,7,8,8],"right_children":[2,4,-1,6,8,10,12,14,16,-1,-1,-1,-1,-1,-1,-1,-1],"split_conditions":[1E-45,8.5E-1,-9.9158096E-1,7.7E-1,9.3E-1,7.4E-1,8.1E-1,8.9E-1,9.7E-1,6.467541E-1,7.3723835E-1,8.290324E-1,9.378308E-1,1.0386863E0,1.1483774E0,1.2538986E0,1.3491685E0],"split_indices":[5,30,0,30,30,30,30,30,30,0,0,0,0,0,0,0,0],"split_type":[1,0,0,0,0,0,0,0,0,0,0,0,0,0,0,0,0],"sum_hessian":[1.875E4,9.401E3,9.349E3,4.789E3,4.612E3,2.151E3,2.638E3,2.518E3,2.094E3,1.129E3,1.022E3,1.293E3,1.345E3,1.29E3,1.228E3,1.323E3,7.71E2],"tree_param":{"num_deleted":"0","num_feature":"40","num_nodes":"17","size_leaf_vector":"1"}},{"base_weights":[4.0542297E-3,2.3674524E1,-9.51922E-1,1.9456598E1,2.8735012E1,1.719731E1,2.2188736E1,2.6589481E1,3.0951782E1,6.337875E-1,7.453101E-1,8.4807235E-1,9.393151E-1,1.0249696E0,1.115848E0,1.2037807E0,1.2952718E0],"categories":[0,2],"categories_nodes":[0],"categories_segments":[0],"categories_sizes":[2],"default_left":[1,0,0,0,0,0,0,0,0,0,0,0,0,0,0,0,0],"id":11,"left_children":[1,3,-1,5,7,9,11,13,15,-1,-1,-1,-1,-1,-1,-1,-1],"loss_changes":[1.0565008E7,2.001195E5,0E0,3.12865E4,1.94895E4,5.1630625E3,2.4595E3,2.027E3,1.5875E3,0E0,0E0,0E0,0E0,0E0,0E0,0E0,0E0],"parents":[2147483647,0,0,1,1,3,3,4,4,5,5,6,6,7,7,8,8],"right_children":[2,4,-1,6,8,10,12,14,16,-1,-1,-1,-1,-1,-1,-1,-1],"split_conditions":[1E-45,8.6E-1,-9.51922E-1,7.9E-1,9.3E-1,7.5E-1,8.3E-1,9E-1,9.7E-1,6.337875E-1,7.453101E-1,8.4807235E-1,9.393151E-1,1.0249696E0,1.115848E0,1.2037807E0,1.2952718E0],"split_indices":[5,30,0,30,30,30,30,30,30,0,0,0,0,0,0,0,0],"split_type":[1,0,0,0,0,0,0,0,0,0,0,0,0,0,0,0,0],"sum_hessian":[1.875E4,9.401E3,9.349E3,5.13E3,4.271E3,2.812E3,2.318E3,2.177E3,2.094E3,1.454E3,1.358E3,1.325E3,9.93E2,1.264E3,9.13E2,1.323E3,7.71E2],"tree_param":{"num_deleted":"0","num_feature":"40","num_nodes":"17","size_leaf_vector":"1"}},{"base_weights":[4.2592515E-3,2.2728376E1,-9.1384906E-1,1.80457E1,2.6930897E1,1.5525518E1,1.9761213E1,2.4285164E1,2.9125998E1,5.6078357E-1,6.4356935E-1,7.414355E-1,8.38824E-1,9.2279994E-1,1.0099767E0,1.1084535E0,1.2151183E0],"categories":[0,2],"categories_nodes":[0],"categories_segments":[0],"categories_sizes":[2],"default_left":[1,0,0,0,0,0,0,0,0,0,0,0,0,0,0,0,0],"id":12,"left_children":[1,3,-1,5,7,9,11,13,15,-1,-1,-1,-1,-1,-1,-1,-1],"loss_changes":[9.73711E6,1.845325E5,0E0,1.8928875E4,2.80525E4,1.3054062E3,3.5255E3,2.051375E3,3.938E3,0E0,0E0,0E0,0E0,0E0,0E0,0E0,0E0],"parents":[2147483647,0,0,1,1,3,3,4,4,5,5,6,6,7,7,8,8],"right_children":[2,4,-1,6,8,10,12,14,16,-1,-1,-1,-1,-1,-1,-1,-1],"split_conditions":[1E-45,8.4E-1,-9.1384906E-1,7.6E-1,9.1E-1,7.2E-1,8E-1,8.7E-1,9.5E-1,5.6078357E-1,6.4356935E-1,7.414355E-1,8.38824E-1,9.2279994E-1,1.0099767E0,1.1084535E0,1.2151183E0],"split_indices":[5,30,0,30,30,30,30,30,30,0,0,0,0,0,0,0,0],"split_type":[1,0,0,0,0,0,0,0,0,0,0,0,0,0,0,0,0],"sum_hessian":[1.875E4,9.401E3,9.349E3,4.449E3,4.952E3,1.806E3,2.643E3,2.251E3,2.701E3,4.99E2,1.307E3,1.321E3,1.322E3,1.007E3,1.244E3,1.279E3,1.422E3],"tree_param":{"num_deleted":"0","num_feature":"40","num_nodes":"17","size_leaf_vector":"1"}},{"base_weights":[4.41682E-3,2.1819994E1,-8.77299E-1,1.7930996E1,2.6485846E1,1.5553515E1,2.0142294E1,2.4502977E1,2.8534582E1,5.7131994E-1,6.6427803E-1,7.555586E-1,8.530854E-1,9.320148E-1,1.0165023E0,1.1092633E0,1.1949861E0],"categories":[0,2],"categories_nodes":[0],"categories_segments":[0],"categories_sizes":[2],"default_left":[1,0,0,0,0,0,0,0,0,0,0,0,0,0,0,0,0],"id":13,"left_children":[1,3,-1,5,7,9,11,13,15,-1,-1,-1,-1,-1,-1,-1,-1],"loss_changes":[8.97407E6,1.70125E5,0E0,2.665825E4,1.665E4,3.075E3,3.53575E3,1.785375E3,1.42E3,0E0,0E0,0E0,0E0,0E0,0E0,0E0,0E0],"parents":[2147483647,0,0,1,1,3,3,4,4,5,5,6,6,7,7,8,8],"right_children":[2,4,-1,6,8,10,12,14,16,-1,-1,-1,-1,-1,-1,-1,-1],"split_conditions":[1E-45,8.6E-1,-8.77299E-1,7.8E-1,9.3E-1,7.4E-1,8.2E-1,8.9E-1,9.7E-1,5.7131994E-1,6.6427803E-1,7.555586E-1,8.530854E-1,9.320148E-1,1.0165023E0,1.1092633E0,1.1949861E0],"split_indices":[5,30,0,30,30,30,30,30,30,0,0,0,0,0,0,0,0],"split_type":[1,0,0,0,0,0,0,0,0,0,0,0,0,0,0,0,0],"sum_hessian":[1.875E4,9.401E3,9.349E3,5.13E3,4.271E3,2.476E3,2.654E3,2.177E3,2.094E3,1.129E3,1.347E3,1.298E3,1.356E3,9.49E2,1.228E3,1.323E3,7.71E2],"tree_param":{"num_deleted":"0","num_feature":"40","num_nodes":"17","size_leaf_vector":"1"}},{"base_weights":[4.5731682E-3,2.0947952E1,-8.422109E-1,1.662869E1,2.4824324E1,1.4637747E1,1.8485054E1,2.2653234E1,2.7103941E1,5.339525E-1,6.1598337E-1,6.930007E-1,7.731065E-1,8.6155975E-1,9.53828E-1,1.0427808E0,1.133177E0],"categories":[0,2],"categories_nodes":[0],"categories_segments":[0],"categories_sizes":[2],"default_left":[1,0,0,0,0,0,0,0,0,0,0,0,0,0,0,0,0],"id":14,"left_children":[1,3,-1,5,7,9,11,13,15,-1,-1,-1,-1,-1,-1,-1,-1],"loss_changes":[8.270838E6,1.570015E5,0E0,1.6172875E4,2.389475E4,1.90475E3,1.908625E3,2.860625E3,2.312375E3,0E0,0E0,0E0,0E0,0E0,0E0,0E0,0E0],"parents":[2147483647,0,0,1,1,3,3,4,4,5,5,6,6,7,7,8,8],"right_children":[2,4,-1,6,8,10,12,14,16,-1,-1,-1,-1,-1,-1,-1,-1],"split_conditions":[1E-45,8.4E-1,-8.422109E-1,7.7E-1,9.2E-1,7.3E-1,8E-1,8.8E-1,9.6E-1,5.339525E-1,6.1598337E-1,6.930007E-1,7.731065E-1,8.6155975E-1,9.53828E-1,1.0427808E0,1.133177E0],"split_indices":[5,30,0,30,30,30,30,30,30,0,0,0,0,0,0,0,0],"split_type":[1,0,0,0,0,0,0,0,0,0,0,0,0,0,0,0,0],"sum_hessian":[1.875E4,9.401E3,9.349E3,4.449E3,4.952E3,2.151E3,2.298E3,2.542E3,2.41E3,8.06E2,1.345E3,9.76E2,1.322E3,1.324E3,1.218E3,1.319E3,1.091E3],"tree_param":{"num_deleted":"0","num_feature":"40","num_nodes":"17","size_leaf_vector":"1"}},{"base_weights":[4.699441E-3,2.011074E1,-8.0852604E-1,1.6523611E1,2.4414429E1,1.4598259E1,1.8851938E1,2.2836226E1,2.6630209E1,5.373916E-1,6.33324E-1,7.2016555E-1,7.985536E-1,8.701951E-1,9.569052E-1,1.0439411E0,1.1205441E0],"categories":[0,2],"categories_nodes":[0],"categories_segments":[0],"categories_sizes":[2],"default_left":[1,0,0,0,0,0,0,0,0,0,0,0,0,0,0,0,0],"id":15,"left_children":[1,3,-1,5,7,9,11,13,15,-1,-1,-1,-1,-1,-1,-1,-1],"loss_changes":[7.6227055E6,1.447395E5,0E0,2.2723E4,1.432575E4,3.8258125E3,1.8228125E3,2.41425E3,5.66125E2,0E0,0E0,0E0,0E0,0E0,0E0,0E0,0E0],"parents":[2147483647,0,0,1,1,3,3,4,4,5,5,6,6,7,7,8,8],"right_children":[2,4,-1,6,8,10,12,14,16,-1,-1,-1,-1,-1,-1,-1,-1],"split_conditions":[1E-45,8.6E-1,-8.0852604E-1,7.9E-1,9.4E-1,7.5E-1,8.3E-1,9E-1,9.8E-1,5.373916E-1,6.33324E-1,7.2016555E-1,7.985536E-1,8.701951E-1,9.569052E-1,1.0439411E0,1.1205441E0],"split_indices":[5,30,0,30,30,30,30,30,30,0,0,0,0,0,0,0,0],"split_type":[1,0,0,0,0,0,0,0,0,0,0,0,0,0,0,0,0],"sum_hessian":[1.875E4,9.401E3,9.349E3,5.13E3,4.271E3,2.812E3,2.318E3,2.501E3,1.77E3,1.454E3,1.358E3,1.325E3,9.93E2,1.264E3,1.237E3,1.293E3,4.77E2],"tree_param":{"num_deleted":"0","num_feature":"40","num_nodes":"17","size_leaf_vector":"1"}},{"base_weights":[4.8260773E-3,1.9307026E1,-7.761885E-1,1.5324856E1,2.288087E1,1.3164502E1,1.679548E1,2.0624506E1,2.4752949E1,4.7282204E-1,5.4672414E-1,6.3041496E-1,7.126814E-1,7.835487E-1,8.578589E-1,9.415115E-1,1.0331411E0],"categories":[0,2],"categories_nodes":[0],"categories_segments":[0],"categories_sizes":[2],"default_left":[1,0,0,0,0,0,0,0,0,0,0,0,0,0,0,0,0],"id":16,"left_children":[1,3,-1,5,7,9,11,13,15,-1,-1,-1,-1,-1,-1,-1,-1],"loss_changes":[7.0253765E6,1.334515E5,0E0,1.39139375E4,2.0407E4,1.0589062E3,2.5116875E3,1.4930625E3,2.918625E3,0E0,0E0,0E0,0E0,0E0,0E0,0E0,0E0],"parents":[2147483647,0,0,1,1,3,3,4,4,5,5,6,6,7,7,8,8],"right_children":[2,4,-1,6,8,10,12,14,16,-1,-1,-1,-1,-1,-1,-1,-1],"split_conditions":[1E-45,8.4E-1,-7.761885E-1,7.6E-1,9.1E-1,7.2E-1,8E-1,8.7E-1,9.5E-1,4.7282204E-1,5.4672414E-1,6.3041496E-1,7.126814E-1,7.835487E-1,8.578589E-1,9.415115E-1,1.0331411E0],"split_indices":[5,30,0,30,30,30,30,30,30,0,0,0,0,0,0,0,0],"split_type":[1,0,0,0,0,0,0,0,0,0,0,0,0,0,0,0,0],"sum_hessian":[1.875E4,9.401E3,9.349E3,4.449E3,4.952E3,1.806E3,2.643E3,2.251E3,2.701E3,4.99E2,1.307E3,1.321E3,1.322E3,1.007E3,1.244E3,1.279E3,1.422E3],"tree_param":{"num_deleted":"0","num_feature":"40","num_nodes":"17","size_leaf_vector":"1"}},{"base_weights":[4.911619E-3,1.8535385E1,-7.451443E-1,1.5228026E1,2.2503414E1,1.320172E1,1.7112709E1,2.1044552E1,2.4551674E1,4.8418948E-1,5.6445724E-1,6.413428E-1,7.253215E-1,8.018938E-1,8.8185704E-1,9.6190786E-1,1.0345769E0],"categories":[0,2],"categories_nodes":[0],"categories_segments":[0],"categories_sizes":[2],"default_left":[1,0,0,0,0,0,0,0,0,0,0,0,0,0,0,0,0],"id":17,"left_children":[1,3,-1,5,7,9,11,13,15,-1,-1,-1,-1,-1,-1,-1,-1],"loss_changes":[6.474839E6,1.230425E5,0E0,1.9366E4,1.224425E4,2.2984375E3,2.62925E3,2.0535E3,5.44625E2,0E0,0E0,0E0,0E0,0E0,0E0,0E0,0E0],"parents":[2147483647,0,0,1,1,3,3,4,4,5,5,6,6,7,7,8,8],"right_children":[2,4,-1,6,8,10,12,14,16,-1,-1,-1,-1,-1,-1,-1,-1],"split_conditions":[1E-45,8.6E-1,-7.451443E-1,7.8E-1,9.4E-1,7.4E-1,8.2E-1,9E-1,9.8E-1,4.8418948E-1,5.6445724E-1,6.413428E-1,7.253215E-1,8.018938E-1,8.8185704E-1,9.6190786E-1,1.0345769E0],"split_indices":[5,30,0,30,30,30,30,30,30,0,0,0,0,0,0,0,0],"split_type":[1,0,0,0,0,0,0,0,0,0,0,0,0,0,0,0,0],"sum_hessian":[1.875E4,9.401E3,9.349E3,5.13E3,4.271E3,2.476E3,2.654E3,2.501E3,1.77E3,1.129E3,1.347E3,1.298E3,1.356E3,1.264E3,1.237E3,1.293E3,4.77E2],"tree_param":{"num_deleted":"0","num_feature":"40","num_nodes":"17","size_leaf_vector":"1"}},{"base_weights":[5.0017377E-3,1.779462E1,-7.153417E-1,1.4121603E1,2.1091013E1,1.2124497E1,1.5481115E1,1.9239286E1,2.303533E1,4.3461826E-1,5.0385743E-1,5.811418E-1,6.5684754E-1,7.313081E-1,8.105275E-1,8.856177E-1,9.6383506E-1],"categories":[0,2],"categories_nodes":[0],"categories_segments":[0],"categories_sizes":[2],"default_left":[1,0,0,0,0,0,0,0,0,0,0,0,0,0,0,0,0],"id":18,"left_children":[1,3,-1,5,7,9,11,13,15,-1,-1,-1,-1,-1,-1,-1,-1],"loss_changes":[5.9674565E6,1.1353525E5,0E0,1.18916875E4,1.7385E4,9.3446875E2,2.126E3,2.1165E3,1.75025E3,0E0,0E0,0E0,0E0,0E0,0E0,0E0,0E0],"parents":[2147483647,0,0,1,1,3,3,4,4,5,5,6,6,7,7,8,8],"right_children":[2,4,-1,6,8,10,12,14,16,-1,-1,-1,-1,-1,-1,-1,-1],"split_conditions":[1E-45,8.4E-1,-7.153417E-1,7.6E-1,9.2E-1,7.2E-1,8E-1,8.8E-1,9.6E-1,4.3461826E-1,5.0385743E-1,5.811418E-1,6.5684754E-1,7.313081E-1,8.105275E-1,8.856177E-1,9.6383506E-1],"split_indices":[5,30,0,30,30,30,30,30,30,0,0,0,0,0,0,0,0],"split_type":[1,0,0,0,0,0,0,0,0,0,0,0,0,0,0,0,0],"sum_hessian":[1.875E4,9.401E3,9.349E3,4.449E3,4.952E3,1.806E3,2.643E3,2.542E3,2.41E3,4.99E2,1.307E3,1.321E3,1.322E3,1.324E3,1.218E3,1.319E3,1.091E3],"tree_param":{"num_deleted":"0","num_feature":"40","num_nodes":"17","size_leaf_vector":"1"}},{"base_weights":[5.061812E-3,1.7083431E1,-6.8673116E-1,1.3802263E1,2.0486773E1,1.191977E1,1.5332093E1,1.8918411E1,2.2362724E1,4.333776E-1,5.024622E-1,5.739013E-1,6.506861E-1,7.188163E-1,7.9595053E-1,8.6824673E-1,9.3838537E-1],"categories":[0,2],"categories_nodes":[0],"categories_segments":[0],"categories_sizes":[2],"default_left":[1,0,0,0,0,0,0,0,0,0,0,0,0,0,0,0,0],"id":19,"left_children":[1,3,-1,5,7,9,11,13,15,-1,-1,-1,-1,-1,-1,-1,-1],"loss_changes":[5.4998235E6,1.0470525E5,0E0,1.36091875E4,1.3145125E4,1.3605E3,2.1930625E3,1.97975E3,9.949375E2,0E0,0E0,0E0,0E0,0E0,0E0,0E0,0E0],"parents":[2147483647,0,0,1,1,3,3,4,4,5,5,6,6,7,7,8,8],"right_children":[2,4,-1,6,8,10,12,14,16,-1,-1,-1,-1,-1,-1,-1,-1],"split_conditions":[1E-45,8.5E-1,-6.8673116E-1,7.7E-1,9.3E-1,7.3E-1,8.1E-1,8.9E-1,9.7E-1,4.333776E-1,5.024622E-1,5.739013E-1,6.506861E-1,7.188163E-1,7.9595053E-1,8.6824673E-1,9.3838537E-1],"split_indices":[5,30,0,30,30,30,30,30,30,0,0,0,0,0,0,0,0],"split_type":[1,0,0,0,0,0,0,0,0,0,0,0,0,0,0,0,0],"sum_hessian":[1.875E4,9.401E3,9.349E3,4.789E3,4.612E3,2.151E3,2.638E3,2.518E3,2.094E3,8.06E2,1.345E3,1.293E3,1.345E3,1.29E3,1.228E3,1.323E3,7.71E2],"tree_param":{"num_deleted":"0","num_feature":"40","num_nodes":"17","size_leaf_vector":"1"}},{"base_weights":[5.116216E-3,1.640068E1,-6.592648E-1,1.3470104E1,1.9916664E1,1.1891864E1,1.5378694E1,1.8618652E1,2.1739141E1,4.372548E-1,5.1645535E-1,5.870441E-1,6.520152E-1,7.095603E-1,7.800944E-1,8.512389E-1,9.1735077E-1],"categories":[0,2],"categories_nodes":[0],"categories_segments":[0],"categories_sizes":[2],"default_left":[1,0,0,0,0,0,0,0,0,0,0,0,0,0,0,0,0],"id":20,"left_children":[1,3,-1,5,7,9,11,13,15,-1,-1,-1,-1,-1,-1,-1,-1],"loss_changes":[5.0688405E6,9.660525E4,0E0,1.52700625E4,9.696875E3,2.611125E3,1.2593125E3,1.5953125E3,4.76875E2,0E0,0E0,0E0,0E0,0E0,0E0,0E0,0E0],"parents":[2147483647,0,0,1,1,3,3,4,4,5,5,6,6,7,7,8,8],"right_children":[2,4,-1,6,8,10,12,14,16,-1,-1,-1,-1,-1,-1,-1,-1],"split_conditions":[1E-45,8.6E-1,-6.592648E-1,7.9E-1,9.4E-1,7.5E-1,8.3E-1,9E-1,9.8E-1,4.372548E-1,5.1645535E-1,5.870441E-1,6.520152E-1,7.095603E-1,7.800944E-1,8.512389E-1,9.1735077E-1],"split_indices":[5,30,0,30,30,30,30,30,30,0,0,0,0,0,0,0,0],"split_type":[1,0,0,0,0,0,0,0,0,0,0,0,0,0,0,0,0],"sum_hessian":[1.875E4,9.401E3,9.349E3,5.13E3,4.271E3,2.812E3,2.318E3,2.501E3,1.77E3,1.454E3,1.358E3,1.325E3,9.93E2,1.264E3,1.237E3,1.293E3,4.77E2],"tree_param":{"num_deleted":"0","num_feature":"40","num_nodes":"17","size_leaf_vector":"1"}},{"base_weights":[5.168422E-3,1.57452345E1,-6.32897E-1,1.2492179E1,1.8664728E1,1.0716229E1,1.3701161E1,1.681651E1,2.0198193E1,3.8251263E-1,4.4595468E-1,5.144054E-1,5.812448E-1,6.384359E-1,6.9982636E-1,7.677642E-1,8.434846E-1],"categories":[0,2],"categories_nodes":[0],"categories_segments":[0],"categories_sizes":[2],"default_left":[1,0,0,0,0,0,0,0,0,0,0,0,0,0,0,0,0],"id":21,"left_children":[1,3,-1,5,7,9,11,13,15,-1,-1,-1,-1,-1,-1,-1,-1],"loss_changes":[4.6716365E6,8.9057E4,0E0,9.40525E3,1.3694375E4,7.9303125E2,1.656E3,1.026E3,2.002875E3,0E0,0E0,0E0,0E0,0E0,0E0,0E0,0E0],"parents":[2147483647,0,0,1,1,3,3,4,4,5,5,6,6,7,7,8,8],"right_children":[2,4,-1,6,8,10,12,14,16,-1,-1,-1,-1,-1,-1,-1,-1],"split_conditions":[1E-45,8.4E-1,-6.32897E-1,7.6E-1,9.1E-1,7.2E-1,8E-1,8.7E-1,9.5E-1,3.8251263E-1,4.4595468E-1,5.144054E-1,5.812448E-1,6.384359E-1,6.9982636E-1,7.677642E-1,8.434846E-1],"split_indices":[5,30,0,30,30,30,30,30,30,0,0,0,0,0,0,0,0],"split_type":[1,0,0,0,0,0,0,0,0,0,0,0,0,0,0,0,0],"sum_hessian":[1.875E4,9.401E3,9.349E3,4.449E3,4.952E3,1.806E3,2.643E3,2.251E3,2.701E3,4.99E2,1.307E3,1.321E3,1.322E3,1.007E3,1.244E3,1.279E3,1.422E3],"tree_param":{"num_deleted":"0","num_feature":"40","num_nodes":"17","size_leaf_vector":"1"}},{"base_weights":[5.1890877E-3,1.5115947E1,-6.075839E-1,1.2414004E1,1.8357626E1,1.0753051E1,1.395889E1,1.7157675E1,2.0042448E1,3.936396E-1,4.603824E-1,5.226289E-1,5.9214085E-1,6.538623E-1,7.1890163E-1,7.8431684E-1,8.4706473E-1],"categories":[0,2],"categories_nodes":[0],"categories_segments":[0],"categories_sizes":[2],"default_left":[1,0,0,0,0,0,0,0,0,0,0,0,0,0,0,0,0],"id":22,"left_children":[1,3,-1,5,7,9,11,13,15,-1,-1,-1,-1,-1,-1,-1,-1],"loss_changes":[4.3055485E6,8.21195E4,0E0,1.30135E4,8.289125E3,1.5936875E3,1.8066875E3,1.3564375E3,4.534375E2,0E0,0E0,0E0,0E0,0E0,0E0,0E0,0E0],"parents":[2147483647,0,0,1,1,3,3,4,4,5,5,6,6,7,7,8,8],"right_children":[2,4,-1,6,8,10,12,14,16,-1,-1,-1,-1,-1,-1,-1,-1],"split_conditions":[1E-45,8.6E-1,-6.075839E-1,7.8E-1,9.4E-1,7.4E-1,8.2E-1,9E-1,9.8E-1,3.936396E-1,4.603824E-1,5.226289E-1,5.9214085E-1,6.538623E-1,7.1890163E-1,7.8431684E-1,8.4706473E-1],"split_indices":[5,30,0,30,30,30,30,30,30,0,0,0,0,0,0,0,0],"split_type":[1,0,0,0,0,0,0,0,0,0,0,0,0,0,0,0,0],"sum_hessian":[1.875E4,9.401E3,9.349E3,5.13E3,4.271E3,2.476E3,2.654E3,2.501E3,1.77E3,1.129E3,1.347E3,1.298E3,1.356E3,1.264E3,1.237E3,1.293E3,4.77E2],"tree_param":{"num_deleted":"0","num_feature":"40","num_nodes":"17","size_leaf_vector":"1"}},{"base_weights":[5.2158837E-3,1.4511842E1,-5.832831E-1,1.151144E1,1.7204588E1,9.869616E0,1.26291275E1,1.5687446E1,1.8797615E1,3.515287E-1,4.1101485E-1,4.807661E-1,5.4441047E-1,5.958967E-1,6.613288E-1,7.2203726E-1,7.873157E-1],"categories":[0,2],"categories_nodes":[0],"categories_segments":[0],"categories_sizes":[2],"default_left":[1,0,0,0,0,0,0,0,0,0,0,0,0,0,0,0,0],"id":23,"left_children":[1,3,-1,5,7,9,11,13,15,-1,-1,-1,-1,-1,-1,-1,-1],"loss_changes":[3.968156E6,7.576075E4,0E0,8.0390625E3,1.1672375E4,7.006875E2,1.4161875E3,1.44975E3,1.2346875E3,0E0,0E0,0E0,0E0,0E0,0E0,0E0,0E0],"parents":[2147483647,0,0,1,1,3,3,4,4,5,5,6,6,7,7,8,8],"right_children":[2,4,-1,6,8,10,12,14,16,-1,-1,-1,-1,-1,-1,-1,-1],"split_conditions":[1E-45,8.4E-1,-5.832831E-1,7.6E-1,9.2E-1,7.2E-1,8.1E-1,8.8E-1,9.6E-1,3.515287E-1,4.1101485E-1,4.807661E-1,5.4441047E-1,5.958967E-1,6.613288E-1,7.2203726E-1,7.873157E-1],"split_indices":[5,30,0,30,30,30,30,30,30,0,0,0,0,0,0,0,0],"split_type":[1,0,0,0,0,0,0,0,0,0,0,0,0,0,0,0,0],"sum_hessian":[1.875E4,9.401E3,9.349E3,4.449E3,4.952E3,1.806E3,2.643E3,2.542E3,2.41E3,4.99E2,1.307E3,1.638E3,1.005E3,1.324E3,1.218E3,1.319E3,1.091E3],"tree_param":{"num_deleted":"0","num_feature":"40","num_nodes":"17","size_leaf_vector":"1"}},{"base_weights":[5.219913E-3,1.3931855E1,-5.5995435E-1,1.1439749E1,1.6921782E1,1.0091381E1,1.3070374E1,1.58121395E1,1.847983E1,3.7087673E-1,4.3844923E-1,4.9878576E-1,5.5433995E-1,5.938687E-1,6.556985E-1,7.2287023E-1,7.8182644E-1],"categories":[0,2],"categories_nodes":[0],"categories_segments":[0],"categories_sizes":[2],"default_left":[1,0,0,0,0,0,0,0,0,0,0,0,0,0,0,0,0],"id":24,"left_children":[1,3,-1,5,7,9,11,13,15,-1,-1,-1,-1,-1,-1,-1,-1],"loss_changes":[3.6571965E6,6.9859875E4,0E0,1.11471875E4,7.090125E3,1.9015E3,9.2246875E2,1.15525E3,4.1325E2,0E0,0E0,0E0,0E0,0E0,0E0,0E0,0E0],"parents":[2147483647,0,0,1,1,3,3,4,4,5,5,6,6,7,7,8,8],"right_children":[2,4,-1,6,8,10,12,14,16,-1,-1,-1,-1,-1,-1,-1,-1],"split_conditions":[1E-45,8.6E-1,-5.5995435E-1,7.9E-1,9.4E-1,7.5E-1,8.3E-1,8.9E-1,9.8E-1,3.7087673E-1,4.3844923E-1,4.9878576E-1,5.5433995E-1,5.938687E-1,6.556985E-1,7.2287023E-1,7.8182644E-1],"split_indices":[5,30,0,30,30,30,30,30,30,0,0,0,0,0,0,0,0],"split_type":[1,0,0,0,0,0,0,0,0,0,0,0,0,0,0,0,0],"sum_hessian":[1.875E4,9.401E3,9.349E3,5.13E3,4.271E3,2.812E3,2.318E3,2.501E3,1.77E3,1.454E3,1.358E3,1.325E3,9.93E2,9.49E2,1.552E3,1.293E3,4.77E2],"tree_param":{"num_deleted":"0","num_feature":"40","num_nodes":"17","size_leaf_vector":"1"}},{"base_weights":[5.228308E-3,1.3375074E1,-5.3755856E-1,1.0801864E1,1.6044098E1,9.312749E0,1.2012047E1,1.4805189E1,1.7526041E1,3.36857E-1,3.9360607E-1,4.5639068E-1,5.185129E-1,5.623922E-1,6.230419E-1,6.79604E-1,7.368944E-1],"categories":[0,2],"categories_nodes":[0],"categories_segments":[0],"categories_sizes":[2],"default_left":[1,0,0,0,0,0,0,0,0,0,0,0,0,0,0,0,0],"id":25,"left_children":[1,3,-1,5,7,9,11,13,15,-1,-1,-1,-1,-1,-1,-1,-1],"loss_changes":[3.3706118E6,6.4396625E4,0E0,8.518125E3,8.20675E3,9.269375E2,1.3608125E3,1.225375E3,6.898125E2,0E0,0E0,0E0,0E0,0E0,0E0,0E0,0E0],"parents":[2147483647,0,0,1,1,3,3,4,4,5,5,6,6,7,7,8,8],"right_children":[2,4,-1,6,8,10,12,14,16,-1,-1,-1,-1,-1,-1,-1,-1],"split_conditions":[1E-45,8.5E-1,-5.3755856E-1,7.7E-1,9.3E-1,7.3E-1,8.2E-1,8.9E-1,9.7E-1,3.36857E-1,3.9360607E-1,4.5639068E-1,5.185129E-1,5.623922E-1,6.230419E-1,6.79604E-1,7.368944E-1],"split_indices":[5,30,0,30,30,30,30,30,30,0,0,0,0,0,0,0,0],"split_type":[1,0,0,0,0,0,0,0,0,0,0,0,0,0,0,0,0],"sum_hessian":[1.875E4,9.401E3,9.349E3,4.789E3,4.612E3,2.151E3,2.638E3,2.518E3,2.094E3,8.06E2,1.345E3,1.623E3,1.015E3,1.29E3,1.228E3,1.323E3,7.71E2],"tree_param":{"num_deleted":"0","num_feature":"40","num_nodes":"17","size_leaf_vector":"1"}},{"base_weights":[5.220984E-3,1.2840533E1,-5.1605856E-1,1.0542124E1,1.5598069E1,9.296057E0,1.2049043E1,1.457304E1,1.7037327E1,3.3359957E-1,3.9728072E-1,4.599272E-1,5.1086694E-1,5.5519265E-1,6.1078113E-1,6.66294E-1,7.2120464E-1],"categories":[0,2],"categories_nodes":[0],"categories_segments":[0],"categories_sizes":[2],"default_left":[1,0,0,0,0,0,0,0,0,0,0,0,0,0,0,0,0],"id":26,"left_children":[1,3,-1,5,7,9,11,13,15,-1,-1,-1,-1,-1,-1,-1,-1],"loss_changes":[3.1064815E6,5.9422375E4,0E0,9.520375E3,6.0509375E3,1.6257188E3,7.7384375E2,9.93125E2,3.6428125E2,0E0,0E0,0E0,0E0,0E0,0E0,0E0,0E0],"parents":[2147483647,0,0,1,1,3,3,4,4,5,5,6,6,7,7,8,8],"right_children":[2,4,-1,6,8,10,12,14,16,-1,-1,-1,-1,-1,-1,-1,-1],"split_conditions":[1E-45,8.6E-1,-5.1605856E-1,7.9E-1,9.4E-1,7.4E-1,8.3E-1,9E-1,9.8E-1,3.3359957E-1,3.9728072E-1,4.599272E-1,5.1086694E-1,5.5519265E-1,6.1078113E-1,6.66294E-1,7.2120464E-1],"split_indices":[5,30,0,30,30,30,30,30,30,0,0,0,0,0,0,0,0],"split_type":[1,0,0,0,0,0,0,0,0,0,0,0,0,0,0,0,0],"sum_hessian":[1.875E4,9.401E3,9.349E3,5.13E3,4.271E3,2.812E3,2.318E3,2.501E3,1.77E3,1.129E3,1.683E3,1.325E3,9.93E2,1.264E3,1.237E3,1.293E3,4.77E2],"tree_param":{"num_deleted":"0","num_feature":"40","num_nodes":"17","size_leaf_vector":"1"}},{"base_weights":[5.2131424E-3,1.2327368E1,-4.9541846E-1,1.0120773E1,1.497475E1,8.755624E0,1.1390549E1,1.3990588E1,1.6356623E1,3.10072E-1,3.6940458E-1,4.2658907E-1,4.8307517E-1,5.3300256E-1,5.8636975E-1,6.39663E-1,6.924167E-1],"categories":[0,2],"categories_nodes":[0],"categories_segments":[0],"categories_sizes":[2],"default_left":[1,0,0,0,0,0,0,0,0,0,0,0,0,0,0,0,0],"id":27,"left_children":[1,3,-1,5,7,9,11,13,15,-1,-1,-1,-1,-1,-1,-1,-1],"loss_changes":[2.863052E6,5.4769625E4,0E0,8.7924375E3,5.578E3,1.1189531E3,1.1915312E3,9.1525E2,3.3653125E2,0E0,0E0,0E0,0E0,0E0,0E0,0E0,0E0],"parents":[2147483647,0,0,1,1,3,3,4,4,5,5,6,6,7,7,8,8],"right_children":[2,4,-1,6,8,10,12,14,16,-1,-1,-1,-1,-1,-1,-1,-1],"split_conditions":[1E-45,8.6E-1,-4.9541846E-1,7.8E-1,9.4E-1,7.3E-1,8.2E-1,9E-1,9.8E-1,3.10072E-1,3.6940458E-1,4.2658907E-1,4.8307517E-1,5.3300256E-1,5.8636975E-1,6.39663E-1,6.924167E-1],"split_indices":[5,30,0,30,30,30,30,30,30,0,0,0,0,0,0,0,0],"split_type":[1,0,0,0,0,0,0,0,0,0,0,0,0,0,0,0,0],"sum_hessian":[1.875E4,9.401E3,9.349E3,5.13E3,4.271E3,2.476E3,2.654E3,2.501E3,1.77E3,8.06E2,1.67E3,1.298E3,1.356E3,1.264E3,1.237E3,1.293E3,4.77E2],"tree_param":{"num_deleted":"0","num_feature":"40","num_nodes":"17","size_leaf_vector":"1"}},{"base_weights":[5.1941136E-3,1.1834704E1,-4.7560382E-1,9.383789E0,1.4034308E1,8.023334E0,1.0309983E1,1.2633173E1,1.5196864E1,2.8354758E-1,3.349761E-1,3.9240754E-1,4.4455653E-1,4.8556915E-1,5.3298825E-1,5.836278E-1,6.4308476E-1],"categories":[0,2],"categories_nodes":[0],"categories_segments":[0],"categories_sizes":[2],"default_left":[1,0,0,0,0,0,0,0,0,0,0,0,0,0,0,0,0],"id":28,"left_children":[1,3,-1,5,7,9,11,13,15,-1,-1,-1,-1,-1,-1,-1,-1],"loss_changes":[2.6386962E6,5.0552625E4,0E0,5.5226562E3,7.8731875E3,5.320078E2,9.5121875E2,6.049375E2,1.204125E3,0E0,0E0,0E0,0E0,0E0,0E0,0E0,0E0],"parents":[2147483647,0,0,1,1,3,3,4,4,5,5,6,6,7,7,8,8],"right_children":[2,4,-1,6,8,10,12,14,16,-1,-1,-1,-1,-1,-1,-1,-1],"split_conditions":[1E-45,8.4E-1,-4.7560382E-1,7.6E-1,9.1E-1,7.2E-1,8.1E-1,8.8E-1,9.6E-1,2.8354758E-1,3.349761E-1,3.9240754E-1,4.4455653E-1,4.8556915E-1,5.3298825E-1,5.836278E-1,6.4308476E-1],"split_indices":[5,30,0,30,30,30,30,30,30,0,0,0,0,0,0,0,0],"split_type":[1,0,0,0,0,0,0,0,0,0,0,0,0,0,0,0,0],"sum_hessian":[1.875E4,9.401E3,9.349E3,4.449E3,4.952E3,1.806E3,2.643E3,2.251E3,2.701E3,4.99E2,1.307E3,1.638E3,1.005E3,1.324E3,9.27E2,1.61E3,1.091E3],"tree_param":{"num_deleted":"0","num_feature":"40","num_nodes":"17","size_leaf_vector":"1"}},{"base_weights":[5.1590507E-3,1.1361712E1,-4.5658174E-1,9.008766E0,1.34733925E1,7.7027454E0,9.8979E0,1.2275171E1,1.47315855E1,2.7222842E-1,3.2158732E-1,3.7126288E-1,4.2024818E-1,4.6616092E-1,5.176072E-1,5.711682E-1,6.269355E-1],"categories":[0,2],"categories_nodes":[0],"categories_segments":[0],"categories_sizes":[2],"default_left":[1,0,0,0,0,0,0,0,0,0,0,0,0,0,0,0,0],"id":29,"left_children":[1,3,-1,5,7,9,11,13,15,-1,-1,-1,-1,-1,-1,-1,-1],"loss_changes":[2.431918E6,4.6591875E4,0E0,5.0894375E3,7.2835625E3,4.8995312E2,8.9178125E2,8.971875E2,8.004375E2,0E0,0E0,0E0,0E0,0E0,0E0,0E0,0E0],"parents":[2147483647,0,0,1,1,3,3,4,4,5,5,6,6,7,7,8,8],"right_children":[2,4,-1,6,8,10,12,14,16,-1,-1,-1,-1,-1,-1,-1,-1],"split_conditions":[1E-45,8.4E-1,-4.5658174E-1,7.6E-1,9.2E-1,7.2E-1,8E-1,8.8E-1,9.7E-1,2.7222842E-1,3.2158732E-1,3.7126288E-1,4.2024818E-1,4.6616092E-1,5.176072E-1,5.711682E-1,6.269355E-1],"split_indices":[5,30,0,30,30,30,30,30,30,0,0,0,0,0,0,0,0],"split_type":[1,0,0,0,0,0,0,0,0,0,0,0,0,0,0,0,0],"sum_hessian":[1.875E4,9.401E3,9.349E3,4.449E3,4.952E3,1.806E3,2.643E3,2.542E3,2.41E3,4.99E2,1.307E3,1.321E3,1.322E3,1.324E3,1.218E3,1.639E3,7.71E2],"tree_param":{"num_deleted":"0","num_feature":"40","num_nodes":"17","size_leaf_vector":"1"}},{"base_weights":[5.119191E-3,1.0907625E1,-4.3832046E-1,8.952435E0,1.3253384E1,7.888615E0,1.0238968E1,1.2374098E1,1.4488065E1,2.893588E-1,3.4334502E-1,3.9076805E-1,4.3420947E-1,4.6488157E-1,5.1304454E-1,5.6630486E-1,6.1408365E-1],"categories":[0,2],"categories_nodes":[0],"categories_segments":[0],"categories_sizes":[2],"default_left":[1,0,0,0,0,0,0,0,0,0,0,0,0,0,0,0,0],"id":30,"left_children":[1,3,-1,5,7,9,11,13,15,-1,-1,-1,-1,-1,-1,-1,-1],"loss_changes":[2.241344E6,4.3000625E4,0E0,6.939875E3,4.455875E3,1.2161875E3,5.632344E2,6.9903125E2,2.8534375E2,0E0,0E0,0E0,0E0,0E0,0E0,0E0,0E0],"parents":[2147483647,0,0,1,1,3,3,4,4,5,5,6,6,7,7,8,8],"right_children":[2,4,-1,6,8,10,12,14,16,-1,-1,-1,-1,-1,-1,-1,-1],"split_conditions":[1E-45,8.6E-1,-4.3832046E-1,7.9E-1,9.4E-1,7.5E-1,8.3E-1,8.9E-1,9.8E-1,2.893588E-1,3.4334502E-1,3.9076805E-1,4.3420947E-1,4.6488157E-1,5.1304454E-1,5.6630486E-1,6.1408365E-1],"split_indices":[5,30,0,30,30,30,30,30,30,0,0,0,0,0,0,0,0],"split_type":[1,0,0,0,0,0,0,0,0,0,0,0,0,0,0,0,0],"sum_hessian":[1.875E4,9.401E3,9.349E3,5.13E3,4.271E3,2.812E3,2.318E3,2.501E3,1.77E3,1.454E3,1.358E3,1.325E3,9.93E2,9.49E2,1.552E3,1.293E3,4.77E2],"tree_param":{"num_deleted":"0","num_feature":"40","num_nodes":"17","size_leaf_vector":"1"}},{"base_weights":[5.084356E-3,1.0471707E1,-4.207895E-1,8.594622E0,1.2723755E1,7.4291887E0,9.678646E0,1.1879525E1,1.390921E1,2.6238713E-1,3.137843E-1,3.6238128E-1,4.1056365E-1,4.526583E-1,4.9780783E-1,5.436701E-1,5.895717E-1],"categories":[0,2],"categories_nodes":[0],"categories_segments":[0],"categories_sizes":[2],"default_left":[1,0,0,0,0,0,0,0,0,0,0,0,0,0,0,0,0],"id":31,"left_children":[1,3,-1,5,7,9,11,13,15,-1,-1,-1,-1,-1,-1,-1,-1],"loss_changes":[2.065708E6,3.96335E4,0E0,6.4086562E3,4.1075625E3,8.418125E2,8.674219E2,6.5371875E2,2.6353125E2,0E0,0E0,0E0,0E0,0E0,0E0,0E0,0E0],"parents":[2147483647,0,0,1,1,3,3,4,4,5,5,6,6,7,7,8,8],"right_children":[2,4,-1,6,8,10,12,14,16,-1,-1,-1,-1,-1,-1,-1,-1],"split_conditions":[1E-45,8.6E-1,-4.207895E-1,7.8E-1,9.4E-1,7.3E-1,8.2E-1,9E-1,9.8E-1,2.6238713E-1,3.137843E-1,3.6238128E-1,4.1056365E-1,4.526583E-1,4.9780783E-1,5.436701E-1,5.895717E-1],"split_indices":[5,30,0,30,30,30,30,30,30,0,0,0,0,0,0,0,0],"split_type":[1,0,0,0,0,0,0,0,0,0,0,0,0,0,0,0,0],"sum_hessian":[1.875E4,9.401E3,9.349E3,5.13E3,4.271E3,2.476E3,2.654E3,2.501E3,1.77E3,8.06E2,1.67E3,1.298E3,1.356E3,1.264E3,1.237E3,1.293E3,4.77E2],"tree_param":{"num_deleted":"0","num_feature":"40","num_nodes":"17","size_leaf_vector":"1"}},{"base_weights":[5.043113E-3,1.0053207E1,-4.0395972E-1,8.114681E0,1.2063912E1,6.9787216E0,9.037898E0,1.1121305E1,1.3191485E1,2.3933503E-1,2.9102048E-1,3.3807486E-1,3.837798E-1,4.225339E-1,4.679312E-1,5.1117975E-1,5.552337E-1],"categories":[0,2],"categories_nodes":[0],"categories_segments":[0],"categories_sizes":[2],"default_left":[1,0,0,0,0,0,0,0,0,0,0,0,0,0,0,0,0],"id":32,"left_children":[1,3,-1,5,7,9,11,13,15,-1,-1,-1,-1,-1,-1,-1,-1],"loss_changes":[1.9038345E6,3.6547188E4,0E0,4.9587812E3,4.753875E3,5.908594E2,7.778906E2,6.8509375E2,4.149375E2,0E0,0E0,0E0,0E0,0E0,0E0,0E0,0E0],"parents":[2147483647,0,0,1,1,3,3,4,4,5,5,6,6,7,7,8,8],"right_children":[2,4,-1,6,8,10,12,14,16,-1,-1,-1,-1,-1,-1,-1,-1],"split_conditions":[1E-45,8.5E-1,-4.0395972E-1,7.7E-1,9.3E-1,7.2E-1,8.1E-1,8.9E-1,9.7E-1,2.3933503E-1,2.9102048E-1,3.3807486E-1,3.837798E-1,4.225339E-1,4.679312E-1,5.1117975E-1,5.552337E-1],"split_indices":[5,30,0,30,30,30,30,30,30,0,0,0,0,0,0,0,0],"split_type":[1,0,0,0,0,0,0,0,0,0,0,0,0,0,0,0,0],"sum_hessian":[1.875E4,9.401E3,9.349E3,4.789E3,4.612E3,2.151E3,2.638E3,2.518E3,2.094E3,4.99E2,1.652E3,1.293E3,1.345E3,1.29E3,1.228E3,1.323E3,7.71E2],"tree_param":{"num_deleted":"0","num_feature":"40","num_nodes":"17","size_leaf_vector":"1"}},{"base_weights":[4.991875E-3,9.6514225E0,-3.8780308E-1,7.649568E0,1.144801E1,6.527976E0,8.413172E0,1.0297606E1,1.240255E1,2.2978081E-1,2.7289578E-1,3.157276E-1,3.5705298E-1,3.900771E-1,4.2924225E-1,4.7598884E-1,5.2531636E-1],"categories":[0,2],"categories_nodes":[0],"categories_segments":[0],"categories_sizes":[2],"default_left":[1,0,0,0,0,0,0,0,0,0,0,0,0,0,0,0,0],"id":33,"left_children":[1,3,-1,5,7,9,11,13,15,-1,-1,-1,-1,-1,-1,-1,-1],"loss_changes":[1.7546442E6,3.3724812E4,0E0,3.7547812E3,5.309E3,3.7635938E2,6.333594E2,4.2595312E2,8.3346875E2,0E0,0E0,0E0,0E0,0E0,0E0,0E0,0E0],"parents":[2147483647,0,0,1,1,3,3,4,4,5,5,6,6,7,7,8,8],"right_children":[2,4,-1,6,8,10,12,14,16,-1,-1,-1,-1,-1,-1,-1,-1],"split_conditions":[1E-45,8.4E-1,-3.8780308E-1,7.6E-1,9.1E-1,7.2E-1,8E-1,8.7E-1,9.6E-1,2.2978081E-1,2.7289578E-1,3.157276E-1,3.5705298E-1,3.900771E-1,4.2924225E-1,4.7598884E-1,5.2531636E-1],"split_indices":[5,30,0,30,30,30,30,30,30,0,0,0,0,0,0,0,0],"split_type":[1,0,0,0,0,0,0,0,0,0,0,0,0,0,0,0,0],"sum_hessian":[1.875E4,9.401E3,9.349E3,4.449E3,4.952E3,1.806E3,2.643E3,2.251E3,2.701E3,4.99E2,1.307E3,1.321E3,1.322E3,1.007E3,1.244E3,1.61E3,1.091E3],"tree_param":{"num_deleted":"0","num_feature":"40","num_nodes":"17","size_leaf_vector":"1"}},{"base_weights":[4.9317926E-3,9.265687E0,-3.7229267E-1,7.209459E0,1.087999E1,6.267137E0,7.9365025E0,9.793612E0,1.1906819E1,2.206079E-1,2.619883E-1,2.982713E-1,3.3179015E-1,3.7225866E-1,4.1208622E-1,4.5148122E-1,4.9823546E-1],"categories":[0,2],"categories_nodes":[0],"categories_segments":[0],"categories_sizes":[2],"default_left":[1,0,0,0,0,0,0,0,0,0,0,0,0,0,0,0,0],"id":34,"left_children":[1,3,-1,5,7,9,11,13,15,-1,-1,-1,-1,-1,-1,-1,-1],"loss_changes":[1.6171434E6,3.1128562E4,0E0,2.7838125E3,5.7544375E3,3.4660938E2,3.3735938E2,5.373594E2,7.7653125E2,0E0,0E0,0E0,0E0,0E0,0E0,0E0,0E0],"parents":[2147483647,0,0,1,1,3,3,4,4,5,5,6,6,7,7,8,8],"right_children":[2,4,-1,6,8,10,12,14,16,-1,-1,-1,-1,-1,-1,-1,-1],"split_conditions":[1E-45,8.3E-1,-3.7229267E-1,7.6E-1,9.1E-1,7.2E-1,7.9E-1,8.7E-1,9.5E-1,2.206079E-1,2.619883E-1,2.982713E-1,3.3179015E-1,3.7225866E-1,4.1208622E-1,4.5148122E-1,4.9823546E-1],"split_indices":[5,30,0,30,30,30,30,30,30,0,0,0,0,0,0,0,0],"split_type":[1,0,0,0,0,0,0,0,0,0,0,0,0,0,0,0,0],"sum_hessian":[1.875E4,9.401E3,9.349E3,4.137E3,5.264E3,1.806E3,2.331E3,2.563E3,2.701E3,4.99E2,1.307E3,1.006E3,1.325E3,1.319E3,1.244E3,1.279E3,1.422E3],"tree_param":{"num_deleted":"0","num_feature":"40","num_nodes":"17","size_leaf_vector":"1"}},{"base_weights":[4.867885E-3,8.895365E0,-3.5740253E-1,6.9213533E0,1.044512E1,6.0167217E0,7.6193156E0,9.402173E0,1.1430897E1,2.1180108E-1,2.5151688E-1,2.8635228E-1,3.1852865E-1,3.5737953E-1,3.95616E-1,4.3852866E-1,4.844118E-1],"categories":[0,2],"categories_nodes":[0],"categories_segments":[0],"categories_sizes":[2],"default_left":[1,0,0,0,0,0,0,0,0,0,0,0,0,0,0,0,0],"id":35,"left_children":[1,3,-1,5,7,9,11,13,15,-1,-1,-1,-1,-1,-1,-1,-1],"loss_changes":[1.4904169E6,2.8688875E4,0E0,2.5655156E3,5.3034375E3,3.1921484E2,3.1078125E2,4.9521875E2,7.2346875E2,0E0,0E0,0E0,0E0,0E0,0E0,0E0,0E0],"parents":[2147483647,0,0,1,1,3,3,4,4,5,5,6,6,7,7,8,8],"right_children":[2,4,-1,6,8,10,12,14,16,-1,-1,-1,-1,-1,-1,-1,-1],"split_conditions":[1E-45,8.3E-1,-3.5740253E-1,7.6E-1,9.1E-1,7.2E-1,7.9E-1,8.7E-1,9.6E-1,2.1180108E-1,2.5151688E-1,2.8635228E-1,3.1852865E-1,3.5737953E-1,3.95616E-1,4.3852866E-1,4.844118E-1],"split_indices":[5,30,0,30,30,30,30,30,30,0,0,0,0,0,0,0,0],"split_type":[1,0,0,0,0,0,0,0,0,0,0,0,0,0,0,0,0],"sum_hessian":[1.875E4,9.401E3,9.349E3,4.137E3,5.264E3,1.806E3,2.331E3,2.563E3,2.701E3,4.99E2,1.307E3,1.006E3,1.325E3,1.319E3,1.244E3,1.61E3,1.091E3],"tree_param":{"num_deleted":"0","num_feature":"40","num_nodes":"17","size_leaf_vector":"1"}},{"base_weights":[4.801969E-3,8.5398445E0,-3.4310794E-1,6.64476E0,1.0027637E1,5.776311E0,7.3148046E0,9.130656E0,1.10856E1,2.0334606E-1,2.4146384E-1,2.749095E-1,3.057972E-1,3.4729242E-1,3.8900673E-1,4.2931706E-1,4.7281253E-1],"categories":[0,2],"categories_nodes":[0],"categories_segments":[0],"categories_sizes":[2],"default_left":[1,0,0,0,0,0,0,0,0,0,0,0,0,0,0,0,0],"id":36,"left_children":[1,3,-1,5,7,9,11,13,15,-1,-1,-1,-1,-1,-1,-1,-1],"loss_changes":[1.3736218E6,2.6440562E4,0E0,2.3643438E3,4.893125E3,2.9398047E2,2.8633594E2,6.747031E2,4.95625E2,0E0,0E0,0E0,0E0,0E0,0E0,0E0,0E0],"parents":[2147483647,0,0,1,1,3,3,4,4,5,5,6,6,7,7,8,8],"right_children":[2,4,-1,6,8,10,12,14,16,-1,-1,-1,-1,-1,-1,-1,-1],"split_conditions":[1E-45,8.3E-1,-3.4310794E-1,7.6E-1,9.2E-1,7.2E-1,7.9E-1,8.8E-1,9.7E-1,2.0334606E-1,2.4146384E-1,2.749095E-1,3.057972E-1,3.4729242E-1,3.8900673E-1,4.2931706E-1,4.7281253E-1],"split_indices":[5,30,0,30,30,30,30,30,30,0,0,0,0,0,0,0,0],"split_type":[1,0,0,0,0,0,0,0,0,0,0,0,0,0,0,0,0],"sum_hessian":[1.875E4,9.401E3,9.349E3,4.137E3,5.264E3,1.806E3,2.331E3,2.854E3,2.41E3,4.99E2,1.307E3,1.006E3,1.325E3,1.636E3,1.218E3,1.639E3,7.71E2],"tree_param":{"num_deleted":"0","num_feature":"40","num_nodes":"17","size_leaf_vector":"1"}},{"base_weights":[4.735482E-3,8.198539E0,-3.293851E-1,6.725361E0,9.965997E0,5.8109727E0,7.5758743E0,9.290957E0,1.0913983E1,2.1117139E-1,2.500916E-1,2.8326175E-1,3.2173678E-1,3.4910405E-1,3.8518104E-1,4.257831E-1,4.648101E-1],"categories":[0,2],"categories_nodes":[0],"categories_segments":[0],"categories_sizes":[2],"default_left":[1,0,0,0,0,0,0,0,0,0,0,0,0,0,0,0,0],"id":37,"left_children":[1,3,-1,5,7,9,11,13,15,-1,-1,-1,-1,-1,-1,-1,-1],"loss_changes":[1.2659799E6,2.4412125E4,0E0,3.945E3,2.6303125E3,5.470547E2,5.5515625E2,3.9135938E2,2.110625E2,0E0,0E0,0E0,0E0,0E0,0E0,0E0,0E0],"parents":[2147483647,0,0,1,1,3,3,4,4,5,5,6,6,7,7,8,8],"right_children":[2,4,-1,6,8,10,12,14,16,-1,-1,-1,-1,-1,-1,-1,-1],"split_conditions":[1E-45,8.6E-1,-3.293851E-1,7.8E-1,9.4E-1,7.4E-1,8.2E-1,8.9E-1,9.8E-1,2.1117139E-1,2.500916E-1,2.8326175E-1,3.2173678E-1,3.4910405E-1,3.8518104E-1,4.257831E-1,4.648101E-1],"split_indices":[5,30,0,30,30,30,30,30,30,0,0,0,0,0,0,0,0],"split_type":[1,0,0,0,0,0,0,0,0,0,0,0,0,0,0,0,0],"sum_hessian":[1.875E4,9.401E3,9.349E3,5.13E3,4.271E3,2.476E3,2.654E3,2.501E3,1.77E3,1.129E3,1.347E3,1.298E3,1.356E3,9.49E2,1.552E3,1.293E3,4.77E2],"tree_param":{"num_deleted":"0","num_feature":"40","num_nodes":"17","size_leaf_vector":"1"}},{"base_weights":[4.6733664E-3,7.8708863E0,-3.1621107E-1,6.235613E0,9.338481E0,5.31987E0,6.859067E0,8.598092E0,1.0344369E1,1.867984E-1,2.225665E-1,2.6066077E-1,2.9640943E-1,3.2271093E-1,3.6200768E-1,4.039206E-1,4.462565E-1],"categories":[0,2],"categories_nodes":[0],"categories_segments":[0],"categories_sizes":[2],"default_left":[1,0,0,0,0,0,0,0,0,0,0,0,0,0,0,0,0],"id":38,"left_children":[1,3,-1,5,7,9,11,13,15,-1,-1,-1,-1,-1,-1,-1,-1],"loss_changes":[1.1667749E6,2.250425E4,0E0,2.5028906E3,3.5979062E3,2.5989062E2,4.495E2,6.107344E2,3.0432812E2,0E0,0E0,0E0,0E0,0E0,0E0,0E0,0E0],"parents":[2147483647,0,0,1,1,3,3,4,4,5,5,6,6,7,7,8,8],"right_children":[2,4,-1,6,8,10,12,14,16,-1,-1,-1,-1,-1,-1,-1,-1],"split_conditions":[1E-45,8.4E-1,-3.1621107E-1,7.6E-1,9.3E-1,7.2E-1,8.1E-1,8.8E-1,9.8E-1,1.867984E-1,2.225665E-1,2.6066077E-1,2.9640943E-1,3.2271093E-1,3.6200768E-1,4.039206E-1,4.462565E-1],"split_indices":[5,30,0,30,30,30,30,30,30,0,0,0,0,0,0,0,0],"split_type":[1,0,0,0,0,0,0,0,0,0,0,0,0,0,0,0,0],"sum_hessian":[1.875E4,9.401E3,9.349E3,4.449E3,4.952E3,1.806E3,2.643E3,2.858E3,2.094E3,4.99E2,1.307E3,1.638E3,1.005E3,1.324E3,1.534E3,1.617E3,4.77E2],"tree_param":{"num_deleted":"0","num_feature":"40","num_nodes":"17","size_leaf_vector":"1"}},{"base_weights":[4.6048686E-3,7.5563207E0,-3.0356398E-1,6.1975956E0,9.186461E0,5.23661E0,6.8894563E0,8.562425E0,1.0062832E1,1.7934142E-1,2.1844687E-1,2.579231E-1,2.9650116E-1,3.2631373E-1,3.5875326E-1,3.9262056E-1,4.2844343E-1],"categories":[0,2],"categories_nodes":[0],"categories_segments":[0],"categories_sizes":[2],"default_left":[1,0,0,0,0,0,0,0,0,0,0,0,0,0,0,0,0],"id":39,"left_children":[1,3,-1,5,7,9,11,13,15,-1,-1,-1,-1,-1,-1,-1,-1],"loss_changes":[1.0753428E6,2.0766188E4,0E0,3.3741562E3,2.2482812E3,3.3844922E2,6.388125E2,3.3651562E2,1.7675E2,0E0,0E0,0E0,0E0,0E0,0E0,0E0,0E0],"parents":[2147483647,0,0,1,1,3,3,4,4,5,5,6,6,7,7,8,8],"right_children":[2,4,-1,6,8,10,12,14,16,-1,-1,-1,-1,-1,-1,-1,-1],"split_conditions":[1E-45,8.6E-1,-3.0356398E-1,7.7E-1,9.4E-1,7.2E-1,8.2E-1,9E-1,9.8E-1,1.7934142E-1,2.1844687E-1,2.579231E-1,2.9650116E-1,3.2631373E-1,3.5875326E-1,3.9262056E-1,4.2844343E-1],"split_indices":[5,30,0,30,30,30,30,30,30,0,0,0,0,0,0,0,0],"split_type":[1,0,0,0,0,0,0,0,0,0,0,0,0,0,0,0,0],"sum_hessian":[1.875E4,9.401E3,9.349E3,5.13E3,4.271E3,2.151E3,2.979E3,2.501E3,1.77E3,4.99E2,1.652E3,1.623E3,1.356E3,1.264E3,1.237E3,1.293E3,4.77E2],"tree_param":{"num_deleted":"0","num_feature":"40","num_nodes":"17","size_leaf_vector":"1"}},{"base_weights":[4.5366557E-3,7.2543316E0,-2.914227E-1,5.641467E0,8.520557E0,4.899779E0,6.2137184E0,7.6649346E0,9.32929E0,1.7218201E-1,2.049396E-1,2.3686735E-1,2.635737E-1,2.9128855E-1,3.2257897E-1,3.532227E-1,3.9085078E-1],"categories":[0,2],"categories_nodes":[0],"categories_segments":[0],"categories_sizes":[2],"default_left":[1,0,0,0,0,0,0,0,0,0,0,0,0,0,0,0,0],"id":40,"left_children":[1,3,-1,5,7,9,11,13,15,-1,-1,-1,-1,-1,-1,-1,-1],"loss_changes":[9.910763E5,1.9151719E4,0E0,1.7247344E3,3.5700312E3,2.176211E2,2.1553906E2,3.3179688E2,5.074375E2,0E0,0E0,0E0,0E0,0E0,0E0,0E0,0E0],"parents":[2147483647,0,0,1,1,3,3,4,4,5,5,6,6,7,7,8,8],"right_children":[2,4,-1,6,8,10,12,14,16,-1,-1,-1,-1,-1,-1,-1,-1],"split_conditions":[1E-45,8.3E-1,-2.914227E-1,7.6E-1,9.1E-1,7.2E-1,8E-1,8.7E-1,9.5E-1,1.7218201E-1,2.049396E-1,2.3686735E-1,2.635737E-1,2.9128855E-1,3.2257897E-1,3.532227E-1,3.9085078E-1],"split_indices":[5,30,0,30,30,30,30,30,30,0,0,0,0,0,0,0,0],"split_type":[1,0,0,0,0,0,0,0,0,0,0,0,0,0,0,0,0],"sum_hessian":[1.875E4,9.401E3,9.349E3,4.137E3,5.264E3,1.806E3,2.331E3,2.563E3,2.701E3,4.99E2,1.307E3,1.321E3,1.01E3,1.319E3,1.244E3,1.279E3,1.422E3],"tree_param":{"num_deleted":"0","num_feature":"40","num_nodes":"17","size_leaf_vector":"1"}},{"base_weights":[4.459056E-3,6.964398E0,-2.797671E-1,5.6167297E0,8.362245E0,4.8249655E0,6.2602158E0,7.697864E0,9.157047E0,1.729273E-1,2.048861E-1,2.3385179E-1,2.6613683E-1,2.9244334E-1,3.2391247E-1,3.573503E-1,3.9574012E-1],"categories":[0,2],"categories_nodes":[0],"categories_segments":[0],"categories_sizes":[2],"default_left":[1,0,0,0,0,0,0,0,0,0,0,0,0,0,0,0,0],"id":41,"left_children":[1,3,-1,5,7,9,11,13,15,-1,-1,-1,-1,-1,-1,-1,-1],"loss_changes":[9.134114E5,1.7663406E4,0E0,2.4091562E3,2.3637188E3,2.978203E2,3.8935938E2,3.289375E2,2.5423438E2,0E0,0E0,0E0,0E0,0E0,0E0,0E0,0E0],"parents":[2147483647,0,0,1,1,3,3,4,4,5,5,6,6,7,7,8,8],"right_children":[2,4,-1,6,8,10,12,14,16,-1,-1,-1,-1,-1,-1,-1,-1],"split_conditions":[1E-45,8.5E-1,-2.797671E-1,7.7E-1,9.3E-1,7.3E-1,8.1E-1,8.9E-1,9.8E-1,1.729273E-1,2.048861E-1,2.3385179E-1,2.6613683E-1,2.9244334E-1,3.2391247E-1,3.573503E-1,3.9574012E-1],"split_indices":[5,30,0,30,30,30,30,30,30,0,0,0,0,0,0,0,0],"split_type":[1,0,0,0,0,0,0,0,0,0,0,0,0,0,0,0,0],"sum_hessian":[1.875E4,9.401E3,9.349E3,4.789E3,4.612E3,2.151E3,2.638E3,2.518E3,2.094E3,8.06E2,1.345E3,1.293E3,1.345E3,1.29E3,1.228E3,1.617E3,4.77E2],"tree_param":{"num_deleted":"0","num_feature":"40","num_nodes":"17","size_leaf_vector":"1"}},{"base_weights":[4.3873363E-3,6.686064E0,-2.6857755E-1,5.198103E0,7.85423E0,4.5134797E0,5.7263265E0,7.0653167E0,8.599908E0,1.5840529E-1,1.8885906E-1,2.1489286E-1,2.3963092E-1,2.6847667E-1,2.9737E-1,3.294073E-1,3.6520037E-1],"categories":[0,2],"categories_nodes":[0],"categories_segments":[0],"categories_sizes":[2],"default_left":[1,0,0,0,0,0,0,0,0,0,0,0,0,0,0,0,0],"id":42,"left_children":[1,3,-1,5,7,9,11,13,15,-1,-1,-1,-1,-1,-1,-1,-1],"loss_changes":[8.41834E5,1.6300281E4,0E0,1.4695703E3,3.0349375E3,1.8841016E2,1.8499219E2,2.8297656E2,4.4548438E2,0E0,0E0,0E0,0E0,0E0,0E0,0E0,0E0],"parents":[2147483647,0,0,1,1,3,3,4,4,5,5,6,6,7,7,8,8],"right_children":[2,4,-1,6,8,10,12,14,16,-1,-1,-1,-1,-1,-1,-1,-1],"split_conditions":[1E-45,8.3E-1,-2.6857755E-1,7.6E-1,9.1E-1,7.2E-1,7.9E-1,8.7E-1,9.6E-1,1.5840529E-1,1.8885906E-1,2.1489286E-1,2.3963092E-1,2.6847667E-1,2.9737E-1,3.294073E-1,3.6520037E-1],"split_indices":[5,30,0,30,30,30,30,30,30,0,0,0,0,0,0,0,0],"split_type":[1,0,0,0,0,0,0,0,0,0,0,0,0,0,0,0,0],"sum_hessian":[1.875E4,9.401E3,9.349E3,4.137E3,5.264E3,1.806E3,2.331E3,2.563E3,2.701E3,4.99E2,1.307E3,1.006E3,1.325E3,1.319E3,1.244E3,1.61E3,1.091E3],"tree_param":{"num_deleted":"0","num_feature":"40","num_nodes":"17","size_leaf_vector":"1"}},{"base_weights":[4.3087536E-3,6.4188437E0,-2.578356E-1,4.990377E0,7.5403013E0,4.3331366E0,5.497471E0,6.860896E0,8.341655E0,1.520819E-1,1.8131052E-1,2.063058E-1,2.3005289E-1,2.6098177E-1,2.9227495E-1,3.2258403E-1,3.567712E-1],"categories":[0,2],"categories_nodes":[0],"categories_segments":[0],"categories_sizes":[2],"default_left":[1,0,0,0,0,0,0,0,0,0,0,0,0,0,0,0,0],"id":43,"left_children":[1,3,-1,5,7,9,11,13,15,-1,-1,-1,-1,-1,-1,-1,-1],"loss_changes":[7.758645E5,1.5022781E4,0E0,1.3543125E3,2.8077812E3,1.7350781E2,1.7042188E2,3.7920312E2,3.1221875E2,0E0,0E0,0E0,0E0,0E0,0E0,0E0,0E0],"parents":[2147483647,0,0,1,1,3,3,4,4,5,5,6,6,7,7,8,8],"right_children":[2,4,-1,6,8,10,12,14,16,-1,-1,-1,-1,-1,-1,-1,-1],"split_conditions":[1E-45,8.3E-1,-2.578356E-1,7.6E-1,9.2E-1,7.2E-1,7.9E-1,8.8E-1,9.7E-1,1.520819E-1,1.8131052E-1,2.063058E-1,2.3005289E-1,2.6098177E-1,2.9227495E-1,3.2258403E-1,3.567712E-1],"split_indices":[5,30,0,30,30,30,30,30,30,0,0,0,0,0,0,0,0],"split_type":[1,0,0,0,0,0,0,0,0,0,0,0,0,0,0,0,0],"sum_hessian":[1.875E4,9.401E3,9.349E3,4.137E3,5.264E3,1.806E3,2.331E3,2.854E3,2.41E3,4.99E2,1.307E3,1.006E3,1.325E3,1.636E3,1.218E3,1.639E3,7.71E2],"tree_param":{"num_deleted":"0","num_feature":"40","num_nodes":"17","size_leaf_vector":"1"}},{"base_weights":[4.2306646E-3,6.162306E0,-2.4752328E-1,5.0518727E0,7.4945555E0,4.444869E0,5.7859607E0,6.9769692E0,8.221493E0,1.57802E-1,1.9110237E-1,2.1648267E-1,2.4187833E-1,2.622519E-1,2.891898E-1,3.2037768E-1,3.511251E-1],"categories":[0,2],"categories_nodes":[0],"categories_segments":[0],"categories_sizes":[2],"default_left":[1,0,0,0,0,0,0,0,0,0,0,0,0,0,0,0,0],"id":44,"left_children":[1,3,-1,5,7,9,11,13,15,-1,-1,-1,-1,-1,-1,-1,-1],"loss_changes":[7.1506494E5,1.3869969E4,0E0,2.2596016E3,1.5484688E3,4.4804297E2,1.9242188E2,2.1727344E2,1.3705469E2,0E0,0E0,0E0,0E0,0E0,0E0,0E0,0E0],"parents":[2147483647,0,0,1,1,3,3,4,4,5,5,6,6,7,7,8,8],"right_children":[2,4,-1,6,8,10,12,14,16,-1,-1,-1,-1,-1,-1,-1,-1],"split_conditions":[1E-45,8.6E-1,-2.4752328E-1,7.9E-1,9.4E-1,7.4E-1,8.2E-1,8.9E-1,9.8E-1,1.57802E-1,1.9110237E-1,2.1648267E-1,2.4187833E-1,2.622519E-1,2.891898E-1,3.2037768E-1,3.511251E-1],"split_indices":[5,30,0,30,30,30,30,30,30,0,0,0,0,0,0,0,0],"split_type":[1,0,0,0,0,0,0,0,0,0,0,0,0,0,0,0,0],"sum_hessian":[1.875E4,9.401E3,9.349E3,5.13E3,4.271E3,2.812E3,2.318E3,2.501E3,1.77E3,1.129E3,1.683E3,9.62E2,1.356E3,9.49E2,1.552E3,1.293E3,4.77E2],"tree_param":{"num_deleted":"0","num_feature":"40","num_nodes":"17","size_leaf_vector":"1"}},{"base_weights":[4.157751E-3,5.9160323E0,-2.3762342E-1,4.6832747E0,7.022383E0,3.9898074E0,5.155405E0,6.4604692E0,7.785815E0,1.18459485E-1,1.633503E-1,1.9586642E-1,2.2286935E-1,2.4251935E-1,2.7197206E-1,3.0365205E-1,3.3710936E-1],"categories":[0,2],"categories_nodes":[0],"categories_segments":[0],"categories_sizes":[2],"default_left":[1,0,0,0,0,0,0,0,0,0,0,0,0,0,0,0,0],"id":45,"left_children":[1,3,-1,5,7,9,11,13,15,-1,-1,-1,-1,-1,-1,-1,-1],"loss_changes":[6.590312E5,1.27889375E4,0E0,1.4354844E3,2.0730469E3,1.6177734E2,2.564922E2,3.4253906E2,1.9600781E2,0E0,0E0,0E0,0E0,0E0,0E0,0E0,0E0],"parents":[2147483647,0,0,1,1,3,3,4,4,5,5,6,6,7,7,8,8],"right_children":[2,4,-1,6,8,10,12,14,16,-1,-1,-1,-1,-1,-1,-1,-1],"split_conditions":[1E-45,8.4E-1,-2.3762342E-1,7.6E-1,9.3E-1,7.1E-1,8.1E-1,8.8E-1,9.8E-1,1.18459485E-1,1.633503E-1,1.9586642E-1,2.2286935E-1,2.4251935E-1,2.7197206E-1,3.0365205E-1,3.3710936E-1],"split_indices":[5,30,0,30,30,30,30,30,30,0,0,0,0,0,0,0,0],"split_type":[1,0,0,0,0,0,0,0,0,0,0,0,0,0,0,0,0],"sum_hessian":[1.875E4,9.401E3,9.349E3,4.449E3,4.952E3,1.806E3,2.643E3,2.858E3,2.094E3,1.54E2,1.652E3,1.638E3,1.005E3,1.324E3,1.534E3,1.617E3,4.77E2],"tree_param":{"num_deleted":"0","num_feature":"40","num_nodes":"17","size_leaf_vector":"1"}},{"base_weights":[4.0786983E-3,5.679591E0,-2.281195E-1,4.6554413E0,6.908321E0,4.015453E0,5.2507315E0,6.4297147E0,7.58052E0,1.4021902E-1,1.7037122E-1,1.9641082E-1,2.2290789E-1,2.4504451E-1,2.6938656E-1,2.9543576E-1,3.2365307E-1],"categories":[0,2],"categories_nodes":[0],"categories_segments":[0],"categories_sizes":[2],"default_left":[1,0,0,0,0,0,0,0,0,0,0,0,0,0,0,0,0],"id":46,"left_children":[1,3,-1,5,7,9,11,13,15,-1,-1,-1,-1,-1,-1,-1,-1],"loss_changes":[6.073871E5,1.1798219E4,0E0,1.9327969E3,1.3242344E3,2.9229688E2,2.626172E2,1.8909375E2,1.1475E2,0E0,0E0,0E0,0E0,0E0,0E0,0E0,0E0],"parents":[2147483647,0,0,1,1,3,3,4,4,5,5,6,6,7,7,8,8],"right_children":[2,4,-1,6,8,10,12,14,16,-1,-1,-1,-1,-1,-1,-1,-1],"split_conditions":[1E-45,8.6E-1,-2.281195E-1,7.8E-1,9.4E-1,7.3E-1,8.2E-1,9E-1,9.8E-1,1.4021902E-1,1.7037122E-1,1.9641082E-1,2.2290789E-1,2.4504451E-1,2.6938656E-1,2.9543576E-1,3.2365307E-1],"split_indices":[5,30,0,30,30,30,30,30,30,0,0,0,0,0,0,0,0],"split_type":[1,0,0,0,0,0,0,0,0,0,0,0,0,0,0,0,0],"sum_hessian":[1.875E4,9.401E3,9.349E3,5.13E3,4.271E3,2.476E3,2.654E3,2.501E3,1.77E3,8.06E2,1.67E3,1.298E3,1.356E3,1.264E3,1.237E3,1.293E3,4.77E2],"tree_param":{"num_deleted":"0","num_feature":"40","num_nodes":"17","size_leaf_vector":"1"}},{"base_weights":[4.0044603E-3,5.452609E0,-2.1899568E-1,4.3948255E0,6.549776E0,3.7699854E0,4.9026546E0,6.0940185E0,7.2776527E0,1.3461715E-1,1.6038656E-1,1.8317151E-1,2.0839246E-1,2.2893915E-1,2.559223E-1,2.8686377E-1,3.272118E-1],"categories":[0,2],"categories_nodes":[0],"categories_segments":[0],"categories_sizes":[2],"default_left":[1,0,0,0,0,0,0,0,0,0,0,0,0,0,0,0,0],"id":47,"left_children":[1,3,-1,5,7,9,11,13,15,-1,-1,-1,-1,-1,-1,-1,-1],"loss_changes":[5.597911E5,1.0881781E4,0E0,1.5005781E3,1.4846094E3,1.944336E2,2.3727734E2,2.824453E2,1.0934375E2,0E0,0E0,0E0,0E0,0E0,0E0,0E0,0E0],"parents":[2147483647,0,0,1,1,3,3,4,4,5,5,6,6,7,7,8,8],"right_children":[2,4,-1,6,8,10,12,14,16,-1,-1,-1,-1,-1,-1,-1,-1],"split_conditions":[1E-45,8.5E-1,-2.1899568E-1,7.7E-1,9.4E-1,7.3E-1,8.1E-1,8.9E-1,9.9E-1,1.3461715E-1,1.6038656E-1,1.8317151E-1,2.0839246E-1,2.2893915E-1,2.559223E-1,2.8686377E-1,3.272118E-1],"split_indices":[5,30,0,30,30,30,30,30,30,0,0,0,0,0,0,0,0],"split_type":[1,0,0,0,0,0,0,0,0,0,0,0,0,0,0,0,0],"sum_hessian":[1.875E4,9.401E3,9.349E3,4.789E3,4.612E3,2.151E3,2.638E3,2.842E3,1.77E3,8.06E2,1.345E3,1.293E3,1.345E3,1.29E3,1.552E3,1.592E3,1.78E2],"tree_param":{"num_deleted":"0","num_feature":"40","num_nodes":"17","size_leaf_vector":"1"}},{"base_weights":[3.9290795E-3,5.2346973E0,-2.1023679E-1,4.066423E0,6.1518836E0,3.5247374E0,4.4843726E0,5.5298295E0,6.7398534E0,1.02828875E-1,1.4448006E-1,1.7094278E-1,1.902195E-1,2.1006504E-1,2.328108E-1,2.578554E-1,2.8666145E-1],"categories":[0,2],"categories_nodes":[0],"categories_segments":[0],"categories_sizes":[2],"default_left":[1,0,0,0,0,0,0,0,0,0,0,0,0,0,0,0,0],"id":48,"left_children":[1,3,-1,5,7,9,11,13,15,-1,-1,-1,-1,-1,-1,-1,-1],"loss_changes":[5.1592472E5,1.00484375E4,0E0,9.2022656E2,1.8871719E3,1.405293E2,1.1205078E2,1.755E2,2.9078125E2,0E0,0E0,0E0,0E0,0E0,0E0,0E0,0E0],"parents":[2147483647,0,0,1,1,3,3,4,4,5,5,6,6,7,7,8,8],"right_children":[2,4,-1,6,8,10,12,14,16,-1,-1,-1,-1,-1,-1,-1,-1],"split_conditions":[1E-45,8.3E-1,-2.1023679E-1,7.6E-1,9.1E-1,7.1E-1,8E-1,8.7E-1,9.6E-1,1.02828875E-1,1.4448006E-1,1.7094278E-1,1.902195E-1,2.1006504E-1,2.328108E-1,2.578554E-1,2.8666145E-1],"split_indices":[5,30,0,30,30,30,30,30,30,0,0,0,0,0,0,0,0],"split_type":[1,0,0,0,0,0,0,0,0,0,0,0,0,0,0,0,0],"sum_hessian":[1.875E4,9.401E3,9.349E3,4.137E3,5.264E3,1.806E3,2.331E3,2.563E3,2.701E3,1.54E2,1.652E3,1.321E3,1.01E3,1.319E3,1.244E3,1.61E3,1.091E3],"tree_param":{"num_deleted":"0","num_feature":"40","num_nodes":"17","size_leaf_vector":"1"}},{"base_weights":[3.8469313E-3,5.025482E0,-2.0182823E-1,3.903917E0,5.905997E0,3.383889E0,4.305155E0,5.3702183E0,6.537951E0,9.8742254E-2,1.3870443E-1,1.6160429E-1,1.8012469E-1,2.016687E-1,2.259585E-1,2.5255248E-1,2.8022006E-1],"categories":[0,2],"categories_nodes":[0],"categories_segments":[0],"categories_sizes":[2],"default_left":[1,0,0,0,0,0,0,0,0,0,0,0,0,0,0,0,0],"id":49,"left_children":[1,3,-1,5,7,9,11,13,15,-1,-1,-1,-1,-1,-1,-1,-1],"loss_changes":[4.7549466E5,9.2609375E3,0E0,8.480742E2,1.7463594E3,1.2932422E2,1.033125E2,2.31875E2,2.0710156E2,0E0,0E0,0E0,0E0,0E0,0E0,0E0,0E0],"parents":[2147483647,0,0,1,1,3,3,4,4,5,5,6,6,7,7,8,8],"right_children":[2,4,-1,6,8,10,12,14,16,-1,-1,-1,-1,-1,-1,-1,-1],"split_conditions":[1E-45,8.3E-1,-2.0182823E-1,7.6E-1,9.2E-1,7.1E-1,7.9E-1,8.7E-1,9.7E-1,9.8742254E-2,1.3870443E-1,1.6160429E-1,1.8012469E-1,2.016687E-1,2.259585E-1,2.5255248E-1,2.8022006E-1],"split_indices":[5,30,0,30,30,30,30,30,30,0,0,0,0,0,0,0,0],"split_type":[1,0,0,0,0,0,0,0,0,0,0,0,0,0,0,0,0],"sum_hessian":[1.875E4,9.401E3,9.349E3,4.137E3,5.264E3,1.806E3,2.331E3,2.854E3,2.41E3,1.54E2,1.652E3,1.006E3,1.325E3,1.319E3,1.535E3,1.639E3,7.71E2],"tree_param":{"num_deleted":"0","num_feature":"40","num_nodes":"17","size_leaf_vector":"1"}},{"base_weights":[3.765516E-3,4.8246293E0,-1.9375597E-1,3.8174655E0,5.728517E0,3.2486691E0,4.2047186E0,5.266469E0,6.3562813E0,1.12472616E-1,1.3652407E-1,1.5975136E-1,1.8176396E-1,1.9763988E-1,2.2175668E-1,2.4765033E-1,2.760547E-1],"categories":[0,2],"categories_nodes":[0],"categories_segments":[0],"categories_sizes":[2],"default_left":[1,0,0,0,0,0,0,0,0,0,0,0,0,0,0,0,0],"id":50,"left_children":[1,3,-1,5,7,9,11,13,15,-1,-1,-1,-1,-1,-1,-1,-1],"loss_changes":[4.3823297E5,8.536406E3,0E0,9.6579297E2,1.402E3,1.19583984E2,1.7027734E2,2.2973438E2,1.4441406E2,0E0,0E0,0E0,0E0,0E0,0E0,0E0,0E0],"parents":[2147483647,0,0,1,1,3,3,4,4,5,5,6,6,7,7,8,8],"right_children":[2,4,-1,6,8,10,12,14,16,-1,-1,-1,-1,-1,-1,-1,-1],"split_conditions":[1E-45,8.4E-1,-1.9375597E-1,7.6E-1,9.3E-1,7.2E-1,8.1E-1,8.8E-1,9.8E-1,1.12472616E-1,1.3652407E-1,1.5975136E-1,1.8176396E-1,1.9763988E-1,2.2175668E-1,2.4765033E-1,2.760547E-1],"split_indices":[5,30,0,30,30,30,30,30,30,0,0,0,0,0,0,0,0],"split_type":[1,0,0,0,0,0,0,0,0,0,0,0,0,0,0,0,0],"sum_hessian":[1.875E4,9.401E3,9.349E3,4.449E3,4.952E3,1.806E3,2.643E3,2.858E3,2.094E3,4.99E2,1.307E3,1.638E3,1.005E3,1.324E3,1.534E3,1.617E3,4.77E2],"tree_param":{"num_deleted":"0","num_feature":"40","num_nodes":"17","size_leaf_vector":"1"}},{"base_weights":[3.6880912E-3,4.631811E0,-1.8600655E-1,3.8519466E0,5.7091017E0,3.3348708E0,4.4003706E0,5.313556E0,6.191822E0,1.1768528E-1,1.4385468E-1,1.6607982E-1,1.858586E-1,2.0298322E-1,2.1961768E-1,2.4380739E-1,2.806675E-1],"categories":[0,2],"categories_nodes":[0],"categories_segments":[0],"categories_sizes":[2],"default_left":[1,0,0,0,0,0,0,0,0,0,0,0,0,0,0,0,0],"id":51,"left_children":[1,3,-1,5,7,9,11,13,15,-1,-1,-1,-1,-1,-1,-1,-1],"loss_changes":[4.038918E5,7.8760625E3,0E0,1.5320312E3,7.193828E2,2.7766016E2,1.414961E2,6.3066406E1,9.709375E1,0E0,0E0,0E0,0E0,0E0,0E0,0E0,0E0],"parents":[2147483647,0,0,1,1,3,3,4,4,5,5,6,6,7,7,8,8],"right_children":[2,4,-1,6,8,10,12,14,16,-1,-1,-1,-1,-1,-1,-1,-1],"split_conditions":[1E-45,8.7E-1,-1.8600655E-1,7.9E-1,9.4E-1,7.4E-1,8.3E-1,9E-1,9.9E-1,1.1768528E-1,1.4385468E-1,1.6607982E-1,1.858586E-1,2.0298322E-1,2.1961768E-1,2.4380739E-1,2.806675E-1],"split_indices":[5,30,0,30,30,30,30,30,30,0,0,0,0,0,0,0,0],"split_type":[1,0,0,0,0,0,0,0,0,0,0,0,0,0,0,0,0],"sum_hessian":[1.875E4,9.401E3,9.349E3,5.456E3,3.945E3,2.812E3,2.644E3,2.175E3,1.77E3,1.129E3,1.683E3,1.325E3,1.319E3,9.38E2,1.237E3,1.592E3,1.78E2],"tree_param":{"num_deleted":"0","num_feature":"40","num_nodes":"17","size_leaf_vector":"1"}},{"base_weights":[3.6158378E-3,4.446709E0,-1.7856708E-1,3.6431398E0,5.410793E0,3.0695395E0,4.056108E0,5.03085E0,5.9444494E0,1.032848E-1,1.2860228E-1,1.5177864E-1,1.7464669E-1,1.9167078E-1,2.1083999E-1,2.3406132E-1,2.6950344E-1],"categories":[0,2],"categories_nodes":[0],"categories_segments":[0],"categories_sizes":[2],"default_left":[1,0,0,0,0,0,0,0,0,0,0,0,0,0,0,0,0],"id":52,"left_children":[1,3,-1,5,7,9,11,13,15,-1,-1,-1,-1,-1,-1,-1,-1],"loss_changes":[3.7224256E5,7.2631875E3,0E0,1.2022578E3,8.351875E2,1.4375586E2,2.2436719E2,1.1738672E2,8.983203E1,0E0,0E0,0E0,0E0,0E0,0E0,0E0,0E0],"parents":[2147483647,0,0,1,1,3,3,4,4,5,5,6,6,7,7,8,8],"right_children":[2,4,-1,6,8,10,12,14,16,-1,-1,-1,-1,-1,-1,-1,-1],"split_conditions":[1E-45,8.6E-1,-1.7856708E-1,7.7E-1,9.4E-1,7.2E-1,8.2E-1,9E-1,9.9E-1,1.032848E-1,1.2860228E-1,1.5177864E-1,1.7464669E-1,1.9167078E-1,2.1083999E-1,2.3406132E-1,2.6950344E-1],"split_indices":[5,30,0,30,30,30,30,30,30,0,0,0,0,0,0,0,0],"split_type":[1,0,0,0,0,0,0,0,0,0,0,0,0,0,0,0,0],"sum_hessian":[1.875E4,9.401E3,9.349E3,5.13E3,4.271E3,2.151E3,2.979E3,2.501E3,1.77E3,4.99E2,1.652E3,1.623E3,1.356E3,1.264E3,1.237E3,1.592E3,1.78E2],"tree_param":{"num_deleted":"0","num_feature":"40","num_nodes":"17","size_leaf_vector":"1"}},{"base_weights":[3.541043E-3,4.2689996E0,-1.7142516E-1,3.5496194E0,5.262737E0,3.0720613E0,4.0561304E0,4.8987303E0,5.706958E0,1.11253716E-1,1.3523927E-1,1.5312481E-1,1.7128114E-1,1.872139E-1,2.0241326E-1,2.247047E-1,2.5878364E-1],"categories":[0,2],"categories_nodes":[0],"categories_segments":[0],"categories_sizes":[2],"default_left":[1,0,0,0,0,0,0,0,0,0,0,0,0,0,0,0,0],"id":53,"left_children":[1,3,-1,5,7,9,11,13,15,-1,-1,-1,-1,-1,-1,-1,-1],"loss_changes":[3.4307306E5,6.7016875E3,0E0,1.3068125E3,6.090469E2,2.4260938E2,1.1903125E2,5.213672E1,8.310547E1,0E0,0E0,0E0,0E0,0E0,0E0,0E0,0E0],"parents":[2147483647,0,0,1,1,3,3,4,4,5,5,6,6,7,7,8,8],"right_children":[2,4,-1,6,8,10,12,14,16,-1,-1,-1,-1,-1,-1,-1,-1],"split_conditions":[1E-45,8.7E-1,-1.7142516E-1,7.9E-1,9.4E-1,7.5E-1,8.3E-1,9E-1,9.9E-1,1.11253716E-1,1.3523927E-1,1.5312481E-1,1.7128114E-1,1.872139E-1,2.0241326E-1,2.247047E-1,2.5878364E-1],"split_indices":[5,30,0,30,30,30,30,30,30,0,0,0,0,0,0,0,0],"split_type":[1,0,0,0,0,0,0,0,0,0,0,0,0,0,0,0,0],"sum_hessian":[1.875E4,9.401E3,9.349E3,5.456E3,3.945E3,2.812E3,2.644E3,2.175E3,1.77E3,1.454E3,1.358E3,1.325E3,1.319E3,9.38E2,1.237E3,1.592E3,1.78E2],"tree_param":{"num_deleted":"0","num_feature":"40","num_nodes":"17","size_leaf_vector":"1"}},{"base_weights":[3.4691356E-3,4.0983977E0,-1.6456892E-1,3.301361E0,4.925106E0,2.827899E0,3.6861618E0,4.5783253E0,5.478958E0,1.000319E-1,1.20873556E-1,1.3761772E-1,1.5678297E-1,1.719022E-1,1.9234863E-1,2.1298362E-1,2.3540708E-1],"categories":[0,2],"categories_nodes":[0],"categories_segments":[0],"categories_sizes":[2],"default_left":[1,0,0,0,0,0,0,0,0,0,0,0,0,0,0,0,0],"id":54,"left_children":[1,3,-1,5,7,9,11,13,15,-1,-1,-1,-1,-1,-1,-1,-1],"loss_changes":[3.1618975E5,6.178047E3,0E0,8.6160547E2,8.5990625E2,1.284082E2,1.3713281E2,1.6233203E2,7.860156E1,0E0,0E0,0E0,0E0,0E0,0E0,0E0,0E0],"parents":[2147483647,0,0,1,1,3,3,4,4,5,5,6,6,7,7,8,8],"right_children":[2,4,-1,6,8,10,12,14,16,-1,-1,-1,-1,-1,-1,-1,-1],"split_conditions":[1E-45,8.5E-1,-1.6456892E-1,7.7E-1,9.4E-1,7.3E-1,8.1E-1,8.9E-1,9.8E-1,1.000319E-1,1.20873556E-1,1.3761772E-1,1.5678297E-1,1.719022E-1,1.9234863E-1,2.1298362E-1,2.3540708E-1],"split_indices":[5,30,0,30,30,30,30,30,30,0,0,0,0,0,0,0,0],"split_type":[1,0,0,0,0,0,0,0,0,0,0,0,0,0,0,0,0],"sum_hessian":[1.875E4,9.401E3,9.349E3,4.789E3,4.612E3,2.151E3,2.638E3,2.842E3,1.77E3,8.06E2,1.345E3,1.293E3,1.345E3,1.29E3,1.552E3,1.293E3,4.77E2],"tree_param":{"num_deleted":"0","num_feature":"40","num_nodes":"17","size_leaf_vector":"1"}},{"base_weights":[3.3933436E-3,3.9346051E0,-1.5798685E-1,3.2709146E0,4.8514132E0,2.8304768E0,3.7380528E0,4.5165515E0,5.260057E0,9.960769E-2,1.2228299E-1,1.3830985E-1,1.5584646E-1,1.725901E-1,1.8663532E-1,2.0704001E-1,2.3912662E-1],"categories":[0,2],"categories_nodes":[0],"categories_segments":[0],"categories_sizes":[2],"default_left":[1,0,0,0,0,0,0,0,0,0,0,0,0,0,0,0,0],"id":55,"left_children":[1,3,-1,5,7,9,11,13,15,-1,-1,-1,-1,-1,-1,-1,-1],"loss_changes":[2.9141238E5,5.7042188E3,0E0,1.1115156E3,5.152344E2,2.0873828E2,1.03015625E2,4.454297E1,7.483984E1,0E0,0E0,0E0,0E0,0E0,0E0,0E0,0E0],"parents":[2147483647,0,0,1,1,3,3,4,4,5,5,6,6,7,7,8,8],"right_children":[2,4,-1,6,8,10,12,14,16,-1,-1,-1,-1,-1,-1,-1,-1],"split_conditions":[1E-45,8.7E-1,-1.5798685E-1,7.9E-1,9.4E-1,7.4E-1,8.2E-1,9E-1,9.9E-1,9.960769E-2,1.2228299E-1,1.3830985E-1,1.5584646E-1,1.725901E-1,1.8663532E-1,2.0704001E-1,2.3912662E-1],"split_indices":[5,30,0,30,30,30,30,30,30,0,0,0,0,0,0,0,0],"split_type":[1,0,0,0,0,0,0,0,0,0,0,0,0,0,0,0,0],"sum_hessian":[1.875E4,9.401E3,9.349E3,5.456E3,3.945E3,2.812E3,2.644E3,2.175E3,1.77E3,1.129E3,1.683E3,9.62E2,1.682E3,9.38E2,1.237E3,1.592E3,1.78E2],"tree_param":{"num_deleted":"0","num_feature":"40","num_nodes":"17","size_leaf_vector":"1"}},{"base_weights":[3.32035E-3,3.7773635E0,-1.5166807E-1,2.9318302E0,4.4411697E0,2.4563189E0,3.1884758E0,4.0356464E0,4.919489E0,6.921112E-2,1.01634145E-1,1.19788796E-1,1.3538295E-1,1.535553E-1,1.7185953E-1,1.8960823E-1,2.117539E-1],"categories":[0,2],"categories_nodes":[0],"categories_segments":[0],"categories_sizes":[2],"default_left":[1,0,0,0,0,0,0,0,0,0,0,0,0,0,0,0,0],"id":56,"left_children":[1,3,-1,5,7,9,11,13,15,-1,-1,-1,-1,-1,-1,-1,-1],"loss_changes":[2.6857697E5,5.2633125E3,0E0,4.9659766E2,1.0004922E3,8.4478516E1,9.120508E1,1.2922656E2,1.3571875E2,0E0,0E0,0E0,0E0,0E0,0E0,0E0,0E0],"parents":[2147483647,0,0,1,1,3,3,4,4,5,5,6,6,7,7,8,8],"right_children":[2,4,-1,6,8,10,12,14,16,-1,-1,-1,-1,-1,-1,-1,-1],"split_conditions":[1E-45,8.3E-1,-1.5166807E-1,7.5E-1,9.2E-1,7.1E-1,7.9E-1,8.8E-1,9.7E-1,6.921112E-2,1.01634145E-1,1.19788796E-1,1.3538295E-1,1.535553E-1,1.7185953E-1,1.8960823E-1,2.117539E-1],"split_indices":[5,30,0,30,30,30,30,30,30,0,0,0,0,0,0,0,0],"split_type":[1,0,0,0,0,0,0,0,0,0,0,0,0,0,0,0,0],"sum_hessian":[1.875E4,9.401E3,9.349E3,4.137E3,5.264E3,1.454E3,2.683E3,2.854E3,2.41E3,1.54E2,1.3E3,1.358E3,1.325E3,1.636E3,1.218E3,1.639E3,7.71E2],"tree_param":{"num_deleted":"0","num_feature":"40","num_nodes":"17","size_leaf_vector":"1"}},{"base_weights":[3.2426366E-3,3.626395E0,-1.4560197E-1,2.8669422E0,4.3079696E0,2.4321332E0,3.1629832E0,3.9584725E0,4.7828164E0,6.646042E-2,1.00114465E-1,1.18424244E-1,1.3450964E-1,1.4859521E-1,1.6664381E-1,1.86021E-1,2.0881593E-1],"categories":[0,2],"categories_nodes":[0],"categories_segments":[0],"categories_sizes":[2],"default_left":[1,0,0,0,0,0,0,0,0,0,0,0,0,0,0,0,0],"id":57,"left_children":[1,3,-1,5,7,9,11,13,15,-1,-1,-1,-1,-1,-1,-1,-1],"loss_changes":[2.475302E5,4.853625E3,0E0,5.645586E2,8.021875E2,9.3916016E1,9.629883E1,1.2832812E2,9.600781E1,0E0,0E0,0E0,0E0,0E0,0E0,0E0,0E0],"parents":[2147483647,0,0,1,1,3,3,4,4,5,5,6,6,7,7,8,8],"right_children":[2,4,-1,6,8,10,12,14,16,-1,-1,-1,-1,-1,-1,-1,-1],"split_conditions":[1E-45,8.4E-1,-1.4560197E-1,7.6E-1,9.3E-1,7.1E-1,8E-1,8.8E-1,9.8E-1,6.646042E-2,1.00114465E-1,1.18424244E-1,1.3450964E-1,1.4859521E-1,1.6664381E-1,1.86021E-1,2.0881593E-1],"split_indices":[5,30,0,30,30,30,30,30,30,0,0,0,0,0,0,0,0],"split_type":[1,0,0,0,0,0,0,0,0,0,0,0,0,0,0,0,0],"sum_hessian":[1.875E4,9.401E3,9.349E3,4.449E3,4.952E3,1.806E3,2.643E3,2.858E3,2.094E3,1.54E2,1.652E3,1.321E3,1.322E3,1.324E3,1.534E3,1.617E3,4.77E2],"tree_param":{"num_deleted":"0","num_feature":"40","num_nodes":"17","size_leaf_vector":"1"}},{"base_weights":[3.1673647E-3,3.4814634E0,-1.3977851E-1,2.8933547E0,4.293863E0,2.5039673E0,3.3063428E0,3.9948986E0,4.6587143E0,8.792439E-2,1.0830631E-1,1.2220911E-1,1.379202E-1,1.5265895E-1,1.650769E-1,1.8324715E-1,2.128861E-1],"categories":[0,2],"categories_nodes":[0],"categories_segments":[0],"categories_sizes":[2],"default_left":[1,0,0,0,0,0,0,0,0,0,0,0,0,0,0,0,0],"id":58,"left_children":[1,3,-1,5,7,9,11,13,15,-1,-1,-1,-1,-1,-1,-1,-1],"loss_changes":[2.2813294E5,4.4789453E3,0E0,8.686914E2,4.109453E2,1.688086E2,8.290625E1,3.4710938E1,6.572656E1,0E0,0E0,0E0,0E0,0E0,0E0,0E0,0E0],"parents":[2147483647,0,0,1,1,3,3,4,4,5,5,6,6,7,7,8,8],"right_children":[2,4,-1,6,8,10,12,14,16,-1,-1,-1,-1,-1,-1,-1,-1],"split_conditions":[1E-45,8.7E-1,-1.3977851E-1,7.9E-1,9.4E-1,7.4E-1,8.2E-1,9E-1,9.9E-1,8.792439E-2,1.0830631E-1,1.2220911E-1,1.379202E-1,1.5265895E-1,1.650769E-1,1.8324715E-1,2.128861E-1],"split_indices":[5,30,0,30,30,30,30,30,30,0,0,0,0,0,0,0,0],"split_type":[1,0,0,0,0,0,0,0,0,0,0,0,0,0,0,0,0],"sum_hessian":[1.875E4,9.401E3,9.349E3,5.456E3,3.945E3,2.812E3,2.644E3,2.175E3,1.77E3,1.129E3,1.683E3,9.62E2,1.682E3,9.38E2,1.237E3,1.592E3,1.78E2],"tree_param":{"num_deleted":"0","num_feature":"40","num_nodes":"17","size_leaf_vector":"1"}},{"base_weights":[3.0971137E-3,3.342333E0,-1.3418798E-1,2.593039E0,3.930583E0,2.1692922E0,2.8217497E0,3.5284653E0,4.310672E0,6.032503E-2,8.985274E-2,1.07535675E-1,1.2158685E-1,1.341775E-1,1.4840247E-1,1.6431713E-1,1.8422939E-1],"categories":[0,2],"categories_nodes":[0],"categories_segments":[0],"categories_sizes":[2],"default_left":[1,0,0,0,0,0,0,0,0,0,0,0,0,0,0,0,0],"id":59,"left_children":[1,3,-1,5,7,9,11,13,15,-1,-1,-1,-1,-1,-1,-1,-1],"loss_changes":[2.1025633E5,4.133297E3,0E0,3.9441406E2,7.8871094E2,7.0336426E1,6.925781E1,6.787695E1,1.4185156E2,0E0,0E0,0E0,0E0,0E0,0E0,0E0,0E0],"parents":[2147483647,0,0,1,1,3,3,4,4,5,5,6,6,7,7,8,8],"right_children":[2,4,-1,6,8,10,12,14,16,-1,-1,-1,-1,-1,-1,-1,-1],"split_conditions":[1E-45,8.3E-1,-1.3418798E-1,7.5E-1,9.1E-1,7.1E-1,8E-1,8.7E-1,9.6E-1,6.032503E-2,8.985274E-2,1.07535675E-1,1.2158685E-1,1.341775E-1,1.4840247E-1,1.6431713E-1,1.8422939E-1],"split_indices":[5,30,0,30,30,30,30,30,30,0,0,0,0,0,0,0,0],"split_type":[1,0,0,0,0,0,0,0,0,0,0,0,0,0,0,0,0],"sum_hessian":[1.875E4,9.401E3,9.349E3,4.137E3,5.264E3,1.454E3,2.683E3,2.563E3,2.701E3,1.54E2,1.3E3,1.673E3,1.01E3,1.319E3,1.244E3,1.61E3,1.091E3],"tree_param":{"num_deleted":"0","num_feature":"40","num_nodes":"17","size_leaf_vector":"1"}},{"base_weights":[3.0215245E-3,3.208751E0,-1.2882105E-1,2.5827267E0,3.8580785E0,2.2078328E0,2.8874211E0,3.583828E0,4.2961E0,7.277829E-2,9.2956506E-2,1.0789675E-1,1.22714534E-1,1.3462324E-1,1.5051532E-1,1.6889676E-1,1.9709045E-1],"categories":[0,2],"categories_nodes":[0],"categories_segments":[0],"categories_sizes":[2],"default_left":[1,0,0,0,0,0,0,0,0,0,0,0,0,0,0,0,0],"id":60,"left_children":[1,3,-1,5,7,9,11,13,15,-1,-1,-1,-1,-1,-1,-1,-1],"loss_changes":[1.9377983E5,3.81125E3,0E0,5.402676E2,5.3796875E2,9.2375E1,8.162695E1,9.772266E1,6.063867E1,0E0,0E0,0E0,0E0,0E0,0E0,0E0,0E0],"parents":[2147483647,0,0,1,1,3,3,4,4,5,5,6,6,7,7,8,8],"right_children":[2,4,-1,6,8,10,12,14,16,-1,-1,-1,-1,-1,-1,-1,-1],"split_conditions":[1E-45,8.5E-1,-1.2882105E-1,7.7E-1,9.4E-1,7.2E-1,8.1E-1,8.9E-1,9.9E-1,7.277829E-2,9.2956506E-2,1.0789675E-1,1.22714534E-1,1.3462324E-1,1.5051532E-1,1.6889676E-1,1.9709045E-1],"split_indices":[5,30,0,30,30,30,30,30,30,0,0,0,0,0,0,0,0],"split_type":[1,0,0,0,0,0,0,0,0,0,0,0,0,0,0,0,0],"sum_hessian":[1.875E4,9.401E3,9.349E3,4.789E3,4.612E3,2.151E3,2.638E3,2.842E3,1.77E3,4.99E2,1.652E3,1.293E3,1.345E3,1.29E3,1.552E3,1.592E3,1.78E2],"tree_param":{"num_deleted":"0","num_feature":"40","num_nodes":"17","size_leaf_vector":"1"}},{"base_weights":[2.9516655E-3,3.0805166E0,-1.23668745E-1,2.38926E0,3.6232018E0,1.9966557E0,2.601164E0,3.2520509E0,3.974019E0,5.503528E-2,8.27601E-2,9.7823486E-2,1.1034303E-1,1.23669E-1,1.3677369E-1,1.5312783E-1,1.7333958E-1],"categories":[0,2],"categories_nodes":[0],"categories_segments":[0],"categories_sizes":[2],"default_left":[1,0,0,0,0,0,0,0,0,0,0,0,0,0,0,0,0],"id":61,"left_children":[1,3,-1,5,7,9,11,13,15,-1,-1,-1,-1,-1,-1,-1,-1],"loss_changes":[1.7859497E5,3.5177578E3,0E0,3.3860742E2,6.718906E2,6.215381E1,5.8460938E1,5.7546875E1,1.2423047E2,0E0,0E0,0E0,0E0,0E0,0E0,0E0,0E0],"parents":[2147483647,0,0,1,1,3,3,4,4,5,5,6,6,7,7,8,8],"right_children":[2,4,-1,6,8,10,12,14,16,-1,-1,-1,-1,-1,-1,-1,-1],"split_conditions":[1E-45,8.3E-1,-1.23668745E-1,7.5E-1,9.1E-1,7.1E-1,7.9E-1,8.7E-1,9.7E-1,5.503528E-2,8.27601E-2,9.7823486E-2,1.1034303E-1,1.23669E-1,1.3677369E-1,1.5312783E-1,1.7333958E-1],"split_indices":[5,30,0,30,30,30,30,30,30,0,0,0,0,0,0,0,0],"split_type":[1,0,0,0,0,0,0,0,0,0,0,0,0,0,0,0,0],"sum_hessian":[1.875E4,9.401E3,9.349E3,4.137E3,5.264E3,1.454E3,2.683E3,2.563E3,2.701E3,1.54E2,1.3E3,1.358E3,1.325E3,1.319E3,1.244E3,1.93E3,7.71E2],"tree_param":{"num_deleted":"0","num_feature":"40","num_nodes":"17","size_leaf_vector":"1"}},{"base_weights":[2.87728E-3,2.9573967E0,-1.1872253E-1,2.4204478E0,3.6015978E0,2.03398E0,2.698689E0,3.3445737E0,3.9626212E0,5.2847948E-2,8.3528295E-2,1.0098501E-1,1.1619755E-1,1.2749662E-1,1.4009508E-1,1.5572275E-1,1.8235601E-1],"categories":[0,2],"categories_nodes":[0],"categories_segments":[0],"categories_sizes":[2],"default_left":[1,0,0,0,0,0,0,0,0,0,0,0,0,0,0,0,0],"id":62,"left_children":[1,3,-1,5,7,9,11,13,15,-1,-1,-1,-1,-1,-1,-1,-1],"loss_changes":[1.6459944E5,3.2428672E3,0E0,5.4578125E2,3.8242188E2,8.0081055E1,9.910742E1,5.021875E1,5.4851562E1,0E0,0E0,0E0,0E0,0E0,0E0,0E0,0E0],"parents":[2147483647,0,0,1,1,3,3,4,4,5,5,6,6,7,7,8,8],"right_children":[2,4,-1,6,8,10,12,14,16,-1,-1,-1,-1,-1,-1,-1,-1],"split_conditions":[1E-45,8.6E-1,-1.1872253E-1,7.7E-1,9.4E-1,7.1E-1,8.2E-1,9E-1,9.9E-1,5.2847948E-2,8.3528295E-2,1.0098501E-1,1.1619755E-1,1.2749662E-1,1.4009508E-1,1.5572275E-1,1.8235601E-1],"split_indices":[5,30,0,30,30,30,30,30,30,0,0,0,0,0,0,0,0],"split_type":[1,0,0,0,0,0,0,0,0,0,0,0,0,0,0,0,0],"sum_hessian":[1.875E4,9.401E3,9.349E3,5.13E3,4.271E3,2.151E3,2.979E3,2.501E3,1.77E3,1.54E2,1.997E3,1.623E3,1.356E3,1.264E3,1.237E3,1.592E3,1.78E2],"tree_param":{"num_deleted":"0","num_feature":"40","num_nodes":"17","size_leaf_vector":"1"}},{"base_weights":[2.8088028E-3,2.8392065E0,-1.1397412E-1,2.2016973E0,3.3396952E0,1.8366612E0,2.3987265E0,3.0676258E0,3.7498586E0,5.0747633E-2,7.61136E-2,9.1421336E-2,1.03347115E-1,1.154228E-1,1.303886E-1,1.4556137E-1,1.6467752E-1],"categories":[0,2],"categories_nodes":[0],"categories_segments":[0],"categories_sizes":[2],"default_left":[1,0,0,0,0,0,0,0,0,0,0,0,0,0,0,0,0],"id":63,"left_children":[1,3,-1,5,7,9,11,13,15,-1,-1,-1,-1,-1,-1,-1,-1],"loss_changes":[1.5170116E5,2.9919453E3,0E0,2.927871E2,5.7535156E2,5.1958496E1,4.979785E1,1.00875E2,6.946875E1,0E0,0E0,0E0,0E0,0E0,0E0,0E0,0E0],"parents":[2147483647,0,0,1,1,3,3,4,4,5,5,6,6,7,7,8,8],"right_children":[2,4,-1,6,8,10,12,14,16,-1,-1,-1,-1,-1,-1,-1,-1],"split_conditions":[1E-45,8.3E-1,-1.1397412E-1,7.5E-1,9.3E-1,7.1E-1,8E-1,8.8E-1,9.8E-1,5.0747633E-2,7.61136E-2,9.1421336E-2,1.03347115E-1,1.154228E-1,1.303886E-1,1.4556137E-1,1.6467752E-1],"split_indices":[5,30,0,30,30,30,30,30,30,0,0,0,0,0,0,0,0],"split_type":[1,0,0,0,0,0,0,0,0,0,0,0,0,0,0,0,0],"sum_hessian":[1.875E4,9.401E3,9.349E3,4.137E3,5.264E3,1.454E3,2.683E3,3.17E3,2.094E3,1.54E2,1.3E3,1.673E3,1.01E3,1.636E3,1.534E3,1.617E3,4.77E2],"tree_param":{"num_deleted":"0","num_feature":"40","num_nodes":"17","size_leaf_vector":"1"}},{"base_weights":[2.738585E-3,2.7257342E0,-1.0941562E-1,2.2304056E0,3.3200006E0,1.9162054E0,2.522663E0,3.0824442E0,3.65368E0,6.536493E-2,8.204915E-2,9.4388366E-2,1.0706878E-1,1.1580005E-1,1.2780228E-1,1.4353538E-1,1.6855203E-1],"categories":[0,2],"categories_nodes":[0],"categories_segments":[0],"categories_sizes":[2],"default_left":[1,0,0,0,0,0,0,0,0,0,0,0,0,0,0,0,0],"id":64,"left_children":[1,3,-1,5,7,9,11,13,15,-1,-1,-1,-1,-1,-1,-1,-1],"loss_changes":[1.398133E5,2.7595781E3,0E0,4.6588672E2,3.2669922E2,9.062305E1,5.983008E1,4.295508E1,4.886914E1,0E0,0E0,0E0,0E0,0E0,0E0,0E0,0E0],"parents":[2147483647,0,0,1,1,3,3,4,4,5,5,6,6,7,7,8,8],"right_children":[2,4,-1,6,8,10,12,14,16,-1,-1,-1,-1,-1,-1,-1,-1],"split_conditions":[1E-45,8.6E-1,-1.0941562E-1,7.8E-1,9.4E-1,7.3E-1,8.2E-1,8.9E-1,9.9E-1,6.536493E-2,8.204915E-2,9.4388366E-2,1.0706878E-1,1.1580005E-1,1.2780228E-1,1.4353538E-1,1.6855203E-1],"split_indices":[5,30,0,30,30,30,30,30,30,0,0,0,0,0,0,0,0],"split_type":[1,0,0,0,0,0,0,0,0,0,0,0,0,0,0,0,0],"sum_hessian":[1.875E4,9.401E3,9.349E3,5.13E3,4.271E3,2.476E3,2.654E3,2.501E3,1.77E3,8.06E2,1.67E3,1.298E3,1.356E3,9.49E2,1.552E3,1.592E3,1.78E2],"tree_param":{"num_deleted":"0","num_feature":"40","num_nodes":"17","size_leaf_vector":"1"}},{"base_weights":[2.6732488E-3,2.6168048E0,-1.0503945E-1,2.0667086E0,3.1104877E0,1.7457638E0,2.2852337E0,2.8555536E0,3.456858E0,4.613282E-2,7.2008E-2,8.6882815E-2,9.868925E-2,1.0724982E-1,1.2016358E-1,1.341308E-1,1.5200219E-1],"categories":[0,2],"categories_nodes":[0],"categories_segments":[0],"categories_sizes":[2],"default_left":[1,0,0,0,0,0,0,0,0,0,0,0,0,0,0,0,0],"id":65,"left_children":[1,3,-1,5,7,9,11,13,15,-1,-1,-1,-1,-1,-1,-1,-1],"loss_changes":[1.288574E5,2.5463828E3,0E0,3.0770508E2,4.2685547E2,5.5904297E1,4.8631836E1,6.539844E1,6.1023438E1,0E0,0E0,0E0,0E0,0E0,0E0,0E0,0E0],"parents":[2147483647,0,0,1,1,3,3,4,4,5,5,6,6,7,7,8,8],"right_children":[2,4,-1,6,8,10,12,14,16,-1,-1,-1,-1,-1,-1,-1,-1],"split_conditions":[1E-45,8.4E-1,-1.0503945E-1,7.6E-1,9.3E-1,7.1E-1,8.1E-1,8.8E-1,9.8E-1,4.613282E-2,7.2008E-2,8.6882815E-2,9.868925E-2,1.0724982E-1,1.2016358E-1,1.341308E-1,1.5200219E-1],"split_indices":[5,30,0,30,30,30,30,30,30,0,0,0,0,0,0,0,0],"split_type":[1,0,0,0,0,0,0,0,0,0,0,0,0,0,0,0,0],"sum_hessian":[1.875E4,9.401E3,9.349E3,4.449E3,4.952E3,1.806E3,2.643E3,2.858E3,2.094E3,1.54E2,1.652E3,1.638E3,1.005E3,1.324E3,1.534E3,1.617E3,4.77E2],"tree_param":{"num_deleted":"0","num_feature":"40","num_nodes":"17","size_leaf_vector":"1"}},{"base_weights":[2.6060916E-3,2.5122232E0,-1.0083832E-1,2.0862525E0,3.1006448E0,1.7652261E0,2.3522694E0,2.9159632E0,3.4259684E0,6.007422E-2,7.565212E-2,8.7023035E-2,9.948762E-2,1.11489914E-1,1.2155211E-1,1.342278E-1,1.5580171E-1],"categories":[0,2],"categories_nodes":[0],"categories_segments":[0],"categories_sizes":[2],"default_left":[1,0,0,0,0,0,0,0,0,0,0,0,0,0,0,0,0],"id":66,"left_children":[1,3,-1,5,7,9,11,13,15,-1,-1,-1,-1,-1,-1,-1,-1],"loss_changes":[1.1875979E5,2.349629E3,0E0,4.6145312E2,2.2645312E2,7.906885E1,6.518945E1,3.0855469E1,3.311133E1,0E0,0E0,0E0,0E0,0E0,0E0,0E0,0E0],"parents":[2147483647,0,0,1,1,3,3,4,4,5,5,6,6,7,7,8,8],"right_children":[2,4,-1,6,8,10,12,14,16,-1,-1,-1,-1,-1,-1,-1,-1],"split_conditions":[1E-45,8.7E-1,-1.0083832E-1,7.8E-1,9.5E-1,7.3E-1,8.2E-1,9.1E-1,9.9E-1,6.007422E-2,7.565212E-2,8.7023035E-2,9.948762E-2,1.11489914E-1,1.2155211E-1,1.342278E-1,1.5580171E-1],"split_indices":[5,30,0,30,30,30,30,30,30,0,0,0,0,0,0,0,0],"split_type":[1,0,0,0,0,0,0,0,0,0,0,0,0,0,0,0,0],"sum_hessian":[1.875E4,9.401E3,9.349E3,5.456E3,3.945E3,2.476E3,2.98E3,2.523E3,1.422E3,8.06E2,1.67E3,1.298E3,1.682E3,1.244E3,1.279E3,1.244E3,1.78E2],"tree_param":{"num_deleted":"0","num_feature":"40","num_nodes":"17","size_leaf_vector":"1"}},{"base_weights":[2.5430233E-3,2.4118273E0,-9.68052E-2,1.8692243E0,2.8378065E0,1.554346E0,2.0391865E0,2.575378E0,3.147344E0,4.1911878E-2,6.453697E-2,7.77454E-2,8.7811336E-2,9.680845E-2,1.082793E-1,1.2089942E-1,1.3633525E-1],"categories":[0,2],"categories_nodes":[0],"categories_segments":[0],"categories_sizes":[2],"default_left":[1,0,0,0,0,0,0,0,0,0,0,0,0,0,0,0,0],"id":67,"left_children":[1,3,-1,5,7,9,11,13,15,-1,-1,-1,-1,-1,-1,-1,-1],"loss_changes":[1.094537E5,2.167375E3,0E0,2.1792676E2,4.190039E2,4.1585693E1,3.5351562E1,5.123633E1,6.763672E1,0E0,0E0,0E0,0E0,0E0,0E0,0E0,0E0],"parents":[2147483647,0,0,1,1,3,3,4,4,5,5,6,6,7,7,8,8],"right_children":[2,4,-1,6,8,10,12,14,16,-1,-1,-1,-1,-1,-1,-1,-1],"split_conditions":[1E-45,8.3E-1,-9.68052E-2,7.5E-1,9.2E-1,7.1E-1,8E-1,8.7E-1,9.7E-1,4.1911878E-2,6.453697E-2,7.77454E-2,8.7811336E-2,9.680845E-2,1.082793E-1,1.2089942E-1,1.3633525E-1],"split_indices":[5,30,0,30,30,30,30,30,30,0,0,0,0,0,0,0,0],"split_type":[1,0,0,0,0,0,0,0,0,0,0,0,0,0,0,0,0],"sum_hessian":[1.875E4,9.401E3,9.349E3,4.137E3,5.264E3,1.454E3,2.683E3,2.854E3,2.41E3,1.54E2,1.3E3,1.673E3,1.01E3,1.319E3,1.535E3,1.639E3,7.71E2],"tree_param":{"num_deleted":"0","num_feature":"40","num_nodes":"17","size_leaf_vector":"1"}},{"base_weights":[2.476572E-3,2.315435E0,-9.2933394E-2,1.8620267E0,2.7857168E0,1.5421947E0,2.0550475E0,2.5842774E0,3.1074598E0,4.024636E-2,6.365859E-2,7.693101E-2,8.855613E-2,9.707098E-2,1.08539194E-1,1.2198365E-1,1.441815E-1],"categories":[0,2],"categories_nodes":[0],"categories_segments":[0],"categories_sizes":[2],"default_left":[1,0,0,0,0,0,0,0,0,0,0,0,0,0,0,0,0],"id":68,"left_children":[1,3,-1,5,7,9,11,13,15,-1,-1,-1,-1,-1,-1,-1,-1],"loss_changes":[1.0087648E5,1.9991367E3,0E0,2.9217773E2,2.903789E2,4.5862305E1,5.7791992E1,5.0753906E1,3.9283203E1,0E0,0E0,0E0,0E0,0E0,0E0,0E0,0E0],"parents":[2147483647,0,0,1,1,3,3,4,4,5,5,6,6,7,7,8,8],"right_children":[2,4,-1,6,8,10,12,14,16,-1,-1,-1,-1,-1,-1,-1,-1],"split_conditions":[1E-45,8.5E-1,-9.2933394E-2,7.6E-1,9.4E-1,7.1E-1,8.1E-1,8.9E-1,9.9E-1,4.024636E-2,6.365859E-2,7.693101E-2,8.855613E-2,9.707098E-2,1.08539194E-1,1.2198365E-1,1.441815E-1],"split_indices":[5,30,0,30,30,30,30,30,30,0,0,0,0,0,0,0,0],"split_type":[1,0,0,0,0,0,0,0,0,0,0,0,0,0,0,0,0],"sum_hessian":[1.875E4,9.401E3,9.349E3,4.789E3,4.612E3,1.806E3,2.983E3,2.842E3,1.77E3,1.54E2,1.652E3,1.638E3,1.345E3,1.29E3,1.552E3,1.592E3,1.78E2],"tree_param":{"num_deleted":"0","num_feature":"40","num_nodes":"17","size_leaf_vector":"1"}},{"base_weights":[2.4134123E-3,2.2228992E0,-8.921644E-2,1.7223271E0,2.61588E0,1.4311107E0,1.879517E0,2.345346E0,2.871592E0,3.8646948E-2,5.9413042E-2,7.0679404E-2,7.973426E-2,8.9227416E-2,9.859797E-2,1.0905036E-1,1.2333107E-1],"categories":[0,2],"categories_nodes":[0],"categories_segments":[0],"categories_sizes":[2],"default_left":[1,0,0,0,0,0,0,0,0,0,0,0,0,0,0,0,0],"id":69,"left_children":[1,3,-1,5,7,9,11,13,15,-1,-1,-1,-1,-1,-1,-1,-1],"loss_changes":[9.297158E4,1.8445781E3,0E0,1.8640137E2,3.5697266E2,3.499536E1,3.0486328E1,2.919336E1,7.413867E1,0E0,0E0,0E0,0E0,0E0,0E0,0E0,0E0],"parents":[2147483647,0,0,1,1,3,3,4,4,5,5,6,6,7,7,8,8],"right_children":[2,4,-1,6,8,10,12,14,16,-1,-1,-1,-1,-1,-1,-1,-1],"split_conditions":[1E-45,8.3E-1,-8.921644E-2,7.5E-1,9.1E-1,7.1E-1,7.9E-1,8.7E-1,9.6E-1,3.8646948E-2,5.9413042E-2,7.0679404E-2,7.973426E-2,8.9227416E-2,9.859797E-2,1.0905036E-1,1.2333107E-1],"split_indices":[5,30,0,30,30,30,30,30,30,0,0,0,0,0,0,0,0],"split_type":[1,0,0,0,0,0,0,0,0,0,0,0,0,0,0,0,0],"sum_hessian":[1.875E4,9.401E3,9.349E3,4.137E3,5.264E3,1.454E3,2.683E3,2.563E3,2.701E3,1.54E2,1.3E3,1.358E3,1.325E3,1.319E3,1.244E3,1.61E3,1.091E3],"tree_param":{"num_deleted":"0","num_feature":"40","num_nodes":"17","size_leaf_vector":"1"}},{"base_weights":[2.3498803E-3,2.1340592E0,-8.564818E-2,1.6845133E0,2.5375006E0,1.4207627E0,1.8640946E0,2.3541598E0,2.8655279E0,4.6998687E-2,6.0542338E-2,7.089039E-2,8.047047E-2,8.854331E-2,1.00008674E-1,1.1242069E-1,1.335409E-1],"categories":[0,2],"categories_nodes":[0],"categories_segments":[0],"categories_sizes":[2],"default_left":[1,0,0,0,0,0,0,0,0,0,0,0,0,0,0,0,0],"id":70,"left_children":[1,3,-1,5,7,9,11,13,15,-1,-1,-1,-1,-1,-1,-1,-1],"loss_changes":[8.568604E4,1.7005039E3,0E0,2.0779688E2,2.9061133E2,3.9168213E1,3.1911133E1,5.9345703E1,3.6083984E1,0E0,0E0,0E0,0E0,0E0,0E0,0E0,0E0],"parents":[2147483647,0,0,1,1,3,3,4,4,5,5,6,6,7,7,8,8],"right_children":[2,4,-1,6,8,10,12,14,16,-1,-1,-1,-1,-1,-1,-1,-1],"split_conditions":[1E-45,8.4E-1,-8.564818E-2,7.6E-1,9.4E-1,7.2E-1,8.1E-1,8.9E-1,9.9E-1,4.6998687E-2,6.0542338E-2,7.089039E-2,8.047047E-2,8.854331E-2,1.00008674E-1,1.1242069E-1,1.335409E-1],"split_indices":[5,30,0,30,30,30,30,30,30,0,0,0,0,0,0,0,0],"split_type":[1,0,0,0,0,0,0,0,0,0,0,0,0,0,0,0,0],"sum_hessian":[1.875E4,9.401E3,9.349E3,4.449E3,4.952E3,1.806E3,2.643E3,3.182E3,1.77E3,4.99E2,1.307E3,1.638E3,1.005E3,1.63E3,1.552E3,1.592E3,1.78E2],"tree_param":{"num_deleted":"0","num_feature":"40","num_nodes":"17","size_leaf_vector":"1"}},{"base_weights":[2.2901003E-3,2.0487742E0,-8.22226E-2,1.6752051E0,2.4969563E0,1.4035907E0,1.8707552E0,2.3445494E0,2.8003736E0,4.512256E-2,5.9440896E-2,7.008215E-2,8.045439E-2,8.817285E-2,9.819419E-2,1.09590545E-1,1.2822925E-1],"categories":[0,2],"categories_nodes":[0],"categories_segments":[0],"categories_sizes":[2],"default_left":[1,0,0,0,0,0,0,0,0,0,0,0,0,0,0,0,0],"id":71,"left_children":[1,3,-1,5,7,9,11,13,15,-1,-1,-1,-1,-1,-1,-1,-1],"loss_changes":[7.897157E4,1.5695469E3,0E0,2.6957617E2,1.904707E2,4.6938965E1,4.5835938E1,3.820508E1,2.5583984E1,0E0,0E0,0E0,0E0,0E0,0E0,0E0,0E0],"parents":[2147483647,0,0,1,1,3,3,4,4,5,5,6,6,7,7,8,8],"right_children":[2,4,-1,6,8,10,12,14,16,-1,-1,-1,-1,-1,-1,-1,-1],"split_conditions":[1E-45,8.6E-1,-8.22226E-2,7.7E-1,9.5E-1,7.2E-1,8.2E-1,9E-1,9.9E-1,4.512256E-2,5.9440896E-2,7.008215E-2,8.045439E-2,8.817285E-2,9.819419E-2,1.09590545E-1,1.2822925E-1],"split_indices":[5,30,0,30,30,30,30,30,30,0,0,0,0,0,0,0,0],"split_type":[1,0,0,0,0,0,0,0,0,0,0,0,0,0,0,0,0],"sum_hessian":[1.875E4,9.401E3,9.349E3,5.13E3,4.271E3,2.151E3,2.979E3,2.849E3,1.422E3,4.99E2,1.652E3,1.623E3,1.356E3,1.264E3,1.585E3,1.244E3,1.78E2],"tree_param":{"num_deleted":"0","num_feature":"40","num_nodes":"17","size_leaf_vector":"1"}},{"base_weights":[2.231746E-3,1.9668984E0,-7.8934036E-2,1.6324102E0,2.4289448E0,1.3790908E0,1.8423195E0,2.281592E0,2.6885304E0,4.6585087E-2,5.9271183E-2,6.821857E-2,7.787181E-2,8.608655E-2,9.426875E-2,1.0521052E-1,1.23128824E-1],"categories":[0,2],"categories_nodes":[0],"categories_segments":[0],"categories_sizes":[2],"default_left":[1,0,0,0,0,0,0,0,0,0,0,0,0,0,0,0,0],"id":72,"left_children":[1,3,-1,5,7,9,11,13,15,-1,-1,-1,-1,-1,-1,-1,-1],"loss_changes":[7.278329E4,1.4487031E3,0E0,2.8730762E2,1.4430469E2,5.2560547E1,3.8936523E1,1.9018555E1,2.3643555E1,0E0,0E0,0E0,0E0,0E0,0E0,0E0,0E0],"parents":[2147483647,0,0,1,1,3,3,4,4,5,5,6,6,7,7,8,8],"right_children":[2,4,-1,6,8,10,12,14,16,-1,-1,-1,-1,-1,-1,-1,-1],"split_conditions":[1E-45,8.7E-1,-7.8934036E-2,7.8E-1,9.5E-1,7.3E-1,8.2E-1,9E-1,9.9E-1,4.6585087E-2,5.9271183E-2,6.821857E-2,7.787181E-2,8.608655E-2,9.426875E-2,1.0521052E-1,1.23128824E-1],"split_indices":[5,30,0,30,30,30,30,30,30,0,0,0,0,0,0,0,0],"split_type":[1,0,0,0,0,0,0,0,0,0,0,0,0,0,0,0,0],"sum_hessian":[1.875E4,9.401E3,9.349E3,5.456E3,3.945E3,2.476E3,2.98E3,2.523E3,1.422E3,8.06E2,1.67E3,1.298E3,1.682E3,9.38E2,1.585E3,1.244E3,1.78E2],"tree_param":{"num_deleted":"0","num_feature":"40","num_nodes":"17","size_leaf_vector":"1"}},{"base_weights":[2.173987E-3,1.8882945E0,-7.5777024E-2,1.4622277E0,2.222782E0,1.2113932E0,1.5976233E0,2.039415E0,2.4992182E0,3.15986E-2,5.0423756E-2,6.0087383E-2,6.776628E-2,7.6764084E-2,8.6653136E-2,9.671337E-2,1.107704E-1],"categories":[0,2],"categories_nodes":[0],"categories_segments":[0],"categories_sizes":[2],"default_left":[1,0,0,0,0,0,0,0,0,0,0,0,0,0,0,0,0],"id":73,"left_children":[1,3,-1,5,7,9,11,13,15,-1,-1,-1,-1,-1,-1,-1,-1],"loss_changes":[6.7079945E4,1.3362969E3,0E0,1.3831934E2,2.6133008E2,2.8967773E1,2.1862793E1,4.3853516E1,3.8828125E1,0E0,0E0,0E0,0E0,0E0,0E0,0E0,0E0],"parents":[2147483647,0,0,1,1,3,3,4,4,5,5,6,6,7,7,8,8],"right_children":[2,4,-1,6,8,10,12,14,16,-1,-1,-1,-1,-1,-1,-1,-1],"split_conditions":[1E-45,8.3E-1,-7.5777024E-2,7.5E-1,9.3E-1,7.1E-1,7.9E-1,8.8E-1,9.8E-1,3.15986E-2,5.0423756E-2,6.0087383E-2,6.776628E-2,7.6764084E-2,8.6653136E-2,9.671337E-2,1.107704E-1],"split_indices":[5,30,0,30,30,30,30,30,30,0,0,0,0,0,0,0,0],"split_type":[1,0,0,0,0,0,0,0,0,0,0,0,0,0,0,0,0],"sum_hessian":[1.875E4,9.401E3,9.349E3,4.137E3,5.264E3,1.454E3,2.683E3,3.17E3,2.094E3,1.54E2,1.3E3,1.358E3,1.325E3,1.636E3,1.534E3,1.617E3,4.77E2],"tree_param":{"num_deleted":"0","num_feature":"40","num_nodes":"17","size_leaf_vector":"1"}},{"base_weights":[2.115201E-3,1.8128273E0,-7.274627E-2,1.456755E0,2.1821475E0,1.204289E0,1.6091174E0,2.0228105E0,2.4366436E0,3.0342717E-2,4.9811788E-2,6.0243044E-2,6.933277E-2,7.602922E-2,8.491712E-2,9.556381E-2,1.13825016E-1],"categories":[0,2],"categories_nodes":[0],"categories_segments":[0],"categories_sizes":[2],"default_left":[1,0,0,0,0,0,0,0,0,0,0,0,0,0,0,0,0],"id":74,"left_children":[1,3,-1,5,7,9,11,13,15,-1,-1,-1,-1,-1,-1,-1,-1],"loss_changes":[6.1823355E4,1.2328652E3,0E0,1.8203516E2,1.8168555E2,3.1881592E1,3.5253906E1,3.0310547E1,2.7118164E1,0E0,0E0,0E0,0E0,0E0,0E0,0E0,0E0],"parents":[2147483647,0,0,1,1,3,3,4,4,5,5,6,6,7,7,8,8],"right_children":[2,4,-1,6,8,10,12,14,16,-1,-1,-1,-1,-1,-1,-1,-1],"split_conditions":[1E-45,8.5E-1,-7.274627E-2,7.6E-1,9.4E-1,7.1E-1,8.1E-1,8.9E-1,9.9E-1,3.0342717E-2,4.9811788E-2,6.0243044E-2,6.933277E-2,7.602922E-2,8.491712E-2,9.556381E-2,1.13825016E-1],"split_indices":[5,30,0,30,30,30,30,30,30,0,0,0,0,0,0,0,0],"split_type":[1,0,0,0,0,0,0,0,0,0,0,0,0,0,0,0,0],"sum_hessian":[1.875E4,9.401E3,9.349E3,4.789E3,4.612E3,1.806E3,2.983E3,2.842E3,1.77E3,1.54E2,1.652E3,1.638E3,1.345E3,1.29E3,1.552E3,1.592E3,1.78E2],"tree_param":{"num_deleted":"0","num_feature":"40","num_nodes":"17","size_leaf_vector":"1"}},{"base_weights":[2.0589528E-3,1.740379E0,-6.983673E-2,1.4438938E0,2.1499276E0,1.2193472E0,1.6299582E0,2.018188E0,2.3820155E0,3.793206E-2,5.148781E-2,6.0362484E-2,6.8889685E-2,7.6160535E-2,8.3378E-2,9.318558E-2,1.0929753E-1],"categories":[0,2],"categories_nodes":[0],"categories_segments":[0],"categories_sizes":[2],"default_left":[1,0,0,0,0,0,0,0,0,0,0,0,0,0,0,0,0],"id":75,"left_children":[1,3,-1,5,7,9,11,13,15,-1,-1,-1,-1,-1,-1,-1,-1],"loss_changes":[5.6978773E4,1.1381758E3,0E0,2.2572266E2,1.1540234E2,4.4107666E1,3.0336426E1,1.4727539E1,1.9245605E1,0E0,0E0,0E0,0E0,0E0,0E0,0E0,0E0],"parents":[2147483647,0,0,1,1,3,3,4,4,5,5,6,6,7,7,8,8],"right_children":[2,4,-1,6,8,10,12,14,16,-1,-1,-1,-1,-1,-1,-1,-1],"split_conditions":[1E-45,8.7E-1,-6.983673E-2,7.8E-1,9.5E-1,7.2E-1,8.2E-1,9E-1,9.9E-1,3.793206E-2,5.148781E-2,6.0362484E-2,6.8889685E-2,7.6160535E-2,8.3378E-2,9.318558E-2,1.0929753E-1],"split_indices":[5,30,0,30,30,30,30,30,30,0,0,0,0,0,0,0,0],"split_type":[1,0,0,0,0,0,0,0,0,0,0,0,0,0,0,0,0],"sum_hessian":[1.875E4,9.401E3,9.349E3,5.456E3,3.945E3,2.476E3,2.98E3,2.523E3,1.422E3,4.99E2,1.977E3,1.298E3,1.682E3,9.38E2,1.585E3,1.244E3,1.78E2],"tree_param":{"num_deleted":"0","num_feature":"40","num_nodes":"17","size_leaf_vector":"1"}},{"base_weights":[2.0037964E-3,1.670826E0,-6.704356E-2,1.2931654E0,1.9673101E0,1.0684742E0,1.4144518E0,1.7830089E0,2.1846938E0,2.7629318E-2,4.4503193E-2,5.3923123E-2,6.0914177E-2,6.706524E-2,7.492807E-2,8.464283E-2,9.83026E-2],"categories":[0,2],"categories_nodes":[0],"categories_segments":[0],"categories_sizes":[2],"default_left":[1,0,0,0,0,0,0,0,0,0,0,0,0,0,0,0,0],"id":76,"left_children":[1,3,-1,5,7,9,11,13,15,-1,-1,-1,-1,-1,-1,-1,-1],"loss_changes":[5.2513824E4,1.049875E3,0E0,1.1100928E2,2.0664453E2,2.3292236E1,1.6971191E1,2.3896484E1,3.9489258E1,0E0,0E0,0E0,0E0,0E0,0E0,0E0,0E0],"parents":[2147483647,0,0,1,1,3,3,4,4,5,5,6,6,7,7,8,8],"right_children":[2,4,-1,6,8,10,12,14,16,-1,-1,-1,-1,-1,-1,-1,-1],"split_conditions":[1E-45,8.3E-1,-6.704356E-2,7.5E-1,9.2E-1,7.1E-1,8E-1,8.7E-1,9.8E-1,2.7629318E-2,4.4503193E-2,5.3923123E-2,6.0914177E-2,6.706524E-2,7.492807E-2,8.464283E-2,9.83026E-2],"split_indices":[5,30,0,30,30,30,30,30,30,0,0,0,0,0,0,0,0],"split_type":[1,0,0,0,0,0,0,0,0,0,0,0,0,0,0,0,0],"sum_hessian":[1.875E4,9.401E3,9.349E3,4.137E3,5.264E3,1.454E3,2.683E3,2.854E3,2.41E3,1.54E2,1.3E3,1.673E3,1.01E3,1.319E3,1.535E3,1.933E3,4.77E2],"tree_param":{"num_deleted":"0","num_feature":"40","num_nodes":"17","size_leaf_vector":"1"}},{"base_weights":[1.9489113E-3,1.6040512E0,-6.4362116E-2,1.2648715E0,1.9084415E0,1.0257888E0,1.3805258E0,1.7688478E0,2.1581979E0,2.6531408E-2,4.272447E-2,5.1767435E-2,5.9546135E-2,6.657665E-2,7.5092845E-2,8.461809E-2,1.0103978E-1],"categories":[0,2],"categories_nodes":[0],"categories_segments":[0],"categories_sizes":[2],"default_left":[1,0,0,0,0,0,0,0,0,0,0,0,0,0,0,0,0],"id":77,"left_children":[1,3,-1,5,7,9,11,13,15,-1,-1,-1,-1,-1,-1,-1,-1],"loss_changes":[4.839872E4,9.6796094E2,0E0,1.2138965E2,1.684707E2,2.1441162E1,2.5765137E1,3.25791E1,2.2036133E1,0E0,0E0,0E0,0E0,0E0,0E0,0E0,0E0],"parents":[2147483647,0,0,1,1,3,3,4,4,5,5,6,6,7,7,8,8],"right_children":[2,4,-1,6,8,10,12,14,16,-1,-1,-1,-1,-1,-1,-1,-1],"split_conditions":[1E-45,8.4E-1,-6.4362116E-2,7.5E-1,9.4E-1,7.1E-1,8E-1,8.9E-1,9.9E-1,2.6531408E-2,4.272447E-2,5.1767435E-2,5.9546135E-2,6.657665E-2,7.5092845E-2,8.461809E-2,1.0103978E-1],"split_indices":[5,30,0,30,30,30,30,30,30,0,0,0,0,0,0,0,0],"split_type":[1,0,0,0,0,0,0,0,0,0,0,0,0,0,0,0,0],"sum_hessian":[1.875E4,9.401E3,9.349E3,4.449E3,4.952E3,1.454E3,2.995E3,3.182E3,1.77E3,1.54E2,1.3E3,1.673E3,1.322E3,1.63E3,1.552E3,1.592E3,1.78E2],"tree_param":{"num_deleted":"0","num_feature":"40","num_nodes":"17","size_leaf_vector":"1"}},{"base_weights":[1.896165E-3,1.5399463E0,-6.178789E-2,1.2580715E0,1.8781155E0,1.0516309E0,1.4066966E0,1.7610894E0,2.1111066E0,3.334304E-2,4.467566E-2,5.2756503E-2,6.042569E-2,6.62743E-2,7.372207E-2,8.256501E-2,9.702092E-2],"categories":[0,2],"categories_nodes":[0],"categories_segments":[0],"categories_sizes":[2],"default_left":[1,0,0,0,0,0,0,0,0,0,0,0,0,0,0,0,0],"id":78,"left_children":[1,3,-1,5,7,9,11,13,15,-1,-1,-1,-1,-1,-1,-1,-1],"loss_changes":[4.46061E4,8.935332E2,0E0,1.5570557E2,1.1237598E2,2.9497803E1,2.4916504E1,2.094336E1,1.5564453E1,0E0,