{"learner":{"attributes":{"scikit_learn":"{\"_estimator_type\": \"regressor\"}"},"feature_names":["Process Stage","Technology","Time Period","Location","Functional Unit","Raw Material Type","Raw Material Quantity (kg or unit)","Energy Input Type","Energy Input Quantity (MJ)","Processing Method","Transport Mode","Transport Distance (km)","Fuel Type","Metal Quality Grade","Material Scarcity Level","Material Cost (USD)","Processing Cost (USD)","Emissions to Air CO2 (kg)","Emissions to Air SOx (kg)","Emissions to Air NOx (kg)","Emissions to Air Particulate Matter (kg)","Emissions to Water Acid Mine Drainage (kg)","Emissions to Water Heavy Metals (kg)","Emissions to Water BOD (kg)","Greenhouse Gas Emissions (kg CO2-eq)","Scope 1 Emissions (kg CO2-eq)","Scope 2 Emissions (kg CO2-eq)","Scope 3 Emissions (kg CO2-eq)","End-of-Life Treatment","Environmental Impact Score","Metal Recyclability Factor","Energy_per_Material","Total_Air_Emissions","Total_Water_Emissions","Transport_Intensity","GHG_per_Material","Time_Period_Numeric","Total_Cost","Circularity_Score","Circular_Economy_Index"],"feature_types":["c","c","c","c","c","c","int","c","float","c","c","float","c","c","c","float","float","float","float","float","float","float","float","float","float","float","float","float","c","float","float","float","float","float","float","float","int","float","float","float"],"gradient_booster":{"model":{"gbtree_model_param":{"num_parallel_tree":"1","num_trees":"200"},"iteration_indptr":[0,1,2,3,4,5,6,7,8,9,10,11,12,13,14,15,16,17,18,19,20,21,22,23,24,25,26,27,28,29,30,31,32,33,34,35,36,37,38,39,40,41,42,43,44,45,46,47,48,49,50,51,52,53,54,55,56,57,58,59,60,61,62,63,64,65,66,67,68,69,70,71,72,73,74,75,76,77,78,79,80,81,82,83,84,85,86,87,88,89,90,91,92,93,94,95,96,97,98,99,100,101,102,103,104,105,106,107,108,109,110,111,112,113,114,115,116,117,118,119,120,121,122,123,124,125,126,127,128,129,130,131,132,133,134,135,136,137,138,139,140,141,142,143,144,145,146,147,148,149,150,151,152,153,154,155,156,157,158,159,160,161,162,163,164,165,166,167,168,169,170,171,172,173,174,175,176,177,178,179,180,181,182,183,184,185,186,187,188,189,190,191,192,193,194,195,196,197,198,199,200],"tree_info":[0,0,0,0,0,0,0,0,0,0,0,0,0,0,0,0,0,0,0,0,0,0,0,0,0,0,0,0,0,0,0,0,0,0,0,0,0,0,0,0,0,0,0,0,0,0,0,0,0,0,0,0,0,0,0,0,0,0,0,0,0,0,0,0,0,0,0,0,0,0,0,0,0,0,0,0,0,0,0,0,0,0,0,0,0,0,0,0,0,0,0,0,0,0,0,0,0,0,0,0,0,0,0,0,0,0,0,0,0,0,0,0,0,0,0,0,0,0,0,0,0,0,0,0,0,0,0,0,0,0,0,0,0,0,0,0,0,0,0,0,0,0,0,0,0,0,0,0,0,0,0,0,0,0,0,0,0,0,0,0,0,0,0,0,0,0,0,0,0,0,0,0,0,0,0,0,0,0,0,0,0,0,0,0,0,0,0,0,0,0,0,0,0,0,0,0,0,0,0,0],"trees":[{"base_weights":[-0E0,3.2702736E1,-3.351492E1,1.3973857E0,1.8819033E1,-9.302268E-1,-1.0816934E0,1.9197174E1,5.5671316E-1,5.12864E-1,5.789262E-1],"categories":[0,1,0,1,3,1,0,1,3],"categories_nodes":[0,1,2,4],"categories_segments":[0,2,5,6],"categories_sizes":[2,3,1,3],"default_left":[1,1,1,0,1,0,0,0,0,0,0],"id":0,"left_children":[1,3,5,-1,7,-1,-1,9,-1,-1,-1],"loss_changes":[2.0552744E7,1.827665E6,5.789E4,0E0,1.1E2,0E0,0E0,7.00625E1,0E0,0E0,0E0],"parents":[2147483647,0,0,1,1,2,2,4,4,7,7],"right_children":[2,4,6,-1,8,-1,-1,10,-1,-1,-1],"split_conditions":[1E-45,1E-45,1E-45,1.3973857E0,1E-45,-9.302268E-1,-1.0816934E0,1.4815E2,5.5671316E-1,5.12864E-1,5.789262E-1],"split_indices":[28,28,28,0,0,0,0,11,0,0,0],"split_type":[1,1,1,0,1,0,0,0,0,0,0],"sum_hessian":[1.875E4,9.49E3,9.26E3,4.745E3,4.745E3,4.668E3,4.592E3,1.912E3,2.833E3,9.5E1,1.817E3],"tree_param":{"num_deleted":"0","num_feature":"40","num_nodes":"11","size_leaf_vector":"1"}},{"base_weights":[4.947136E-5,3.1721975E1,-3.250969E1,1.355473E0,1.825481E1,-9.0232605E-1,-1.0492495E0,1.862183E1,5.4001766E-1,4.9763837E-1,5.6156796E-1],"categories":[0,1,0,1,3,1,0,1,3],"categories_nodes":[0,1,2,4],"categories_segments":[0,2,5,6],"categories_sizes":[2,3,1,3],"default_left":[1,1,1,0,1,0,0,0,0,0,0],"id":1,"left_children":[1,3,5,-1,7,-1,-1,9,-1,-1,-1],"loss_changes":[1.9338404E7,1.719641E6,5.4471E4,0E0,1.04E2,0E0,0E0,6.38125E1,0E0,0E0,0E0],"parents":[2147483647,0,0,1,1,2,2,4,4,7,7],"right_children":[2,4,6,-1,8,-1,-1,10,-1,-1,-1],"split_conditions":[1E-45,1E-45,1E-45,1.355473E0,1E-45,-9.0232605E-1,-1.0492495E0,1.4815E2,5.4001766E-1,4.9763837E-1,5.6156796E-1],"split_indices":[28,28,28,0,0,0,0,11,0,0,0],"split_type":[1,1,1,0,1,0,0,0,0,0,0],"sum_hessian":[1.875E4,9.49E3,9.26E3,4.745E3,4.745E3,4.668E3,4.592E3,1.912E3,2.833E3,9.5E1,1.817E3],"tree_param":{"num_deleted":"0","num_feature":"40","num_nodes":"11","size_leaf_vector":"1"}},{"base_weights":[1.0104667E-4,3.0770628E1,-3.153461E1,1.3148174E0,1.7707504E1,-8.752621E-1,-1.017779E0,1.806373E1,5.238229E-1,4.8286474E-1,5.447302E-1],"categories":[0,1,0,1,3,1,0,1,3],"categories_nodes":[0,1,2,4],"categories_segments":[0,2,5,6],"categories_sizes":[2,3,1,3],"default_left":[1,1,1,0,1,0,0,0,0,0,0],"id":2,"left_children":[1,3,5,-1,7,-1,-1,9,-1,-1,-1],"loss_changes":[1.819581E7,1.618006E6,5.1252E4,0E0,9.825E1,0E0,0E0,5.8125E1,0E0,0E0,0E0],"parents":[2147483647,0,0,1,1,2,2,4,4,7,7],"right_children":[2,4,6,-1,8,-1,-1,10,-1,-1,-1],"split_conditions":[1E-45,1E-45,1E-45,1.3148174E0,1E-45,-8.752621E-1,-1.017779E0,1.4815E2,5.238229E-1,4.8286474E-1,5.447302E-1],"split_indices":[28,28,28,0,0,0,0,11,0,0,0],"split_type":[1,1,1,0,1,0,0,0,0,0,0],"sum_hessian":[1.875E4,9.49E3,9.26E3,4.745E3,4.745E3,4.668E3,4.592E3,1.912E3,2.833E3,9.5E1,1.817E3],"tree_param":{"num_deleted":"0","num_feature":"40","num_nodes":"11","size_leaf_vector":"1"}},{"base_weights":[1.5008815E-4,2.984781E1,-3.0588778E1,1.2753811E0,1.7176607E1,-8.490098E-1,-9.8725224E-1,1.7522356E1,5.081138E-1,4.6852967E-1,5.283972E-1],"categories":[0,1,0,1,3,1,0,1,3],"categories_nodes":[0,1,2,4],"categories_segments":[0,2,5,6],"categories_sizes":[2,3,1,3],"default_left":[1,1,1,0,1,0,0,0,0,0,0],"id":3,"left_children":[1,3,5,-1,7,-1,-1,9,-1,-1,-1],"loss_changes":[1.7120724E7,1.522374E6,4.8223E4,0E0,9.2875E1,0E0,0E0,5.275E1,0E0,0E0,0E0],"parents":[2147483647,0,0,1,1,2,2,4,4,7,7],"right_children":[2,4,6,-1,8,-1,-1,10,-1,-1,-1],"split_conditions":[1E-45,1E-45,1E-45,1.2753811E0,1E-45,-8.490098E-1,-9.8725224E-1,1.4815E2,5.081138E-1,4.6852967E-1,5.283972E-1],"split_indices":[28,28,28,0,0,0,0,11,0,0,0],"split_type":[1,1,1,0,1,0,0,0,0,0,0],"sum_hessian":[1.875E4,9.49E3,9.26E3,4.745E3,4.745E3,4.668E3,4.592E3,1.912E3,2.833E3,9.5E1,1.817E3],"tree_param":{"num_deleted":"0","num_feature":"40","num_nodes":"11","size_leaf_vector":"1"}},{"base_weights":[1.9557614E-4,2.895267E1,-2.9671312E1,1.2371277E0,1.6661629E1,-8.23545E-1,-9.576412E-1,1.6997208E1,1.6429192E1,4.546202E-1,5.1255405E-1,4.9936563E-1,4.7964248E-1],"categories":[0,1,0,1,3,1,0,1,3,1],"categories_nodes":[0,1,2,4,8],"categories_segments":[0,2,5,6,9],"categories_sizes":[2,3,1,3,1],"default_left":[1,1,1,0,1,0,0,0,1,0,0,0,0],"id":4,"left_children":[1,3,5,-1,7,-1,-1,9,11,-1,-1,-1,-1],"loss_changes":[1.610916E7,1.4323945E6,4.53735E4,0E0,8.775E1,0E0,0E0,4.79375E1,1.0625E0,0E0,0E0,0E0,0E0],"parents":[2147483647,0,0,1,1,2,2,4,4,7,7,8,8],"right_children":[2,4,6,-1,8,-1,-1,10,12,-1,-1,-1,-1],"split_conditions":[1E-45,1E-45,1E-45,1.2371277E0,1E-45,-8.23545E-1,-9.576412E-1,1.4815E2,1E-45,4.546202E-1,5.1255405E-1,4.9936563E-1,4.7964248E-1],"split_indices":[28,28,28,0,0,0,0,11,7,0,0,0,0],"split_type":[1,1,1,0,1,0,0,0,1,0,0,0,0],"sum_hessian":[1.875E4,9.49E3,9.26E3,4.745E3,4.745E3,4.668E3,4.592E3,1.912E3,2.833E3,9.5E1,1.817E3,1.876E3,9.57E2],"tree_param":{"num_deleted":"0","num_feature":"40","num_nodes":"13","size_leaf_vector":"1"}},{"base_weights":[2.64111E-4,2.8084425E1,-2.8781366E1,1.2000216E0,1.6162191E1,-7.988439E-1,-9.2891824E-1,1.6487799E1,1.5936662E1,5.0614965E-1,4.8110676E-1,4.8439258E-1,4.6526825E-1],"categories":[0,1,0,1,3,1,0,1,3,1],"categories_nodes":[0,1,2,4,8],"categories_segments":[0,2,5,6,9],"categories_sizes":[2,3,1,3,1],"default_left":[1,1,1,0,1,0,0,0,1,0,0,0,0],"id":5,"left_children":[1,3,5,-1,7,-1,-1,9,11,-1,-1,-1,-1],"loss_changes":[1.515739E7,1.3477245E6,4.2693E4,0E0,8.25E1,0E0,0E0,5.721875E1,6.875E-1,0E0,0E0,0E0,0E0],"parents":[2147483647,0,0,1,1,2,2,4,4,7,7,8,8],"right_children":[2,4,6,-1,8,-1,-1,10,12,-1,-1,-1,-1],"split_conditions":[1E-45,1E-45,1E-45,1.2000216E0,1E-45,-7.988439E-1,-9.2891824E-1,6.39E0,1E-45,5.0614965E-1,4.8110676E-1,4.8439258E-1,4.6526825E-1],"split_indices":[28,28,28,0,0,0,0,35,7,0,0,0,0],"split_type":[1,1,1,0,1,0,0,0,1,0,0,0,0],"sum_hessian":[1.875E4,9.49E3,9.26E3,4.745E3,4.745E3,4.668E3,4.592E3,1.912E3,2.833E3,1.013E3,8.99E2,1.876E3,9.57E2],"tree_param":{"num_deleted":"0","num_feature":"40","num_nodes":"13","size_leaf_vector":"1"}},{"base_weights":[3.3162508E-4,2.7242226E1,-2.7918114E1,1.1640285E0,1.5677735E1,-7.748838E-1,-9.0105677E-1,1.57332535E1,1.4502757E1,4.815177E-1,4.6538895E-1,4.3796796E-1,1.6398779E-1],"categories":[0,1,0,1,3,1,0,1,3],"categories_nodes":[0,1,2,7],"categories_segments":[0,2,5,6],"categories_sizes":[2,3,1,3],"default_left":[1,1,1,0,0,0,0,1,0,0,0,0,0],"id":6,"left_children":[1,3,5,-1,7,-1,-1,9,11,-1,-1,-1,-1],"loss_changes":[1.4261858E7,1.2680565E6,4.017E4,0E0,7.8375E1,0E0,0E0,6.3875E1,1.1547266E2,0E0,0E0,0E0,0E0],"parents":[2147483647,0,0,1,1,2,2,4,4,7,7,8,8],"right_children":[2,4,6,-1,8,-1,-1,10,12,-1,-1,-1,-1],"split_conditions":[1E-45,1E-45,1E-45,1.1640285E0,8.73019E3,-7.748838E-1,-9.0105677E-1,1E-45,7.98E1,4.815177E-1,4.6538895E-1,4.3796796E-1,1.6398779E-1],"split_indices":[28,28,28,0,17,0,0,0,29,0,0,0,0],"split_type":[1,1,1,0,0,0,0,1,0,0,0,0,0],"sum_hessian":[1.875E4,9.49E3,9.26E3,4.745E3,4.745E3,4.668E3,4.592E3,4.519E3,2.26E2,1.822E3,2.697E3,2.23E2,3E0],"tree_param":{"num_deleted":"0","num_feature":"40","num_nodes":"13","size_leaf_vector":"1"}},{"base_weights":[3.7756207E-4,2.6425245E1,-2.708075E1,1.1291151E0,1.5207731E1,-7.516423E-1,-8.7403095E-1,1.5514896E1,1.49949875E1,4.121817E-1,4.680019E-1,4.559739E-1,4.3737772E-1],"categories":[0,1,0,1,3,1,0,1,3,1],"categories_nodes":[0,1,2,4,8],"categories_segments":[0,2,5,6,9],"categories_sizes":[2,3,1,3,1],"default_left":[1,1,1,0,1,0,0,0,1,0,0,0,0],"id":7,"left_children":[1,3,5,-1,7,-1,-1,9,11,-1,-1,-1,-1],"loss_changes":[1.3419217E7,1.1931045E6,3.77965E4,0E0,7.45E1,0E0,0E0,7.2E1,1.59375E1,0E0,0E0,0E0,0E0],"parents":[2147483647,0,0,1,1,2,2,4,4,7,7,8,8],"right_children":[2,4,6,-1,8,-1,-1,10,12,-1,-1,-1,-1],"split_conditions":[1E-45,1E-45,1E-45,1.1291151E0,1E-45,-7.516423E-1,-8.7403095E-1,1.4815E2,1E-45,4.121817E-1,4.680019E-1,4.559739E-1,4.3737772E-1],"split_indices":[28,28,28,0,0,0,0,11,7,0,0,0,0],"split_type":[1,1,1,0,1,0,0,0,1,0,0,0,0],"sum_hessian":[1.875E4,9.49E3,9.26E3,4.745E3,4.745E3,4.668E3,4.592E3,1.912E3,2.833E3,9.5E1,1.817E3,1.876E3,9.57E2],"tree_param":{"num_deleted":"0","num_feature":"40","num_nodes":"13","size_leaf_vector":"1"}},{"base_weights":[4.34803E-4,2.5632795E1,-2.6268503E1,1.0952488E0,1.4751874E1,-7.290977E-1,-8.478157E-1,1.480583E1,1.3612096E1,4.5313317E-1,4.3795615E-1,4.1114417E-1,1.4976804E-1],"categories":[0,1,0,1,3,1,0,1,3],"categories_nodes":[0,1,2,7],"categories_segments":[0,2,5,6],"categories_sizes":[2,3,1,3],"default_left":[1,1,1,0,0,0,0,1,0,0,0,0,0],"id":8,"left_children":[1,3,5,-1,7,-1,-1,9,11,-1,-1,-1,-1],"loss_changes":[1.2626375E7,1.122578E6,3.5563E4,0E0,8.74375E1,0E0,0E0,5.6375E1,1.1111719E2,0E0,0E0,0E0,0E0],"parents":[2147483647,0,0,1,1,2,2,4,4,7,7,8,8],"right_children":[2,4,6,-1,8,-1,-1,10,12,-1,-1,-1,-1],"split_conditions":[1E-45,1E-45,1E-45,1.0952488E0,8.73019E3,-7.290977E-1,-8.478157E-1,1E-45,7.98E1,4.5313317E-1,4.3795615E-1,4.1114417E-1,1.4976804E-1],"split_indices":[28,28,28,0,17,0,0,0,29,0,0,0,0],"split_type":[1,1,1,0,0,0,0,1,0,0,0,0,0],"sum_hessian":[1.875E4,9.49E3,9.26E3,4.745E3,4.745E3,4.668E3,4.592E3,4.519E3,2.26E2,1.822E3,2.697E3,2.23E2,3E0],"tree_param":{"num_deleted":"0","num_feature":"40","num_nodes":"13","size_leaf_vector":"1"}},{"base_weights":[4.741124E-4,2.486408E1,-2.5480618E1,1.0623983E0,1.4309626E1,-7.0722944E-1,-8.2238674E-1,1.4361852E1,1.3206217E1,4.3337968E-1,4.0992337E-1,3.9886492E-1,1.4639825E-1],"categories":[0,1,0,1,3,1],"categories_nodes":[0,1,2],"categories_segments":[0,2,5],"categories_sizes":[2,3,1],"default_left":[1,1,1,0,0,0,0,0,0,0,0,0,0],"id":9,"left_children":[1,3,5,-1,7,-1,-1,9,11,-1,-1,-1,-1],"loss_changes":[1.1880364E7,1.056226E6,3.34615E4,0E0,8.10625E1,0E0,0E0,6.525E1,1.02046875E2,0E0,0E0,0E0,0E0],"parents":[2147483647,0,0,1,1,2,2,4,4,7,7,8,8],"right_children":[2,4,6,-1,8,-1,-1,10,12,-1,-1,-1,-1],"split_conditions":[1E-45,1E-45,1E-45,1.0623983E0,8.73019E3,-7.0722944E-1,-8.2238674E-1,1.35623E2,7.98E1,4.3337968E-1,4.0992337E-1,3.9886492E-1,1.4639825E-1],"split_indices":[28,28,28,0,17,0,0,34,29,0,0,0,0],"split_type":[1,1,1,0,0,0,0,0,0,0,0,0,0],"sum_hessian":[1.875E4,9.49E3,9.26E3,4.745E3,4.745E3,4.668E3,4.592E3,4.519E3,2.26E2,4.015E3,5.04E2,2.23E2,3E0],"tree_param":{"num_deleted":"0","num_feature":"40","num_nodes":"13","size_leaf_vector":"1"}},{"base_weights":[5.098243E-4,2.4118418E1,-2.4716364E1,1.030533E0,1.38806305E1,-6.8601716E-1,-7.977205E-1,1.4170915E1,1.367975E1,4.666393E-1,4.214061E-1,4.1638026E-1,3.9822924E-1],"categories":[0,1,0,1,3,1,0,1,3,1],"categories_nodes":[0,1,2,4,8],"categories_segments":[0,2,5,6,9],"categories_sizes":[2,3,1,3,1],"default_left":[1,1,1,0,1,0,0,0,1,0,0,0,0],"id":10,"left_children":[1,3,5,-1,7,-1,-1,9,11,-1,-1,-1,-1],"loss_changes":[1.1178428E7,9.93796E5,3.14845E4,0E0,8.00625E1,0E0,0E0,1.0690625E2,4.2375E1,0E0,0E0,0E0,0E0],"parents":[2147483647,0,0,1,1,2,2,4,4,7,7,8,8],"right_children":[2,4,6,-1,8,-1,-1,10,12,-1,-1,-1,-1],"split_conditions":[1E-45,1E-45,1E-45,1.030533E0,1E-45,-6.8601716E-1,-7.977205E-1,9.407E-1,1E-45,4.666393E-1,4.214061E-1,4.1638026E-1,3.9822924E-1],"split_indices":[28,28,28,0,0,0,0,21,7,0,0,0,0],"split_type":[1,1,1,0,1,0,0,0,1,0,0,0,0],"sum_hessian":[1.875E4,9.49E3,9.26E3,4.745E3,4.745E3,4.668E3,4.592E3,1.912E3,2.833E3,1.47E2,1.765E3,1.876E3,9.57E2],"tree_param":{"num_deleted":"0","num_feature":"40","num_nodes":"13","size_leaf_vector":"1"}},{"base_weights":[5.610929E-4,2.3395155E1,-2.3975035E1,9.9962354E-1,1.3464572E1,-6.654411E-1,-7.7379405E-1,1.3515241E1,1.2395906E1,3.6983576E-1,4.0688282E-1,3.7700787E-1,2.2254026E-1],"categories":[0,1,0,1,3,1],"categories_nodes":[0,1,2],"categories_segments":[0,2,5],"categories_sizes":[2,3,1],"default_left":[1,1,1,0,0,0,0,0,0,0,0,0,0],"id":11,"left_children":[1,3,5,-1,7,-1,-1,9,11,-1,-1,-1,-1],"loss_changes":[1.0517984E7,9.350485E5,2.9624E4,0E0,8.69375E1,0E0,0E0,8.51875E1,9.803125E1,0E0,0E0,0E0,0E0],"parents":[2147483647,0,0,1,1,2,2,4,4,7,7,8,8],"right_children":[2,4,6,-1,8,-1,-1,10,12,-1,-1,-1,-1],"split_conditions":[1E-45,1E-45,1E-45,9.9962354E-1,8.73019E3,-6.654411E-1,-7.7379405E-1,3.558E0,1.9244E3,3.6983576E-1,4.0688282E-1,3.7700787E-1,2.2254026E-1],"split_indices":[28,28,28,0,17,0,0,34,11,0,0,0,0],"split_type":[1,1,1,0,0,0,0,0,0,0,0,0,0],"sum_hessian":[1.875E4,9.49E3,9.26E3,4.745E3,4.745E3,4.668E3,4.592E3,4.519E3,2.26E2,1.84E2,4.335E3,2.17E2,9E0],"tree_param":{"num_deleted":"0","num_feature":"40","num_nodes":"13","size_leaf_vector":"1"}},{"base_weights":[5.948907E-4,2.2693552E1,-2.3255938E1,9.6964115E-1,1.3060926E1,-6.4548206E-1,-7.505853E-1,1.3342702E1,1.2866079E1,4.1114983E-1,3.875875E-1,3.8907635E-1,3.63841E-1],"categories":[0,1,0,1,3,1,0,1,3],"categories_nodes":[0,1,2,4],"categories_segments":[0,2,5,6],"categories_sizes":[2,3,1,3],"default_left":[1,1,1,0,1,0,0,0,0,0,0,0,0],"id":12,"left_children":[1,3,5,-1,7,-1,-1,9,11,-1,-1,-1,-1],"loss_changes":[9.896546E6,8.7978E5,2.7873E4,0E0,8.63125E1,0E0,0E0,1.135625E2,5.5875E1,0E0,0E0,0E0,0E0],"parents":[2147483647,0,0,1,1,2,2,4,4,7,7,8,8],"right_children":[2,4,6,-1,8,-1,-1,10,12,-1,-1,-1,-1],"split_conditions":[1E-45,1E-45,1E-45,9.6964115E-1,1E-45,-6.4548206E-1,-7.505853E-1,6.39E0,1.23679E2,4.1114983E-1,3.875875E-1,3.8907635E-1,3.63841E-1],"split_indices":[28,28,28,0,0,0,0,35,34,0,0,0,0],"split_type":[1,1,1,0,1,0,0,0,0,0,0,0,0],"sum_hessian":[1.875E4,9.49E3,9.26E3,4.745E3,4.745E3,4.668E3,4.592E3,1.912E3,2.833E3,1.013E3,8.99E2,2.471E3,3.62E2],"tree_param":{"num_deleted":"0","num_feature":"40","num_nodes":"13","size_leaf_vector":"1"}},{"base_weights":[6.373597E-4,2.2013012E1,-2.255841E1,9.405581E-1,1.2669428E1,-6.2612176E-1,-7.2807264E-1,1.27182E1,1.1642025E1,3.4703794E-1,3.8292962E-1,3.51846E-1,1.164193E-1],"categories":[0,1,0,1,3,1],"categories_nodes":[0,1,2],"categories_segments":[0,2,5],"categories_sizes":[2,3,1],"default_left":[1,1,1,0,0,0,0,0,0,0,0,0,0],"id":13,"left_children":[1,3,5,-1,7,-1,-1,9,11,-1,-1,-1,-1],"loss_changes":[9.311834E6,8.277745E5,2.62265E4,0E0,8.73125E1,0E0,0E0,8.96875E1,1.0475586E2,0E0,0E0,0E0,0E0],"parents":[2147483647,0,0,1,1,2,2,4,4,7,7,8,8],"right_children":[2,4,6,-1,8,-1,-1,10,12,-1,-1,-1,-1],"split_conditions":[1E-45,1E-45,1E-45,9.405581E-1,8.73019E3,-6.2612176E-1,-7.2807264E-1,3.558E0,7.98E1,3.4703794E-1,3.8292962E-1,3.51846E-1,1.164193E-1],"split_indices":[28,28,28,0,17,0,0,34,29,0,0,0,0],"split_type":[1,1,1,0,0,0,0,0,0,0,0,0,0],"sum_hessian":[1.875E4,9.49E3,9.26E3,4.745E3,4.745E3,4.668E3,4.592E3,4.519E3,2.26E2,1.84E2,4.335E3,2.23E2,3E0],"tree_param":{"num_deleted":"0","num_feature":"40","num_nodes":"13","size_leaf_vector":"1"}},{"base_weights":[6.598761E-4,2.1352846E1,-2.1881805E1,9.1234726E-1,1.2289598E1,-6.073421E-1,-7.0623523E-1,1.2563368E1,1.2100428E1,4.171119E-1,3.7331602E-1,3.6887464E-1,3.511457E-1],"categories":[0,1,0,1,3,1,0,1,3,1],"categories_nodes":[0,1,2,4,8],"categories_segments":[0,2,5,6,9],"categories_sizes":[2,3,1,3,1],"default_left":[1,1,1,0,1,0,0,0,1,0,0,0,0],"id":14,"left_children":[1,3,5,-1,7,-1,-1,9,11,-1,-1,-1,-1],"loss_changes":[8.761656E6,7.788475E5,2.46765E4,0E0,9.13125E1,0E0,0E0,1.3075E2,7.271875E1,0E0,0E0,0E0,0E0],"parents":[2147483647,0,0,1,1,2,2,4,4,7,7,8,8],"right_children":[2,4,6,-1,8,-1,-1,10,12,-1,-1,-1,-1],"split_conditions":[1E-45,1E-45,1E-45,9.1234726E-1,1E-45,-6.073421E-1,-7.0623523E-1,9.407E-1,1E-45,4.171119E-1,3.7331602E-1,3.6887464E-1,3.511457E-1],"split_indices":[28,28,28,0,0,0,0,21,7,0,0,0,0],"split_type":[1,1,1,0,1,0,0,0,1,0,0,0,0],"sum_hessian":[1.875E4,9.49E3,9.26E3,4.745E3,4.745E3,4.668E3,4.592E3,1.912E3,2.833E3,1.47E2,1.765E3,1.876E3,9.57E2],"tree_param":{"num_deleted":"0","num_feature":"40","num_nodes":"13","size_leaf_vector":"1"}},{"base_weights":[6.9986953E-4,2.0712519E1,-2.1225492E1,8.8498265E-1,1.192123E1,-5.8912575E-1,-6.8505275E-1,1.196418E1,1.08278475E1,3.6130664E-1,3.3914107E-1,1.5866289E-1,3.3125144E-1],"categories":[0,1,0,1,3,1],"categories_nodes":[0,1,2],"categories_segments":[0,2,5],"categories_sizes":[2,3,1],"default_left":[1,1,1,0,0,0,0,0,0,0,0,0,0],"id":15,"left_children":[1,3,5,-1,7,-1,-1,9,11,-1,-1,-1,-1],"loss_changes":[8.243999E6,7.3280725E5,2.3218E4,0E0,9.1E1,0E0,0E0,1.000625E2,1.6504883E2,0E0,0E0,0E0,0E0],"parents":[2147483647,0,0,1,1,2,2,4,4,7,7,8,8],"right_children":[2,4,6,-1,8,-1,-1,10,12,-1,-1,-1,-1],"split_conditions":[1E-45,1E-45,1E-45,8.8498265E-1,3.07233E3,-5.8912575E-1,-6.8505275E-1,1.35623E2,5.1308E1,3.6130664E-1,3.3914107E-1,1.5866289E-1,3.3125144E-1],"split_indices":[28,28,28,0,27,0,0,34,18,0,0,0,0],"split_type":[1,1,1,0,0,0,0,0,0,0,0,0,0],"sum_hessian":[1.875E4,9.49E3,9.26E3,4.745E3,4.745E3,4.668E3,4.592E3,4.556E3,1.89E2,4.051E3,5.05E2,8E0,1.81E2],"tree_param":{"num_deleted":"0","num_feature":"40","num_nodes":"13","size_leaf_vector":"1"}},{"base_weights":[7.223171E-4,2.0091364E1,-2.0588865E1,8.5843873E-1,1.1563847E1,-5.714557E-1,-6.6450566E-1,1.1829742E1,1.1380247E1,3.0504555E-1,3.5732758E-1,3.4711632E-1,3.2986253E-1],"categories":[0,1,0,1,3,1,0,1,3,1],"categories_nodes":[0,1,2,4,8],"categories_segments":[0,2,5,6,9],"categories_sizes":[2,3,1,3,1],"default_left":[1,1,1,0,1,0,0,0,1,0,0,0,0],"id":16,"left_children":[1,3,5,-1,7,-1,-1,9,11,-1,-1,-1,-1],"loss_changes":[7.756915E6,6.8949225E5,2.184625E4,0E0,9.475E1,0E0,0E0,1.3471875E2,7.80625E1,0E0,0E0,0E0,0E0],"parents":[2147483647,0,0,1,1,2,2,4,4,7,7,8,8],"right_children":[2,4,6,-1,8,-1,-1,10,12,-1,-1,-1,-1],"split_conditions":[1E-45,1E-45,1E-45,8.5843873E-1,1E-45,-5.714557E-1,-6.6450566E-1,1.4815E2,1E-45,3.0504555E-1,3.5732758E-1,3.4711632E-1,3.2986253E-1],"split_indices":[28,28,28,0,0,0,0,11,7,0,0,0,0],"split_type":[1,1,1,0,1,0,0,0,1,0,0,0,0],"sum_hessian":[1.875E4,9.49E3,9.26E3,4.745E3,4.745E3,4.668E3,4.592E3,1.912E3,2.833E3,9.5E1,1.817E3,1.876E3,9.57E2],"tree_param":{"num_deleted":"0","num_feature":"40","num_nodes":"13","size_leaf_vector":"1"}},{"base_weights":[7.5185706E-4,1.9488855E1,-1.9971334E1,8.3269095E-1,1.1217217E1,-5.543158E-1,-6.445748E-1,1.1263421E1,1.024735E1,3.4024906E-1,3.1856757E-1,3.123824E-1,1.6820844E-1],"categories":[0,1,0,1,3,1],"categories_nodes":[0,1,2],"categories_segments":[0,2,5],"categories_sizes":[2,3,1],"default_left":[1,1,1,0,0,0,0,0,0,0,0,0,0],"id":17,"left_children":[1,3,5,-1,7,-1,-1,9,11,-1,-1,-1,-1],"loss_changes":[7.298617E6,6.487345E5,2.05555E4,0E0,9.5125E1,0E0,0E0,1.0525E2,1.14240234E2,0E0,0E0,0E0,0E0],"parents":[2147483647,0,0,1,1,2,2,4,4,7,7,8,8],"right_children":[2,4,6,-1,8,-1,-1,10,12,-1,-1,-1,-1],"split_conditions":[1E-45,1E-45,1E-45,8.3269095E-1,8.73019E3,-5.543158E-1,-6.445748E-1,1.35623E2,1.9244E3,3.4024906E-1,3.1856757E-1,3.123824E-1,1.6820844E-1],"split_indices":[28,28,28,0,17,0,0,34,11,0,0,0,0],"split_type":[1,1,1,0,0,0,0,0,0,0,0,0,0],"sum_hessian":[1.875E4,9.49E3,9.26E3,4.745E3,4.745E3,4.668E3,4.592E3,4.519E3,2.26E2,4.015E3,5.04E2,2.17E2,9E0],"tree_param":{"num_deleted":"0","num_feature":"40","num_nodes":"13","size_leaf_vector":"1"}},{"base_weights":[7.7097776E-4,1.8904398E1,-1.9372324E1,8.077155E-1,1.0880943E1,-5.3768986E-1,-6.252418E-1,1.1139113E1,1.0702799E1,3.7337235E-1,3.306974E-1,3.2664666E-1,3.0984676E-1],"categories":[0,1,0,1,3,1,0,1,3,1],"categories_nodes":[0,1,2,4,8],"categories_segments":[0,2,5,6,9],"categories_sizes":[2,3,1,3,1],"default_left":[1,1,1,0,1,0,0,0,1,0,0,0,0],"id":18,"left_children":[1,3,5,-1,7,-1,-1,9,11,-1,-1,-1,-1],"loss_changes":[6.8673905E6,6.1038925E5,1.934075E4,0E0,9.6875E1,0E0,0E0,1.5007812E2,8.225E1,0E0,0E0,0E0,0E0],"parents":[2147483647,0,0,1,1,2,2,4,4,7,7,8,8],"right_children":[2,4,6,-1,8,-1,-1,10,12,-1,-1,-1,-1],"split_conditions":[1E-45,1E-45,1E-45,8.077155E-1,1E-45,-5.3768986E-1,-6.252418E-1,9.407E-1,1E-45,3.7337235E-1,3.306974E-1,3.2664666E-1,3.0984676E-1],"split_indices":[28,28,28,0,0,0,0,21,7,0,0,0,0],"split_type":[1,1,1,0,1,0,0,0,1,0,0,0,0],"sum_hessian":[1.875E4,9.49E3,9.26E3,4.745E3,4.745E3,4.668E3,4.592E3,1.912E3,2.833E3,1.47E2,1.765E3,1.876E3,9.57E2],"tree_param":{"num_deleted":"0","num_feature":"40","num_nodes":"13","size_leaf_vector":"1"}},{"base_weights":[8.008347E-4,1.8337494E1,-1.879128E1,7.8348905E-1,1.0554801E1,-5.2156264E-1,-6.064886E-1,1.0693407E1,1.023356E1,2.9697144E-1,3.2414377E-1,3.1364983E-1,2.8807124E-1],"categories":[0,1,0,1,3,1,0],"categories_nodes":[0,1,2,8],"categories_segments":[0,2,5,6],"categories_sizes":[2,3,1,1],"default_left":[1,1,1,0,0,0,0,0,1,0,0,0,0],"id":19,"left_children":[1,3,5,-1,7,-1,-1,9,11,-1,-1,-1,-1],"loss_changes":[6.461651E6,5.7430675E5,1.819775E4,0E0,9.9875E1,0E0,0E0,1.823125E2,1.00828125E2,0E0,0E0,0E0,0E0],"parents":[2147483647,0,0,1,1,2,2,4,4,7,7,8,8],"right_children":[2,4,6,-1,8,-1,-1,10,12,-1,-1,-1,-1],"split_conditions":[1E-45,1E-45,1E-45,7.8348905E-1,1.39658E3,-5.2156264E-1,-6.064886E-1,2.3011E2,1E-45,2.9697144E-1,3.2414377E-1,3.1364983E-1,2.8807124E-1],"split_indices":[28,28,28,0,11,0,0,11,5,0,0,0,0],"split_type":[1,1,1,0,0,0,0,0,1,0,0,0,0],"sum_hessian":[1.875E4,9.49E3,9.26E3,4.745E3,4.745E3,4.668E3,4.592E3,3.292E3,1.453E3,4.16E2,2.876E3,1.064E3,3.89E2],"tree_param":{"num_deleted":"0","num_feature":"40","num_nodes":"13","size_leaf_vector":"1"}},{"base_weights":[8.24369E-4,1.7787582E1,-1.8227663E1,7.599894E-1,1.0238418E1,-5.0591916E-1,-5.882979E-1,1.1440886E1,1.0199633E1,3.8221E-1,2.6984668E-1,2.6192793E-1,3.0692777E-1],"categories":[0,1,0,1,3,1,1,3],"categories_nodes":[0,1,2,7],"categories_segments":[0,2,5,6],"categories_sizes":[2,3,1,2],"default_left":[1,1,1,0,0,0,0,1,0,0,0,0,0],"id":20,"left_children":[1,3,5,-1,7,-1,-1,9,11,-1,-1,-1,-1],"loss_changes":[6.0798805E6,5.4035825E5,1.71225E4,0E0,1.024375E2,0E0,0E0,3.2821094E2,1.2053125E2,0E0,0E0,0E0,0E0],"parents":[2147483647,0,0,1,1,2,2,4,4,7,7,8,8],"right_children":[2,4,6,-1,8,-1,-1,10,12,-1,-1,-1,-1],"split_conditions":[1E-45,1E-45,1E-45,7.599894E-1,6.864E-1,-5.0591916E-1,-5.882979E-1,1E-45,2.408E0,3.8221E-1,2.6984668E-1,2.6192793E-1,3.0692777E-1],"split_indices":[28,28,28,0,21,0,0,0,34,0,0,0,0],"split_type":[1,1,1,0,0,0,0,1,0,0,0,0,0],"sum_hessian":[1.875E4,9.49E3,9.26E3,4.745E3,4.745E3,4.668E3,4.592E3,1.39E2,4.606E3,8.8E1,5.1E1,1.02E2,4.504E3],"tree_param":{"num_deleted":"0","num_feature":"40","num_nodes":"13","size_leaf_vector":"1"}},{"base_weights":[8.472217E-4,1.7254166E1,-1.7680952E1,7.371944E-1,9.931525E0,-4.9074486E-1,-5.706528E-1,9.9762745E0,8.996288E0,3.015355E-1,2.808186E-1,1.5873103E-1,2.7588546E-1],"categories":[0,1,0,1,3,1],"categories_nodes":[0,1,2],"categories_segments":[0,2,5],"categories_sizes":[2,3,1],"default_left":[1,1,1,0,0,0,0,0,0,0,0,0,0],"id":21,"left_children":[1,3,5,-1,7,-1,-1,9,11,-1,-1,-1,-1],"loss_changes":[5.720667E6,5.0841575E5,1.611075E4,0E0,1.0696875E2,0E0,0E0,1.124375E2,1.1802344E2,0E0,0E0,0E0,0E0],"parents":[2147483647,0,0,1,1,2,2,4,4,7,7,8,8],"right_children":[2,4,6,-1,8,-1,-1,10,12,-1,-1,-1,-1],"split_conditions":[1E-45,1E-45,1E-45,7.371944E-1,8.73019E3,-4.9074486E-1,-5.706528E-1,1.35623E2,5.1308E1,3.015355E-1,2.808186E-1,1.5873103E-1,2.7588546E-1],"split_indices":[28,28,28,0,17,0,0,34,18,0,0,0,0],"split_type":[1,1,1,0,0,0,0,0,0,0,0,0,0],"sum_hessian":[1.875E4,9.49E3,9.26E3,4.745E3,4.745E3,4.668E3,4.592E3,4.519E3,2.26E2,4.015E3,5.04E2,1.3E1,2.13E2],"tree_param":{"num_deleted":"0","num_feature":"40","num_nodes":"13","size_leaf_vector":"1"}},{"base_weights":[8.5890444E-4,1.6736727E1,-1.7150639E1,7.1508324E-1,9.633795E0,-4.760256E-1,-5.535369E-1,9.883422E0,9.461858E0,3.023562E-1,2.7541658E-1,2.8928068E-1,2.7292717E-1],"categories":[0,1,0,1,3,1,0,1,3,1],"categories_nodes":[0,1,2,4,8],"categories_segments":[0,2,5,6,9],"categories_sizes":[2,3,1,3,1],"default_left":[1,1,1,0,1,0,0,0,1,0,0,0,0],"id":22,"left_children":[1,3,5,-1,7,-1,-1,9,11,-1,-1,-1,-1],"loss_changes":[5.382671E6,4.783645E5,1.515875E4,0E0,1.0828125E2,0E0,0E0,1.6789062E2,9.709375E1,0E0,0E0,0E0,0E0],"parents":[2147483647,0,0,1,1,2,2,4,4,7,7,8,8],"right_children":[2,4,6,-1,8,-1,-1,10,12,-1,-1,-1,-1],"split_conditions":[1E-45,1E-45,1E-45,7.1508324E-1,1E-45,-4.760256E-1,-5.535369E-1,1.51E1,1E-45,3.023562E-1,2.7541658E-1,2.8928068E-1,2.7292717E-1],"split_indices":[28,28,28,0,0,0,0,31,7,0,0,0,0],"split_type":[1,1,1,0,1,0,0,0,1,0,0,0,0],"sum_hessian":[1.875E4,9.49E3,9.26E3,4.745E3,4.745E3,4.668E3,4.592E3,1.912E3,2.833E3,1.486E3,4.26E2,1.876E3,9.57E2],"tree_param":{"num_deleted":"0","num_feature":"40","num_nodes":"13","size_leaf_vector":"1"}},{"base_weights":[8.776736E-4,1.6234821E1,-1.663623E1,6.936353E-1,9.345023E0,-4.6174785E-1,-5.3693444E-1,1.0517599E1,9.307341E0,3.5327464E-1,2.4479753E-1,2.3668124E-1,2.8013012E-1],"categories":[0,1,0,1,3,1,1,3],"categories_nodes":[0,1,2,7],"categories_segments":[0,2,5,6],"categories_sizes":[2,3,1,2],"default_left":[1,1,1,0,0,0,0,1,0,0,0,0,0],"id":23,"left_children":[1,3,5,-1,7,-1,-1,9,11,-1,-1,-1,-1],"loss_changes":[5.06465E6,4.5008675E5,1.4263E4,0E0,1.098125E2,0E0,0E0,3.172256E2,1.2275E2,0E0,0E0,0E0,0E0],"parents":[2147483647,0,0,1,1,2,2,4,4,7,7,8,8],"right_children":[2,4,6,-1,8,-1,-1,10,12,-1,-1,-1,-1],"split_conditions":[1E-45,1E-45,1E-45,6.936353E-1,6.864E-1,-4.6174785E-1,-5.3693444E-1,1E-45,2.408E0,3.5327464E-1,2.4479753E-1,2.3668124E-1,2.8013012E-1],"split_indices":[28,28,28,0,21,0,0,0,34,0,0,0,0],"split_type":[1,1,1,0,0,0,0,1,0,0,0,0,0],"sum_hessian":[1.875E4,9.49E3,9.26E3,4.745E3,4.745E3,4.668E3,4.592E3,1.39E2,4.606E3,8.8E1,5.1E1,1.02E2,4.504E3],"tree_param":{"num_deleted":"0","num_feature":"40","num_nodes":"13","size_leaf_vector":"1"}},{"base_weights":[8.954895E-4,1.574797E1,-1.613725E1,6.7283064E-1,9.064911E0,-4.478984E-1,-5.208299E-1,9.198291E0,8.756531E0,2.5344822E-1,2.7911302E-1,2.6908863E-1,2.4455766E-1],"categories":[0,1,0,1,3,1,0],"categories_nodes":[0,1,2,8],"categories_segments":[0,2,5,6],"categories_sizes":[2,3,1,1],"default_left":[1,1,1,0,0,0,0,0,1,0,0,0,0],"id":24,"left_children":[1,3,5,-1,7,-1,-1,9,11,-1,-1,-1,-1],"loss_changes":[4.765419E6,4.23481E5,1.342E4,0E0,1.1284375E2,0E0,0E0,1.80125E2,1.1249219E2,0E0,0E0,0E0,0E0],"parents":[2147483647,0,0,1,1,2,2,4,4,7,7,8,8],"right_children":[2,4,6,-1,8,-1,-1,10,12,-1,-1,-1,-1],"split_conditions":[1E-45,1E-45,1E-45,6.7283064E-1,1.39658E3,-4.478984E-1,-5.208299E-1,2.3011E2,1E-45,2.5344822E-1,2.7911302E-1,2.6908863E-1,2.4455766E-1],"split_indices":[28,28,28,0,11,0,0,11,5,0,0,0,0],"split_type":[1,1,1,0,0,0,0,0,1,0,0,0,0],"sum_hessian":[1.875E4,9.49E3,9.26E3,4.745E3,4.745E3,4.668E3,4.592E3,3.292E3,1.453E3,4.16E2,2.876E3,1.064E3,3.89E2],"tree_param":{"num_deleted":"0","num_feature":"40","num_nodes":"13","size_leaf_vector":"1"}},{"base_weights":[9.095301E-4,1.5275714E1,-1.5653238E1,6.5265E-1,8.793185E0,-4.3446434E-1,-5.0520843E-1,8.83252E0,7.8029785E0,2.671385E-1,2.4770169E-1,8.504994E-2,2.4015675E-1],"categories":[0,1,0,1,3,1],"categories_nodes":[0,1,2],"categories_segments":[0,2,5],"categories_sizes":[2,3,1],"default_left":[1,1,1,0,0,0,0,0,0,0,0,0,0],"id":25,"left_children":[1,3,5,-1,7,-1,-1,9,11,-1,-1,-1,-1],"loss_changes":[4.4838665E6,3.98448E5,1.262725E4,0E0,1.1428125E2,0E0,0E0,1.1390625E2,1.67125E2,0E0,0E0,0E0,0E0],"parents":[2147483647,0,0,1,1,2,2,4,4,7,7,8,8],"right_children":[2,4,6,-1,8,-1,-1,10,12,-1,-1,-1,-1],"split_conditions":[1E-45,1E-45,1E-45,6.5265E-1,3.07233E3,-4.3446434E-1,-5.0520843E-1,1.33509E2,5.1308E1,2.671385E-1,2.4770169E-1,8.504994E-2,2.4015675E-1],"split_indices":[28,28,28,0,27,0,0,34,18,0,0,0,0],"split_type":[1,1,1,0,0,0,0,0,0,0,0,0,0],"sum_hessian":[1.875E4,9.49E3,9.26E3,4.745E3,4.745E3,4.668E3,4.592E3,4.556E3,1.89E2,4.036E3,5.2E2,8E0,1.81E2],"tree_param":{"num_deleted":"0","num_feature":"40","num_nodes":"13","size_leaf_vector":"1"}},{"base_weights":[9.1200636E-4,1.48176E1,-1.51837435E1,6.3307464E-1,8.529568E0,-4.2143318E-1,-4.9005544E-1,8.77092E0,8.3636055E0,3.620216E-1,2.6173097E-1,2.5619638E-1,2.4028198E-1],"categories":[0,1,0,1,3,1,0,1,3,1],"categories_nodes":[0,1,2,4,8],"categories_segments":[0,2,5,6,9],"categories_sizes":[2,3,1,3,1],"default_left":[1,1,1,0,1,0,0,0,1,0,0,0,0],"id":26,"left_children":[1,3,5,-1,7,-1,-1,9,11,-1,-1,-1,-1],"loss_changes":[4.218943E6,3.748975E5,1.1881E4,0E0,1.1503125E2,0E0,0E0,1.8621875E2,1.06890625E2,0E0,0E0,0E0,0E0],"parents":[2147483647,0,0,1,1,2,2,4,4,7,7,8,8],"right_children":[2,4,6,-1,8,-1,-1,10,12,-1,-1,-1,-1],"split_conditions":[1E-45,1E-45,1E-45,6.3307464E-1,1E-45,-4.2143318E-1,-4.9005544E-1,1.3939E2,1E-45,3.620216E-1,2.6173097E-1,2.5619638E-1,2.4028198E-1],"split_indices":[28,28,28,0,0,0,0,27,7,0,0,0,0],"split_type":[1,1,1,0,1,0,0,0,1,0,0,0,0],"sum_hessian":[1.875E4,9.49E3,9.26E3,4.745E3,4.745E3,4.668E3,4.592E3,1.912E3,2.833E3,2.3E1,1.889E3,1.876E3,9.57E2],"tree_param":{"num_deleted":"0","num_feature":"40","num_nodes":"13","size_leaf_vector":"1"}},{"base_weights":[9.306059E-4,1.43732605E1,-1.4728331E1,6.140865E-1,8.27392E0,-4.0879294E-1,-4.75357E-1,9.408489E0,8.237624E0,3.1866226E-1,2.1445605E-1,2.0668332E-1,2.4799792E-1],"categories":[0,1,0,1,3,1,1,3],"categories_nodes":[0,1,2,7],"categories_segments":[0,2,5,6],"categories_sizes":[2,3,1,2],"default_left":[1,1,1,0,0,0,0,1,0,0,0,0,0],"id":27,"left_children":[1,3,5,-1,7,-1,-1,9,11,-1,-1,-1,-1],"loss_changes":[3.969682E6,3.5273488E5,1.117875E4,0E0,1.1615625E2,0E0,0E0,3.0626074E2,1.215E2,0E0,0E0,0E0,0E0],"parents":[2147483647,0,0,1,1,2,2,4,4,7,7,8,8],"right_children":[2,4,6,-1,8,-1,-1,10,12,-1,-1,-1,-1],"split_conditions":[1E-45,1E-45,1E-45,6.140865E-1,6.864E-1,-4.0879294E-1,-4.75357E-1,1E-45,2.408E0,3.1866226E-1,2.1445605E-1,2.0668332E-1,2.4799792E-1],"split_indices":[28,28,28,0,21,0,0,0,34,0,0,0,0],"split_type":[1,1,1,0,0,0,0,1,0,0,0,0,0],"sum_hessian":[1.875E4,9.49E3,9.26E3,4.745E3,4.745E3,4.668E3,4.592E3,1.39E2,4.606E3,8.8E1,5.1E1,1.02E2,4.504E3],"tree_param":{"num_deleted":"0","num_feature":"40","num_nodes":"13","size_leaf_vector":"1"}},{"base_weights":[9.404815E-4,1.3942231E1,-1.4286576E1,5.956677E-1,8.025913E0,-3.965318E-1,-4.610994E-1,8.099256E0,7.5064416E0,2.4182884E-1,2.8889203E-1,1.6282366E-1,2.3417795E-1],"categories":[0,1,0,1,3,1],"categories_nodes":[0,1,2],"categories_segments":[0,2,5],"categories_sizes":[2,3,1],"default_left":[1,1,1,0,0,0,0,0,0,0,0,0,0],"id":28,"left_children":[1,3,5,-1,7,-1,-1,9,11,-1,-1,-1,-1],"loss_changes":[3.735144E6,3.3188375E5,1.051825E4,0E0,1.1846875E2,0E0,0E0,1.6359375E2,3.3051562E2,0E0,0E0,0E0,0E0],"parents":[2147483647,0,0,1,1,2,2,4,4,7,7,8,8],"right_children":[2,4,6,-1,8,-1,-1,10,12,-1,-1,-1,-1],"split_conditions":[1E-45,1E-45,1E-45,5.956677E-1,5.83759E3,-3.965318E-1,-4.610994E-1,5.62356E3,1.13706E3,2.4182884E-1,2.8889203E-1,1.6282366E-1,2.3417795E-1],"split_indices":[28,28,28,0,17,0,0,17,15,0,0,0,0],"split_type":[1,1,1,0,0,0,0,0,0,0,0,0,0],"sum_hessian":[1.875E4,9.49E3,9.26E3,4.745E3,4.745E3,4.668E3,4.592E3,4.145E3,6E2,4.05E3,9.5E1,7.8E1,5.22E2],"tree_param":{"num_deleted":"0","num_feature":"40","num_nodes":"13","size_leaf_vector":"1"}},{"base_weights":[9.4894646E-4,1.3524128E1,-1.3858071E1,5.778015E-1,7.785333E0,-3.8463837E-1,-4.4726944E-1,7.912993E0,7.490788E0,2.1585263E-1,2.4042787E-1,2.3090217E-1,2.0726758E-1],"categories":[0,1,0,1,3,1,0],"categories_nodes":[0,1,2,8],"categories_segments":[0,2,5,6],"categories_sizes":[2,3,1,1],"default_left":[1,1,1,0,0,0,0,0,1,0,0,0,0],"id":29,"left_children":[1,3,5,-1,7,-1,-1,9,11,-1,-1,-1,-1],"loss_changes":[3.5144625E6,3.1226525E5,9.896625E3,0E0,1.1759375E2,0E0,0E0,1.8023438E2,1.1961719E2,0E0,0E0,0E0,0E0],"parents":[2147483647,0,0,1,1,2,2,4,4,7,7,8,8],"right_children":[2,4,6,-1,8,-1,-1,10,12,-1,-1,-1,-1],"split_conditions":[1E-45,1E-45,1E-45,5.778015E-1,1.39658E3,-3.8463837E-1,-4.4726944E-1,2.3011E2,1E-45,2.1585263E-1,2.4042787E-1,2.3090217E-1,2.0726758E-1],"split_indices":[28,28,28,0,11,0,0,11,5,0,0,0,0],"split_type":[1,1,1,0,0,0,0,0,1,0,0,0,0],"sum_hessian":[1.875E4,9.49E3,9.26E3,4.745E3,4.745E3,4.668E3,4.592E3,3.292E3,1.453E3,4.16E2,2.876E3,1.064E3,3.89E2],"tree_param":{"num_deleted":"0","num_feature":"40","num_nodes":"13","size_leaf_vector":"1"}},{"base_weights":[9.538457E-4,1.3118558E1,-1.344242E1,5.6047106E-1,7.551963E0,-3.731017E-1,-4.3385425E-1,7.7855816E0,7.391566E0,3.2933325E-1,2.322262E-1,2.1401544E-1,2.2879347E-1],"categories":[0,1,0,1,3,1,0,1,3],"categories_nodes":[0,1,2,4],"categories_segments":[0,2,5,6],"categories_sizes":[2,3,1,3],"default_left":[1,1,1,0,1,0,0,0,0,0,0,0,0],"id":30,"left_children":[1,3,5,-1,7,-1,-1,9,11,-1,-1,-1,-1],"loss_changes":[3.306819E6,2.9380662E5,9.311875E3,0E0,1.1878125E2,0E0,0E0,1.8617188E2,1.15671875E2,0E0,0E0,0E0,0E0],"parents":[2147483647,0,0,1,1,2,2,4,4,7,7,8,8],"right_children":[2,4,6,-1,8,-1,-1,10,12,-1,-1,-1,-1],"split_conditions":[1E-45,1E-45,1E-45,5.6047106E-1,1E-45,-3.731017E-1,-4.3385425E-1,1.3939E2,8.294E0,3.2933325E-1,2.322262E-1,2.1401544E-1,2.2879347E-1],"split_indices":[28,28,28,0,0,0,0,27,20,0,0,0,0],"split_type":[1,1,1,0,1,0,0,0,0,0,0,0,0],"sum_hessian":[1.875E4,9.49E3,9.26E3,4.745E3,4.745E3,4.668E3,4.592E3,1.912E3,2.833E3,2.3E1,1.889E3,1.366E3,1.467E3],"tree_param":{"num_deleted":"0","num_feature":"40","num_nodes":"13","size_leaf_vector":"1"}},{"base_weights":[9.6620026E-4,1.2725167E1,-1.3039234E1,5.436605E-1,7.3256164E0,-3.6191103E-1,-4.2084146E-1,7.3672686E0,6.46353E0,1.91826E-1,2.222119E-1,1.9865707E-1,7.063968E-2],"categories":[0,1,0,1,3,1],"categories_nodes":[0,1,2],"categories_segments":[0,2,5],"categories_sizes":[2,3,1],"default_left":[1,1,1,0,0,0,0,0,0,0,0,0,0],"id":31,"left_children":[1,3,5,-1,7,-1,-1,9,11,-1,-1,-1,-1],"loss_changes":[3.111447E6,2.7643775E5,8.761375E3,0E0,1.21390625E2,0E0,0E0,1.263125E2,1.3122656E2,0E0,0E0,0E0,0E0],"parents":[2147483647,0,0,1,1,2,2,4,4,7,7,8,8],"right_children":[2,4,6,-1,8,-1,-1,10,12,-1,-1,-1,-1],"split_conditions":[1E-45,1E-45,1E-45,5.436605E-1,8.73019E3,-3.6191103E-1,-4.2084146E-1,3.558E0,1.9244E3,1.91826E-1,2.222119E-1,1.9865707E-1,7.063968E-2],"split_indices":[28,28,28,0,17,0,0,34,11,0,0,0,0],"split_type":[1,1,1,0,0,0,0,0,0,0,0,0,0],"sum_hessian":[1.875E4,9.49E3,9.26E3,4.745E3,4.745E3,4.668E3,4.592E3,4.519E3,2.26E2,1.84E2,4.335E3,2.17E2,9E0],"tree_param":{"num_deleted":"0","num_feature":"40","num_nodes":"13","size_leaf_vector":"1"}},{"base_weights":[9.602747E-4,1.2343541E1,-1.2648142E1,5.2735406E-1,7.1059923E0,-3.51056E-1,-4.0821895E-1,8.207672E0,7.0709496E0,2.813248E-1,1.8137142E-1,2.1681553E-1,2.0499274E-1],"categories":[0,1,0,1,3,1,1,3,0,3],"categories_nodes":[0,1,2,7,8],"categories_segments":[0,2,5,6,8],"categories_sizes":[2,3,1,2,2],"default_left":[1,1,1,0,0,0,0,1,1,0,0,0,0],"id":32,"left_children":[1,3,5,-1,7,-1,-1,9,11,-1,-1,-1,-1],"loss_changes":[2.9276105E6,2.6009862E5,8.243625E3,0E0,1.23671875E2,0E0,0E0,2.958379E2,1.20421875E2,0E0,0E0,0E0,0E0],"parents":[2147483647,0,0,1,1,2,2,4,4,7,7,8,8],"right_children":[2,4,6,-1,8,-1,-1,10,12,-1,-1,-1,-1],"split_conditions":[1E-45,1E-45,1E-45,5.2735406E-1,6.864E-1,-3.51056E-1,-4.0821895E-1,1E-45,1E-45,2.813248E-1,1.8137142E-1,2.1681553E-1,2.0499274E-1],"split_indices":[28,28,28,0,21,0,0,0,0,0,0,0,0],"split_type":[1,1,1,0,0,0,0,1,1,0,0,0,0],"sum_hessian":[1.875E4,9.49E3,9.26E3,4.745E3,4.745E3,4.668E3,4.592E3,1.39E2,4.606E3,8.8E1,5.1E1,2.762E3,1.844E3],"tree_param":{"num_deleted":"0","num_feature":"40","num_nodes":"13","size_leaf_vector":"1"}},{"base_weights":[9.666957E-4,1.1973386E1,-1.2268781E1,5.1153684E-1,6.8929996E0,-3.405266E-1,-3.9597505E-1,6.98267E0,6.4981713E0,2.1498622E-1,2.0046145E-1,2.0662735E-1,1.7043062E-1],"categories":[0,1,0,1,3,1,0],"categories_nodes":[0,1,2,8],"categories_segments":[0,2,5,6],"categories_sizes":[2,3,1,1],"default_left":[1,1,1,0,0,0,0,0,1,0,0,0,0],"id":33,"left_children":[1,3,5,-1,7,-1,-1,9,11,-1,-1,-1,-1],"loss_changes":[2.7546415E6,2.4472325E5,7.756625E3,0E0,1.213125E2,0E0,0E0,1.6335938E2,2.4376953E2,0E0,0E0,0E0,0E0],"parents":[2147483647,0,0,1,1,2,2,4,4,7,7,8,8],"right_children":[2,4,6,-1,8,-1,-1,10,12,-1,-1,-1,-1],"split_conditions":[1E-45,1E-45,1E-45,5.1153684E-1,9.76E0,-3.405266E-1,-3.9597505E-1,1.42657E3,1E-45,2.1498622E-1,2.0046145E-1,2.0662735E-1,1.7043062E-1],"split_indices":[28,28,28,0,35,0,0,15,2,0,0,0,0],"split_type":[1,1,1,0,0,0,0,0,1,0,0,0,0],"sum_hessian":[1.875E4,9.49E3,9.26E3,4.745E3,4.745E3,4.668E3,4.592E3,3.853E3,8.92E2,2.378E3,1.475E3,5.99E2,2.93E2],"tree_param":{"num_deleted":"0","num_feature":"40","num_nodes":"13","size_leaf_vector":"1"}},{"base_weights":[9.687161E-4,1.1614324E1,-1.1900797E1,4.96194E-1,6.6863794E0,-3.30313E-1,-3.840984E-1,6.8104386E0,6.400744E0,1.8379664E-1,2.072148E-1,1.6904572E-1,1.9640039E-1],"categories":[0,1,0,1,3,1],"categories_nodes":[0,1,2],"categories_segments":[0,2,5],"categories_sizes":[2,3,1],"default_left":[1,1,1,0,0,0,0,0,0,0,0,0,0],"id":34,"left_children":[1,3,5,-1,7,-1,-1,9,11,-1,-1,-1,-1],"loss_changes":[2.5918908E6,2.3025725E5,7.298125E3,0E0,1.23265625E2,0E0,0E0,1.741875E2,1.2440625E2,0E0,0E0,0E0,0E0],"parents":[2147483647,0,0,1,1,2,2,4,4,7,7,8,8],"right_children":[2,4,6,-1,8,-1,-1,10,12,-1,-1,-1,-1],"split_conditions":[1E-45,1E-45,1E-45,4.96194E-1,1.39658E3,-3.30313E-1,-3.840984E-1,2.3011E2,1.50402E3,1.8379664E-1,2.072148E-1,1.6904572E-1,1.9640039E-1],"split_indices":[28,28,28,0,11,0,0,11,11,0,0,0,0],"split_type":[1,1,1,0,0,0,0,0,0,0,0,0,0],"sum_hessian":[1.875E4,9.49E3,9.26E3,4.745E3,4.745E3,4.668E3,4.592E3,3.292E3,1.453E3,4.16E2,2.876E3,2.39E2,1.214E3],"tree_param":{"num_deleted":"0","num_feature":"40","num_nodes":"13","size_leaf_vector":"1"}},{"base_weights":[9.689381E-4,1.1266028E1,-1.1543851E1,4.8131132E-1,6.4859495E0,-3.2040575E-1,-3.7257797E-1,7.5529613E0,6.452095E0,2.606813E-1,1.6382307E-1,1.9811542E-1,1.8663856E-1],"categories":[0,1,0,1,3,1,1,3,0,3],"categories_nodes":[0,1,2,7,8],"categories_segments":[0,2,5,6,8],"categories_sizes":[2,3,1,2,2],"default_left":[1,1,1,0,0,0,0,1,1,0,0,0,0],"id":35,"left_children":[1,3,5,-1,7,-1,-1,9,11,-1,-1,-1,-1],"loss_changes":[2.4387555E6,2.1664638E5,6.86675E3,0E0,1.213125E2,0E0,0E0,2.8399854E2,1.18984375E2,0E0,0E0,0E0,0E0],"parents":[2147483647,0,0,1,1,2,2,4,4,7,7,8,8],"right_children":[2,4,6,-1,8,-1,-1,10,12,-1,-1,-1,-1],"split_conditions":[1E-45,1E-45,1E-45,4.8131132E-1,6.864E-1,-3.2040575E-1,-3.7257797E-1,1E-45,1E-45,2.606813E-1,1.6382307E-1,1.9811542E-1,1.8663856E-1],"split_indices":[28,28,28,0,21,0,0,0,0,0,0,0,0],"split_type":[1,1,1,0,0,0,0,1,1,0,0,0,0],"sum_hessian":[1.875E4,9.49E3,9.26E3,4.745E3,4.745E3,4.668E3,4.592E3,1.39E2,4.606E3,8.8E1,5.1E1,2.762E3,1.844E3],"tree_param":{"num_deleted":"0","num_feature":"40","num_nodes":"13","size_leaf_vector":"1"}},{"base_weights":[9.728278E-4,1.0928186E1,-1.1197611E1,4.6687514E-1,6.2915435E0,-3.1079563E-1,-3.6140308E-1,6.509508E0,6.136365E0,1.9729376E-1,1.178519E-1,1.8725416E-1,1.6314818E-1],"categories":[0,1,0,1,3,1],"categories_nodes":[0,1,2],"categories_segments":[0,2,5],"categories_sizes":[2,3,1],"default_left":[1,1,1,0,0,0,0,0,0,0,0,0,0],"id":36,"left_children":[1,3,5,-1,7,-1,-1,9,11,-1,-1,-1,-1],"loss_changes":[2.2946692E6,2.0383938E5,6.461125E3,0E0,1.19296875E2,0E0,0E0,3.1129688E2,1.7025E2,0E0,0E0,0E0,0E0],"parents":[2147483647,0,0,1,1,2,2,4,4,7,7,8,8],"right_children":[2,4,6,-1,8,-1,-1,10,12,-1,-1,-1,-1],"split_conditions":[1E-45,1E-45,1E-45,4.6687514E-1,2.03E0,-3.1079563E-1,-3.6140308E-1,1.93696E3,1.23679E2,1.9729376E-1,1.178519E-1,1.8725416E-1,1.6314818E-1],"split_indices":[28,28,28,0,31,0,0,15,34,0,0,0,0],"split_type":[1,1,1,0,0,0,0,0,0,0,0,0,0],"sum_hessian":[1.875E4,9.49E3,9.26E3,4.745E3,4.745E3,4.668E3,4.592E3,1.956E3,2.789E3,1.905E3,5.1E1,2.416E3,3.73E2],"tree_param":{"num_deleted":"0","num_feature":"40","num_nodes":"13","size_leaf_vector":"1"}},{"base_weights":[9.686212E-4,1.0600462E1,-1.0861756E1,4.528719E-1,6.102939E0,-3.0147377E-1,-3.5056338E-1,6.138817E0,5.209793E0,1.8617006E-1,1.6826504E-1,1.9605465E-2,1.6217786E-1],"categories":[0,1,0,1,3,1],"categories_nodes":[0,1,2],"categories_segments":[0,2,5],"categories_sizes":[2,3,1],"default_left":[1,1,1,0,0,0,0,0,0,0,0,0,0],"id":37,"left_children":[1,3,5,-1,7,-1,-1,9,11,-1,-1,-1,-1],"loss_changes":[2.1590935E6,1.9179075E5,6.07925E3,0E0,1.1896875E2,0E0,0E0,1.2546875E2,1.6565381E2,0E0,0E0,0E0,0E0],"parents":[2147483647,0,0,1,1,2,2,4,4,7,7,8,8],"right_children":[2,4,6,-1,8,-1,-1,10,12,-1,-1,-1,-1],"split_conditions":[1E-45,1E-45,1E-45,4.528719E-1,3.07233E3,-3.0147377E-1,-3.5056338E-1,1.33509E2,5.1308E1,1.8617006E-1,1.6826504E-1,1.9605465E-2,1.6217786E-1],"split_indices":[28,28,28,0,27,0,0,34,18,0,0,0,0],"split_type":[1,1,1,0,0,0,0,0,0,0,0,0,0],"sum_hessian":[1.875E4,9.49E3,9.26E3,4.745E3,4.745E3,4.668E3,4.592E3,4.556E3,1.89E2,4.036E3,5.2E2,8E0,1.81E2],"tree_param":{"num_deleted":"0","num_feature":"40","num_nodes":"13","size_leaf_vector":"1"}},{"base_weights":[9.576672E-4,1.0282554E1,-1.05359745E1,4.3928856E-1,5.9199667E0,-2.924315E-1,-1.1334959E1,7.1590457E0,5.89228E0,-9.566251E-2,-3.400805E-1,2.7283022E-1,1.2223876E-1,1.812222E-1,1.6996315E-1],"categories":[0,1,0,1,3,1,1,3,0,3],"categories_nodes":[0,1,2,7,8],"categories_segments":[0,2,5,6,8],"categories_sizes":[2,3,1,2,2],"default_left":[1,1,1,0,0,0,0,1,1,0,0,0,0,0,0],"id":38,"left_children":[1,3,5,-1,7,-1,9,11,13,-1,-1,-1,-1,-1,-1],"loss_changes":[2.0315255E6,1.8045481E5,5.72E3,0E0,1.193125E2,0E0,2E0,5.52584E2,1.21140625E2,0E0,0E0,0E0,0E0,0E0,0E0],"parents":[2147483647,0,0,1,1,2,2,4,4,6,6,7,7,8,8],"right_children":[2,4,6,-1,8,-1,10,12,14,-1,-1,-1,-1,-1,-1],"split_conditions":[1E-45,1E-45,1E-45,4.3928856E-1,6.262E-1,-2.924315E-1,2.252E1,1E-45,1E-45,-9.566251E-2,-3.400805E-1,2.7283022E-1,1.2223876E-1,1.812222E-1,1.6996315E-1],"split_indices":[28,28,28,0,21,0,29,0,0,0,0,0,0,0,0],"split_type":[1,1,1,0,0,0,0,1,1,0,0,0,0,0,0],"sum_hessian":[1.875E4,9.49E3,9.26E3,4.745E3,4.745E3,4.668E3,4.592E3,9.8E1,4.647E3,1E0,4.591E3,5.9E1,3.9E1,2.793E3,1.854E3],"tree_param":{"num_deleted":"0","num_feature":"40","num_nodes":"15","size_leaf_vector":"1"}},{"base_weights":[9.542165E-4,9.974205E0,-1.02199745E1,4.2611277E-1,5.7425275E0,-2.8366047E-1,-1.0995006E1,5.859849E0,5.472801E0,-9.422757E-2,-3.2988033E-1,1.5591341E-1,1.7861508E-1,1.7003289E-1,1.4778346E-1],"categories":[0,1,0,1,3,1,0],"categories_nodes":[0,1,2,8],"categories_segments":[0,2,5,6],"categories_sizes":[2,3,1,1],"default_left":[1,1,1,0,0,0,0,0,1,0,0,0,0,0,0],"id":39,"left_children":[1,3,5,-1,7,-1,9,11,13,-1,-1,-1,-1,-1,-1],"loss_changes":[1.9115018E6,1.6978738E5,5.382125E3,0E0,1.17E2,0E0,3.75E-1,1.7304688E2,1.2598828E2,0E0,0E0,0E0,0E0,0E0,0E0],"parents":[2147483647,0,0,1,1,2,2,4,4,6,6,7,7,8,8],"right_children":[2,4,6,-1,8,-1,10,12,14,-1,-1,-1,-1,-1,-1],"split_conditions":[1E-45,1E-45,1E-45,4.2611277E-1,1.39658E3,-2.8366047E-1,2.252E1,2.3011E2,1E-45,-9.422757E-2,-3.2988033E-1,1.5591341E-1,1.7861508E-1,1.7003289E-1,1.4778346E-1],"split_indices":[28,28,28,0,11,0,29,11,5,0,0,0,0,0,0],"split_type":[1,1,1,0,0,0,0,0,1,0,0,0,0,0,0],"sum_hessian":[1.875E4,9.49E3,9.26E3,4.745E3,4.745E3,4.668E3,4.592E3,3.292E3,1.453E3,1E0,4.591E3,4.16E2,2.876E3,1.064E3,3.89E2],"tree_param":{"num_deleted":"0","num_feature":"40","num_nodes":"15","size_leaf_vector":"1"}},{"base_weights":[9.4649626E-4,9.675095E0,-9.913452E0,4.133322E-1,5.5703907E0,-2.7515244E-1,-3.1995744E-1,5.6546984E0,5.2001863E0,1.7491019E-1,1.6103105E-1,1.6736805E-1,1.3227601E-1],"categories":[0,1,0,1,3,1,0],"categories_nodes":[0,1,2,8],"categories_segments":[0,2,5,6],"categories_sizes":[2,3,1,1],"default_left":[1,1,1,0,0,0,0,0,1,0,0,0,0],"id":40,"left_children":[1,3,5,-1,7,-1,-1,9,11,-1,-1,-1,-1],"loss_changes":[1.7985674E6,1.5975112E5,5.0643125E3,0E0,1.17625E2,0E0,0E0,1.6185938E2,2.419336E2,0E0,0E0,0E0,0E0],"parents":[2147483647,0,0,1,1,2,2,4,4,7,7,8,8],"right_children":[2,4,6,-1,8,-1,-1,10,12,-1,-1,-1,-1],"split_conditions":[1E-45,1E-45,1E-45,4.133322E-1,9.76E0,-2.7515244E-1,-3.1995744E-1,1.42657E3,1E-45,1.7491019E-1,1.6103105E-1,1.6736805E-1,1.3227601E-1],"split_indices":[28,28,28,0,35,0,0,15,2,0,0,0,0],"split_type":[1,1,1,0,0,0,0,0,1,0,0,0,0],"sum_hessian":[1.875E4,9.49E3,9.26E3,4.745E3,4.745E3,4.668E3,4.592E3,3.853E3,8.92E2,2.378E3,1.475E3,5.99E2,2.93E2],"tree_param":{"num_deleted":"0","num_feature":"40","num_nodes":"13","size_leaf_vector":"1"}},{"base_weights":[9.430652E-4,9.384954E0,-9.616113E0,1.3364497E1,5.4034142E0,-8.896655E0,-1.034536E1,4.038412E-1,3.886864E-1,6.4096894E0,5.37164E0,-2.671688E-1,-7.263931E0,-8.80148E-2,-3.103894E-1,2.2431137E-1,1.3373043E-1,1.2484335E-1,1.6194285E-1,-1.0926821E-1,-2.3449409E-1],"categories":[0,1,0,1,3,1,1,3,1,2,3,4],"categories_nodes":[0,1,2,9,12],"categories_segments":[0,2,5,6,8],"categories_sizes":[2,3,1,2,4],"default_left":[1,1,1,0,0,0,0,0,0,1,0,0,1,0,0,0,0,0,0,0,0],"id":41,"left_children":[1,3,5,7,9,11,13,-1,-1,15,17,-1,19,-1,-1,-1,-1,-1,-1,-1,-1],"loss_changes":[1.6923038E6,1.50308E5,4.7649375E3,1.06875E1,1.16140625E2,2.125E0,7.8125E-1,0E0,0E0,2.5716504E2,1.24078125E2,0E0,3.241858E1,0E0,0E0,0E0,0E0,0E0,0E0,0E0,0E0],"parents":[2147483647,0,0,1,1,2,2,3,3,4,4,5,5,6,6,9,9,10,10,12,12],"right_children":[2,4,6,8,10,12,14,-1,-1,16,18,-1,20,-1,-1,-1,-1,-1,-1,-1,-1],"split_conditions":[1E-45,1E-45,1E-45,1.60271E3,6.864E-1,2.17388E1,2.252E1,4.038412E-1,3.886864E-1,1E-45,2.408E0,-2.671688E-1,1E-45,-8.80148E-2,-3.103894E-1,2.2431137E-1,1.3373043E-1,1.2484335E-1,1.6194285E-1,-1.0926821E-1,-2.3449409E-1],"split_indices":[28,28,28,11,21,21,29,0,0,0,34,0,0,0,0,0,0,0,0,0,0],"split_type":[1,1,1,0,0,0,0,0,0,1,0,0,1,0,0,0,0,0,0,0,0],"sum_hessian":[1.875E4,9.49E3,9.26E3,4.745E3,4.745E3,4.668E3,4.592E3,3.809E3,9.36E2,1.39E2,4.606E3,4.638E3,3E1,1E0,4.591E3,8.8E1,5.1E1,1.02E2,4.504E3,5E0,2.5E1],"tree_param":{"num_deleted":"0","num_feature":"40","num_nodes":"21","size_leaf_vector":"1"}},{"base_weights":[9.3813316E-4,9.10356E0,-9.327741E0,1.2963731E1,5.241451E0,-8.629889E0,-3.010526E-1,3.917292E-1,1.2567941E1,5.4518876E0,5.0975175E0,-8.638516E0,-7.0571995E0,3.7889645E-1,3.056872E-1,1.6899566E-1,1.442255E-1,1.4504115E-1,1.601612E-1,-2.6016727E-1,-2.450552E-1,-1.065365E-1,-2.2772986E-1],"categories":[0,1,0,1,3,1,0,1,3,1,2,3,4],"categories_nodes":[0,1,2,4,12],"categories_segments":[0,2,5,6,9],"categories_sizes":[2,3,1,3,4],"default_left":[1,1,1,0,1,0,0,0,0,0,0,0,1,0,0,0,0,0,0,0,0,0,0],"id":42,"left_children":[1,3,5,7,9,11,-1,-1,13,15,17,19,21,-1,-1,-1,-1,-1,-1,-1,-1,-1,-1],"loss_changes":[1.5923342E6,1.4142588E5,4.4829375E3,9.75E0,1.1490625E2,8.4375E-1,0E0,0E0,7.078125E0,1.9535938E2,1.528125E2,1E0,2.9944336E1,0E0,0E0,0E0,0E0,0E0,0E0,0E0,0E0,0E0,0E0],"parents":[2147483647,0,0,1,1,2,2,3,3,4,4,5,5,8,8,9,9,10,10,11,11,12,12],"right_children":[2,4,6,8,10,12,-1,-1,14,16,18,20,22,-1,-1,-1,-1,-1,-1,-1,-1,-1,-1],"split_conditions":[1E-45,1E-45,1E-45,1.60271E3,1E-45,2.17388E1,-3.010526E-1,3.917292E-1,1.68492E1,1.51E1,8.294E0,1.554E1,1E-45,3.7889645E-1,3.056872E-1,1.6899566E-1,1.442255E-1,1.4504115E-1,1.601612E-1,-2.6016727E-1,-2.450552E-1,-1.065365E-1,-2.2772986E-1],"split_indices":[28,28,28,11,0,21,0,0,21,31,20,31,0,0,0,0,0,0,0,0,0,0,0],"split_type":[1,1,1,0,1,0,0,0,0,0,0,0,1,0,0,0,0,0,0,0,0,0,0],"sum_hessian":[1.875E4,9.49E3,9.26E3,4.745E3,4.745E3,4.668E3,4.592E3,3.809E3,9.36E2,1.912E3,2.833E3,4.638E3,3E1,9.08E2,2.8E1,1.486E3,4.26E2,1.366E3,1.467E3,4.311E3,3.27E2,5E0,2.5E1],"tree_param":{"num_deleted":"0","num_feature":"40","num_nodes":"23","size_leaf_vector":"1"}},{"base_weights":[9.3951024E-4,8.830633E0,-9.048032E0,1.2575046E1,5.0843396E0,-8.371173E0,-9.734099E0,3.7998036E-1,1.2191634E1,5.1222205E0,4.3072186E0,-8.377117E0,-6.364377E0,-8.217879E-2,-2.9205012E-1,3.1198516E-1,3.681712E-1,1.5561807E-1,1.3835032E-1,1.474544E-1,9.4485916E-2,-2.5156447E-1,-2.0569088E-1,-2.2072607E-1,-1.1215009E-1],"categories":[0,1,0,1,3,1,0],"categories_nodes":[0,1,2,10],"categories_segments":[0,2,5,6],"categories_sizes":[2,3,1,1],"default_left":[1,1,1,0,0,0,0,0,0,0,1,0,0,0,0,0,0,0,0,0,0,0,0,0,0],"id":43,"left_children":[1,3,5,7,9,11,13,-1,15,17,19,21,23,-1,-1,-1,-1,-1,-1,-1,-1,-1,-1,-1,-1],"loss_changes":[1.4982782E6,1.3307081E5,4.2171875E3,8.6875E0,1.1671094E2,9.0625E-1,1.125E0,0E0,5.6875E0,1.2521094E2,1.4347412E2,1.875E-1,1.833081E1,0E0,0E0,0E0,0E0,0E0,0E0,0E0,0E0,0E0,0E0,0E0,0E0],"parents":[2147483647,0,0,1,1,2,2,3,3,4,4,5,5,6,6,8,8,9,9,10,10,11,11,12,12],"right_children":[2,4,6,8,10,12,14,-1,16,18,20,22,24,-1,-1,-1,-1,-1,-1,-1,-1,-1,-1,-1,-1],"split_conditions":[1E-45,1E-45,1E-45,1.60271E3,8.73019E3,2.38475E3,2.252E1,3.7998036E-1,1.29E0,1.33509E2,1E-45,2.17388E1,1.65353E3,-8.217879E-2,-2.9205012E-1,3.1198516E-1,3.681712E-1,1.5561807E-1,1.3835032E-1,1.474544E-1,9.4485916E-2,-2.5156447E-1,-2.0569088E-1,-2.2072607E-1,-1.1215009E-1],"split_indices":[28,28,28,11,17,15,29,0,35,34,13,21,16,0,0,0,0,0,0,0,0,0,0,0,0],"split_type":[1,1,1,0,0,0,0,0,0,0,1,0,0,0,0,0,0,0,0,0,0,0,0,0,0],"sum_hessian":[1.875E4,9.49E3,9.26E3,4.745E3,4.745E3,4.668E3,4.592E3,3.809E3,9.36E2,4.519E3,2.26E2,4.651E3,1.7E1,1E0,4.591E3,4.6E1,8.9E2,4E3,5.19E2,1.46E2,8E1,4.621E3,3E1,1.1E1,6E0],"tree_param":{"num_deleted":"0","num_feature":"40","num_nodes":"25","size_leaf_vector":"1"}},{"base_weights":[9.341816E-4,8.565885E0,-8.776718E0,1.2198017E1,4.9319253E0,-2.4360628E-1,-2.8326473E-1,3.6858386E-1,1.1826613E1,6.1145177E0,4.905654E0,3.565943E-1,2.8616852E-1,2.386857E-1,9.589939E-2,1.5140836E-1,1.4070426E-1],"categories":[0,1,0,1,3,1,1,3,0,3],"categories_nodes":[0,1,2,9,10],"categories_segments":[0,2,5,6,8],"categories_sizes":[2,3,1,2,2],"default_left":[1,1,1,0,0,0,0,0,0,1,1,0,0,0,0,0,0],"id":44,"left_children":[1,3,5,7,9,-1,-1,-1,11,13,15,-1,-1,-1,-1,-1,-1],"loss_changes":[1.4097782E6,1.2521006E5,3.967375E3,7.5625E0,1.1635156E2,0E0,0E0,0E0,1.27890625E1,5.054541E2,1.16890625E2,0E0,0E0,0E0,0E0,0E0,0E0],"parents":[2147483647,0,0,1,1,2,2,3,3,4,4,8,8,9,9,10,10],"right_children":[2,4,6,8,10,-1,-1,-1,12,14,16,-1,-1,-1,-1,-1,-1],"split_conditions":[1E-45,1E-45,1E-45,1.60271E3,6.262E-1,-2.4360628E-1,-2.8326473E-1,3.6858386E-1,1.68492E1,1E-45,1E-45,3.565943E-1,2.8616852E-1,2.386857E-1,9.589939E-2,1.5140836E-1,1.4070426E-1],"split_indices":[28,28,28,11,21,0,0,0,21,0,0,0,0,0,0,0,0],"split_type":[1,1,1,0,0,0,0,0,0,1,1,0,0,0,0,0,0],"sum_hessian":[1.875E4,9.49E3,9.26E3,4.745E3,4.745E3,4.668E3,4.592E3,3.809E3,9.36E2,9.8E1,4.647E3,9.08E2,2.8E1,5.9E1,3.9E1,2.793E3,1.854E3],"tree_param":{"num_deleted":"0","num_feature":"40","num_nodes":"17","size_leaf_vector":"1"}},{"base_weights":[9.6588687E-4,8.309081E0,-8.5134735E0,1.1832291E1,4.7841005E0,-7.876655E0,-9.158955E0,1.1917643E1,1.1472501E1,4.987278E0,4.6398344E0,-7.907872E0,-7.4447374E0,-7.669712E-2,-2.747944E-1,3.8402307E-1,3.561396E-1,2.9235432E-1,3.465189E-1,1.5155756E-1,7.5603254E-2,1.3356064E-1,1.5055451E-1,-2.375203E-1,-1.8295898E-1,-2.2531602E-1,-1.3695055E-1],"categories":[0,1,0,1,3,1,2],"categories_nodes":[0,1,2,10],"categories_segments":[0,2,5,6],"categories_sizes":[2,3,1,1],"default_left":[1,1,1,0,0,0,0,0,0,0,1,0,0,0,0,0,0,0,0,0,0,0,0,0,0,0,0],"id":45,"left_children":[1,3,5,7,9,11,13,15,17,19,21,23,25,-1,-1,-1,-1,-1,-1,-1,-1,-1,-1,-1,-1,-1,-1],"loss_changes":[1.3264968E6,1.1781275E5,3.732875E3,6.6875E0,1.1500781E2,2.5625E0,1.46875E0,1.4375E0,1.17578125E1,2.986172E2,1.751211E2,2.4625E1,2.741211E1,0E0,0E0,0E0,0E0,0E0,0E0,0E0,0E0,0E0,0E0,0E0,0E0,0E0,0E0],"parents":[2147483647,0,0,1,1,2,2,3,3,4,4,5,5,6,6,7,7,8,8,9,9,10,10,11,11,12,12],"right_children":[2,4,6,8,10,12,14,16,18,20,22,24,26,-1,-1,-1,-1,-1,-1,-1,-1,-1,-1,-1,-1,-1,-1],"split_conditions":[1E-45,1E-45,1E-45,1.60271E3,2.03E0,1.554E1,2.252E1,5.2961E2,1.29E0,1.93696E3,1E-45,2.17388E1,1.759E1,-7.669712E-2,-2.747944E-1,3.8402307E-1,3.561396E-1,2.9235432E-1,3.465189E-1,1.5155756E-1,7.5603254E-2,1.3356064E-1,1.5055451E-1,-2.375203E-1,-1.8295898E-1,-2.2531602E-1,-1.3695055E-1],"split_indices":[28,28,28,11,31,31,29,15,35,15,13,21,35,0,0,0,0,0,0,0,0,0,0,0,0,0,0],"split_type":[1,1,1,0,0,0,0,0,0,0,1,0,0,0,0,0,0,0,0,0,0,0,0,0,0,0,0],"sum_hessian":[1.875E4,9.49E3,9.26E3,4.745E3,4.745E3,4.668E3,4.592E3,3.809E3,9.36E2,1.956E3,2.789E3,4.337E3,3.31E2,1E0,4.591E3,1.76E2,3.633E3,4.6E1,8.9E2,1.905E3,5.1E1,1.873E3,9.16E2,4.311E3,2.6E1,3.22E2,9E0],"tree_param":{"num_deleted":"0","num_feature":"40","num_nodes":"27","size_leaf_vector":"1"}},{"base_weights":[9.772561E-4,8.06001E0,-8.258194E0,1.1477613E1,4.6406875E0,-7.640525E0,-8.884263E0,3.462687E-1,1.10250845E1,4.753178E0,4.382659E0,-7.646221E0,-5.7383857E0,-7.554666E-2,-2.665524E-1,2.615357E-1,3.351E-1,1.4631316E-1,1.2816958E-1,1.0939228E-1,1.3573204E-1,-2.4350145E-1,-2.2846754E-1,-2.0145564E-1,-9.689439E-2],"categories":[0,1,0,1,3,1],"categories_nodes":[0,1,2],"categories_segments":[0,2,5],"categories_sizes":[2,3,1],"default_left":[1,1,1,0,0,0,0,0,0,0,0,0,0,0,0,0,0,0,0,0,0,0,0,0,0],"id":46,"left_children":[1,3,5,7,9,11,13,-1,15,17,19,21,23,-1,-1,-1,-1,-1,-1,-1,-1,-1,-1,-1,-1],"loss_changes":[1.2481505E6,1.10855875E5,3.51175E3,9.4375E0,1.16015625E2,5.375E0,3.4375E-1,0E0,1.0659375E2,1.7447656E2,1.3442383E2,3.65625E0,2.1423462E1,0E0,0E0,0E0,0E0,0E0,0E0,0E0,0E0,0E0,0E0,0E0,0E0],"parents":[2147483647,0,0,1,1,2,2,3,3,4,4,5,5,6,6,8,8,9,9,10,10,11,11,12,12],"right_children":[2,4,6,8,10,12,14,-1,16,18,20,22,24,-1,-1,-1,-1,-1,-1,-1,-1,-1,-1,-1,-1],"split_conditions":[1E-45,1E-45,1E-45,4.5229E1,1.39658E3,2.38475E3,2.252E1,3.462687E-1,4.6889E1,1.31982E3,1.50402E3,3.9682E2,1.65353E3,-7.554666E-2,-2.665524E-1,2.615357E-1,3.351E-1,1.4631316E-1,1.2816958E-1,1.0939228E-1,1.3573204E-1,-2.4350145E-1,-2.2846754E-1,-2.0145564E-1,-9.689439E-2],"split_indices":[28,28,28,18,11,15,29,0,18,16,11,16,16,0,0,0,0,0,0,0,0,0,0,0,0],"split_type":[1,1,1,0,0,0,0,0,0,0,0,0,0,0,0,0,0,0,0,0,0,0,0,0,0],"sum_hessian":[1.875E4,9.49E3,9.26E3,4.745E3,4.745E3,4.668E3,4.592E3,4.13E3,6.15E2,3.292E3,1.453E3,4.651E3,1.7E1,1E0,4.591E3,4E1,5.75E2,2.61E3,6.82E2,2.39E2,1.214E3,2.68E2,4.383E3,1.1E1,6E0],"tree_param":{"num_deleted":"0","num_feature":"40","num_nodes":"25","size_leaf_vector":"1"}},{"base_weights":[9.6698967E-4,7.8183665E0,-8.01057E0,1.1133486E1,4.5015783E0,-7.4114757E0,-2.585343E-1,1.12162695E1,1.0784887E1,3.676334E0,4.535165E0,-7.441693E0,-6.994028E0,3.6225238E-1,3.3513975E-1,3.2527417E-1,2.58136E-1,1.1577845E-1,-3.2856673E-4,1.3891621E-1,1.23394646E-1,-2.2352502E-1,-1.7107333E-1,-2.1172345E-1,-1.2708424E-1],"categories":[0,1,0,1,3,1,3],"categories_nodes":[0,1,2,10],"categories_segments":[0,2,5,6],"categories_sizes":[2,3,1,1],"default_left":[1,1,1,0,0,0,0,0,0,0,1,0,0,0,0,0,0,0,0,0,0,0,0,0,0],"id":47,"left_children":[1,3,5,7,9,11,-1,13,15,17,19,21,23,-1,-1,-1,-1,-1,-1,-1,-1,-1,-1,-1,-1],"loss_changes":[1.1744261E6,1.04307125E5,3.303625E3,1.375E1,1.14046875E2,5.40625E0,0E0,9.875E0,2.2414062E1,1.2927222E2,1.6344531E2,2.515625E1,2.7042969E1,0E0,0E0,0E0,0E0,0E0,0E0,0E0,0E0,0E0,0E0,0E0,0E0],"parents":[2147483647,0,0,1,1,2,2,3,3,4,4,5,5,7,7,8,8,9,9,10,10,11,11,12,12],"right_children":[2,4,6,8,10,12,-1,14,16,18,20,22,24,-1,-1,-1,-1,-1,-1,-1,-1,-1,-1,-1,-1],"split_conditions":[1E-45,1E-45,1E-45,1.60271E3,3.558E0,1.554E1,-2.585343E-1,5.2961E2,1.68492E1,2.2543E3,1E-45,2.17388E1,1.759E1,3.6225238E-1,3.3513975E-1,3.2527417E-1,2.58136E-1,1.1577845E-1,-3.2856673E-4,1.3891621E-1,1.23394646E-1,-2.2352502E-1,-1.7107333E-1,-2.1172345E-1,-1.2708424E-1],"split_indices":[28,28,28,11,34,31,0,15,21,15,0,21,35,0,0,0,0,0,0,0,0,0,0,0,0],"split_type":[1,1,1,0,0,0,0,0,0,0,1,0,0,0,0,0,0,0,0,0,0,0,0,0,0],"sum_hessian":[1.875E4,9.49E3,9.26E3,4.745E3,4.745E3,4.668E3,4.592E3,3.809E3,9.36E2,1.9E2,4.555E3,4.337E3,3.31E2,1.76E2,3.633E3,9.08E2,2.8E1,1.81E2,9E0,3.707E3,8.48E2,4.311E3,2.6E1,3.22E2,9E0],"tree_param":{"num_deleted":"0","num_feature":"40","num_nodes":"25","size_leaf_vector":"1"}},{"base_weights":[9.741873E-4,7.5839934E0,-7.7703614E0,1.0799757E1,4.3666115E0,-7.1892915E0,-8.359332E0,3.2585582E-1,1.0365581E1,4.446582E0,4.0164757E0,-7.652171E0,-7.159343E0,-7.053545E-2,-2.508032E-1,1.6406502E-1,3.1262556E-1,1.3222966E-1,1.7380527E-1,1.3152295E-1,9.7566694E-2,-2.323641E-1,-1.0882818E-1,-7.672595E-2,-2.1485633E-1],"categories":[0,1,0,1,3,1,0],"categories_nodes":[0,1,2,10],"categories_segments":[0,2,5,6],"categories_sizes":[2,3,1,1],"default_left":[1,1,1,0,0,0,0,0,0,0,1,0,0,0,0,0,0,0,0,0,0,0,0,0,0],"id":48,"left_children":[1,3,5,7,9,11,13,-1,15,17,19,21,23,-1,-1,-1,-1,-1,-1,-1,-1,-1,-1,-1,-1],"loss_changes":[1.105059E6,9.8148375E4,3.1078125E3,1.325E1,1.141875E2,8.4375E0,6.5625E-1,0E0,1.08140625E2,1.7550781E2,2.3587207E2,7.1771484E1,3.2046875E1,0E0,0E0,0E0,0E0,0E0,0E0,0E0,0E0,0E0,0E0,0E0,0E0],"parents":[2147483647,0,0,1,1,2,2,3,3,4,4,5,5,6,6,8,8,9,9,10,10,11,11,12,12],"right_children":[2,4,6,8,10,12,14,-1,16,18,20,22,24,-1,-1,-1,-1,-1,-1,-1,-1,-1,-1,-1,-1],"split_conditions":[1E-45,1E-45,1E-45,4.5229E1,9.76E0,3.9682E2,2.252E1,3.2585582E-1,1.62798E3,5.62356E3,1E-45,3.6941E1,8.2562E2,-7.053545E-2,-2.508032E-1,1.6406502E-1,3.1262556E-1,1.3222966E-1,1.7380527E-1,1.3152295E-1,9.7566694E-2,-2.323641E-1,-1.0882818E-1,-7.672595E-2,-2.1485633E-1],"split_indices":[28,28,28,18,35,16,29,0,27,17,2,18,37,0,0,0,0,0,0,0,0,0,0,0,0],"split_type":[1,1,1,0,0,0,0,0,0,0,1,0,0,0,0,0,0,0,0,0,0,0,0,0,0],"sum_hessian":[1.875E4,9.49E3,9.26E3,4.745E3,4.745E3,4.668E3,4.592E3,4.13E3,6.15E2,3.853E3,8.92E2,2.68E2,4.4E3,1E0,4.591E3,8E0,6.07E2,3.749E3,1.04E2,5.99E2,2.93E2,2.61E2,7E0,3E0,4.397E3],"tree_param":{"num_deleted":"0","num_feature":"40","num_nodes":"25","size_leaf_vector":"1"}},{"base_weights":[9.650787E-4,7.3566155E0,-7.537355E0,1.0475932E1,4.2357283E0,-6.973749E0,-8.1086235E0,1.0556201E1,1.0138255E1,5.3842707E0,4.2103324E0,-6.9792094E0,-5.1696043E0,-8.235892E0,-7.987928E0,3.1250972E-1,3.245718E-1,2.544851E-1,3.0642262E-1,2.3342124E-1,9.723902E-2,1.3034421E-1,1.20163865E-1,-2.1025138E-1,-1.9730827E-1,-1.8388961E-1,-8.3130136E-2,-2.4504165E-1,-2.6570177E-1,-2.4392588E-1,-2.330567E-1],"categories":[0,1,0,1,3,1,0,1,2,3,0,3,0],"categories_nodes":[0,1,2,7,9,10,14],"categories_segments":[0,2,5,6,7,10,12],"categories_sizes":[2,3,1,1,3,2,1],"default_left":[1,1,1,0,0,0,0,1,0,1,1,0,0,0,1,0,0,0,0,0,0,0,0,0,0,0,0,0,0,0,0],"id":49,"left_children":[1,3,5,7,9,11,13,15,17,19,21,23,25,27,29,-1,-1,-1,-1,-1,-1,-1,-1,-1,-1,-1,-1,-1,-1,-1,-1],"loss_changes":[1.03978425E6,9.234934E4,2.9236875E3,1.959375E1,1.1480469E2,8.6875E0,3.15625E0,2.459375E1,2.9109375E1,4.820923E2,1.098125E2,7.140625E0,2.3574585E1,1.875E1,1.0234375E1,0E0,0E0,0E0,0E0,0E0,0E0,0E0,0E0,0E0,0E0,0E0,0E0,0E0,0E0,0E0,0E0],"parents":[2147483647,0,0,1,1,2,2,3,3,4,4,5,5,6,6,7,7,8,8,9,9,10,10,11,11,12,12,13,13,14,14],"right_children":[2,4,6,8,10,12,14,16,18,20,22,24,26,28,30,-1,-1,-1,-1,-1,-1,-1,-1,-1,-1,-1,-1,-1,-1,-1,-1],"split_conditions":[1E-45,1E-45,1E-45,1.60271E3,6.262E-1,2.38475E3,3.7122E0,1E-45,1.29E0,1E-45,1E-45,1.554E1,1.65353E3,1.3169E0,1E-45,3.1250972E-1,3.245718E-1,2.544851E-1,3.0642262E-1,2.3342124E-1,9.723902E-2,1.3034421E-1,1.20163865E-1,-2.1025138E-1,-1.9730827E-1,-1.8388961E-1,-8.3130136E-2,-2.4504165E-1,-2.6570177E-1,-2.4392588E-1,-2.330567E-1],"split_indices":[28,28,28,11,21,15,21,14,35,0,0,31,16,23,4,0,0,0,0,0,0,0,0,0,0,0,0,0,0,0,0],"split_type":[1,1,1,0,0,0,0,1,0,1,1,0,0,0,1,0,0,0,0,0,0,0,0,0,0,0,0,0,0,0,0],"sum_hessian":[1.875E4,9.49E3,9.26E3,4.745E3,4.745E3,4.668E3,4.592E3,3.809E3,9.36E2,9.8E1,4.647E3,4.651E3,1.7E1,2.202E3,2.39E3,2.517E3,1.292E3,4.6E1,8.9E2,4.5E1,5.3E1,2.793E3,1.854E3,4.321E3,3.3E2,1.1E1,6E0,1.998E3,2.04E2,1.425E3,9.65E2],"tree_param":{"num_deleted":"0","num_feature":"40","num_nodes":"31","size_leaf_vector":"1"}},{"base_weights":[9.4275514E-4,7.136108E0,-7.311416E0,1.016191E1,4.108781E0,-6.7646837E0,-7.8655815E0,1.0900293E1,1.0122729E1,4.218252E0,3.8579583E0,-7.215234E0,-6.735585E0,-7.8973866E0,-7.4218397E0,3.2786041E-1,6.6195354E-2,3.0123457E-1,3.1316367E-1,1.3500586E-1,1.205476E-1,2.4686499E-1,1.1493173E-1,-2.1916004E-1,-1.0050091E-1,-7.0268996E-2,-2.021408E-1,-6.580179E-2,-2.3694555E-1,-1.7779413E-1,-2.2596255E-1],"categories":[0,1,0,1,3,1],"categories_nodes":[0,1,2],"categories_segments":[0,2,5],"categories_sizes":[2,3,1],"default_left":[1,1,1,0,0,0,0,0,0,0,0,0,0,0,0,0,0,0,0,0,0,0,0,0,0,0,0,0,0,0,0],"id":50,"left_children":[1,3,5,7,9,11,13,15,17,19,21,23,25,27,29,-1,-1,-1,-1,-1,-1,-1,-1,-1,-1,-1,-1,-1,-1,-1,-1],"loss_changes":[9.783835E5,8.689525E4,2.7512188E3,2.484375E1,1.13234375E2,1.121875E1,4.6875E0,3.034961E1,9.71875E0,1.667539E2,1.3822852E2,6.8143555E1,3.053125E1,1.125E0,7.4277344E0,0E0,0E0,0E0,0E0,0E0,0E0,0E0,0E0,0E0,0E0,0E0,0E0,0E0,0E0,0E0,0E0],"parents":[2147483647,0,0,1,1,2,2,3,3,4,4,5,5,6,6,7,7,8,8,9,9,10,10,11,11,12,12,13,13,14,14],"right_children":[2,4,6,8,10,12,14,16,18,20,22,24,26,28,30,-1,-1,-1,-1,-1,-1,-1,-1,-1,-1,-1,-1,-1,-1,-1,-1],"split_conditions":[1E-45,1E-45,1E-45,5.2961E2,1.39658E3,3.9682E2,1.70166E3,4.3953E1,1E0,8.0289E2,2.5688E2,3.6941E1,8.2562E2,2.252E1,5.99E0,3.2786041E-1,6.6195354E-2,3.0123457E-1,3.1316367E-1,1.3500586E-1,1.205476E-1,2.4686499E-1,1.1493173E-1,-2.1916004E-1,-1.0050091E-1,-7.0268996E-2,-2.021408E-1,-6.580179E-2,-2.3694555E-1,-1.7779413E-1,-2.2596255E-1],"split_indices":[28,28,28,15,11,16,16,18,39,16,16,18,37,29,34,0,0,0,0,0,0,0,0,0,0,0,0,0,0,0,0],"split_type":[1,1,1,0,0,0,0,0,0,0,0,0,0,0,0,0,0,0,0,0,0,0,0,0,0,0,0,0,0,0,0],"sum_hessian":[1.875E4,9.49E3,9.26E3,4.745E3,4.745E3,4.668E3,4.592E3,2.25E2,4.52E3,3.292E3,1.453E3,2.68E2,4.4E3,4.269E3,3.23E2,2.24E2,1E0,3.619E3,9.01E2,1.357E3,1.935E3,7E0,1.446E3,2.61E2,7E0,3E0,4.397E3,1E0,4.268E3,2.6E1,2.97E2],"tree_param":{"num_deleted":"0","num_feature":"40","num_nodes":"31","size_leaf_vector":"1"}},{"base_weights":[9.32147E-4,6.9221992E0,-7.0922165E0,9.85727E0,3.9856489E0,-6.561872E0,-7.6297703E0,9.935076E0,9.530271E0,3.1841092E0,4.018355E0,-6.497365E0,-6.747864E0,-7.753058E0,-7.5129437E0,2.9399952E-1,3.057118E-1,2.8756526E-1,2.240029E-1,1.02591194E-1,1.1618447E-2,1.2328027E-1,1.0848349E-1,-8.8969685E-2,-1.9501603E-1,-2.036196E-1,-1.3700949E-1,-2.3061474E-1,-2.5072062E-1,-2.2954038E-1,-2.1902262E-1],"categories":[0,1,0,1,3,1,3,0,3,0],"categories_nodes":[0,1,2,5,7,10,14],"categories_segments":[0,2,5,6,7,8,9],"categories_sizes":[2,3,1,1,1,1,1],"default_left":[1,1,1,0,0,1,0,1,0,0,1,0,0,0,1,0,0,0,0,0,0,0,0,0,0,0,0,0,0,0,0],"id":51,"left_children":[1,3,5,7,9,11,13,15,17,19,21,23,25,27,29,-1,-1,-1,-1,-1,-1,-1,-1,-1,-1,-1,-1,-1,-1,-1,-1],"loss_changes":[9.2060275E5,8.176209E4,2.5887188E3,2.4125E1,1.1089844E2,1.0859375E1,6.40625E0,2.95E1,3.3515625E1,1.2414966E2,1.5111719E2,1.8859375E1,6.905859E1,2.1890625E1,1.2859375E1,0E0,0E0,0E0,0E0,0E0,0E0,0E0,0E0,0E0,0E0,0E0,0E0,0E0,0E0,0E0,0E0],"parents":[2147483647,0,0,1,1,2,2,3,3,4,4,5,5,6,6,7,7,8,8,9,9,10,10,11,11,12,12,13,13,14,14],"right_children":[2,4,6,8,10,12,14,16,18,20,22,24,26,28,30,-1,-1,-1,-1,-1,-1,-1,-1,-1,-1,-1,-1,-1,-1,-1,-1],"split_conditions":[1E-45,1E-45,1E-45,1.60271E3,3.558E0,1E-45,3.7122E0,1E-45,1.68492E1,2.162E2,1E-45,1.443E1,3.69567E3,1.3169E0,1E-45,2.9399952E-1,3.057118E-1,2.8756526E-1,2.240029E-1,1.02591194E-1,1.1618447E-2,1.2328027E-1,1.0848349E-1,-8.8969685E-2,-1.9501603E-1,-2.036196E-1,-1.3700949E-1,-2.3061474E-1,-2.5072062E-1,-2.2954038E-1,-2.1902262E-1],"split_indices":[28,28,28,11,34,5,21,14,21,11,0,29,37,23,4,0,0,0,0,0,0,0,0,0,0,0,0,0,0,0,0],"split_type":[1,1,1,0,0,1,0,1,0,0,1,0,0,0,1,0,0,0,0,0,0,0,0,0,0,0,0,0,0,0,0],"sum_hessian":[1.875E4,9.49E3,9.26E3,4.745E3,4.745E3,4.668E3,4.592E3,3.809E3,9.36E2,1.9E2,4.555E3,3.493E3,1.175E3,2.202E3,2.39E3,2.517E3,1.292E3,9.08E2,2.8E1,1.75E2,1.5E1,3.707E3,8.48E2,4E0,3.489E3,1.152E3,2.3E1,1.998E3,2.04E2,1.425E3,9.65E2],"tree_param":{"num_deleted":"0","num_feature":"40","num_nodes":"31","size_leaf_vector":"1"}},{"base_weights":[8.993145E-4,6.7146897E0,-6.8796196E0,9.561789E0,3.866155E0,-6.365151E0,-7.4010816E0,1.0280424E1,9.523727E0,3.8986924E0,3.0648973E0,-6.803073E0,-6.3369155E0,-7.465939E0,-7.1872373E0,3.0923128E-1,6.0616814E-2,2.8333998E-1,2.949107E-1,1.1878665E-1,1.025826E-1,1.125001E-1,5.4230455E-2,-2.0670171E-1,-9.274359E-2,-6.417104E-2,-1.9017808E-1,-2.0747784E-1,-2.2489385E-1,-1.4952263E-1,-2.1639316E-1],"categories":[0,1,0,1,3,1,0],"categories_nodes":[0,1,2,10],"categories_segments":[0,2,5,6],"categories_sizes":[2,3,1,1],"default_left":[1,1,1,0,0,0,0,0,0,0,1,0,0,0,0,0,0,0,0,0,0,0,0,0,0,0,0,0,0,0,0],"id":52,"left_children":[1,3,5,7,9,11,13,15,17,19,21,23,25,27,29,-1,-1,-1,-1,-1,-1,-1,-1,-1,-1,-1,-1,-1,-1,-1,-1],"loss_changes":[8.662367E5,7.693425E4,2.4360312E3,2.990625E1,1.1108594E2,1.3296875E1,8.5625E0,2.8876953E1,1.484375E1,1.1864844E2,1.5631738E2,6.454883E1,2.9078125E1,5.4375E0,2.5289062E1,0E0,0E0,0E0,0E0,0E0,0E0,0E0,0E0,0E0,0E0,0E0,0E0,0E0,0E0,0E0,0E0],"parents":[2147483647,0,0,1,1,2,2,3,3,4,4,5,5,6,6,7,7,8,8,9,9,10,10,11,11,12,12,13,13,14,14],"right_children":[2,4,6,8,10,12,14,16,18,20,22,24,26,28,30,-1,-1,-1,-1,-1,-1,-1,-1,-1,-1,-1,-1,-1,-1,-1,-1],"split_conditions":[1E-45,1E-45,1E-45,5.2961E2,3.07233E3,3.9682E2,1.27675E3,4.3953E1,1E0,1.33509E2,1E-45,3.6941E1,8.2562E2,4.246E0,1.915E0,3.0923128E-1,6.0616814E-2,2.8333998E-1,2.949107E-1,1.1878665E-1,1.025826E-1,1.125001E-1,5.4230455E-2,-2.0670171E-1,-9.274359E-2,-6.417104E-2,-1.9017808E-1,-2.0747784E-1,-2.2489385E-1,-1.4952263E-1,-2.1639316E-1],"split_indices":[28,28,28,15,27,16,16,18,39,34,13,18,37,34,34,0,0,0,0,0,0,0,0,0,0,0,0,0,0,0,0],"split_type":[1,1,1,0,0,0,0,0,0,0,1,0,0,0,0,0,0,0,0,0,0,0,0,0,0,0,0,0,0,0,0],"sum_hessian":[1.875E4,9.49E3,9.26E3,4.745E3,4.745E3,4.668E3,4.592E3,2.25E2,4.52E3,4.556E3,1.89E2,2.68E2,4.4E3,3.497E3,1.095E3,2.24E2,1E0,3.619E3,9.01E2,4.036E3,5.2E2,1.21E2,6.8E1,2.61E2,7E0,3E0,4.397E3,1.96E2,3.301E3,1.5E1,1.08E3],"tree_param":{"num_deleted":"0","num_feature":"40","num_nodes":"31","size_leaf_vector":"1"}},{"base_weights":[8.7116857E-4,6.513392E0,-6.6733794E0,9.275135E0,3.7502549E0,-6.1743174E0,-7.179225E0,9.334031E0,8.864949E0,4.866948E0,3.7256415E0,-6.2024946E0,-5.787246E0,-7.298523E0,-7.0662627E0,2.78125E-1,2.9310715E-1,2.0111948E-1,2.7009612E-1,1.9844645E-1,6.36262E-2,9.346552E-2,1.1310028E-1,-1.86339E-1,-1.3688283E-1,-1.7545296E-1,-9.666643E-2,-2.1703233E-1,-2.3662798E-1,-2.1600549E-1,-2.0583457E-1],"categories":[0,1,0,1,3,1,1,3,0],"categories_nodes":[0,1,2,9,14],"categories_segments":[0,2,5,6,8],"categories_sizes":[2,3,1,2,1],"default_left":[1,1,1,0,0,0,0,0,0,1,0,0,0,0,1,0,0,0,0,0,0,0,0,0,0,0,0,0,0,0,0],"id":53,"left_children":[1,3,5,7,9,11,13,15,17,19,21,23,25,27,29,-1,-1,-1,-1,-1,-1,-1,-1,-1,-1,-1,-1,-1,-1,-1,-1],"loss_changes":[8.150781E5,7.239047E4,2.29225E3,3.00625E1,1.11453125E2,1.3828125E1,8.890625E0,2.140625E1,1.2211328E2,4.6029272E2,1.1338281E2,3.3234375E1,3.235254E1,2.4632812E1,1.48671875E1,0E0,0E0,0E0,0E0,0E0,0E0,0E0,0E0,0E0,0E0,0E0,0E0,0E0,0E0,0E0,0E0],"parents":[2147483647,0,0,1,1,2,2,3,3,4,4,5,5,6,6,7,7,8,8,9,9,10,10,11,11,12,12,13,13,14,14],"right_children":[2,4,6,8,10,12,14,16,18,20,22,24,26,28,30,-1,-1,-1,-1,-1,-1,-1,-1,-1,-1,-1,-1,-1,-1,-1,-1],"split_conditions":[1E-45,1E-45,1E-45,4.5229E1,6.262E-1,1.554E1,3.7122E0,1.59511E3,4.6889E1,1E-45,6.9628E2,2.17388E1,1.759E1,1.3169E0,1E-45,2.78125E-1,2.9310715E-1,2.0111948E-1,2.7009612E-1,1.9844645E-1,6.36262E-2,9.346552E-2,1.1310028E-1,-1.86339E-1,-1.3688283E-1,-1.7545296E-1,-9.666643E-2,-2.1703233E-1,-2.3662798E-1,-2.1600549E-1,-2.0583457E-1],"split_indices":[28,28,28,18,21,31,21,27,18,0,17,21,35,23,4,0,0,0,0,0,0,0,0,0,0,0,0,0,0,0,0],"split_type":[1,1,1,0,0,0,0,0,0,1,0,0,0,0,1,0,0,0,0,0,0,0,0,0,0,0,0,0,0,0,0],"sum_hessian":[1.875E4,9.49E3,9.26E3,4.745E3,4.745E3,4.668E3,4.592E3,4.13E3,6.15E2,9.8E1,4.647E3,4.337E3,3.31E2,2.202E3,2.39E3,3.627E3,5.03E2,4E1,5.75E2,5.9E1,3.9E1,3.2E2,4.327E3,4.311E3,2.6E1,3.22E2,9E0,1.998E3,2.04E2,1.425E3,9.65E2],"tree_param":{"num_deleted":"0","num_feature":"40","num_nodes":"31","size_leaf_vector":"1"}},{"base_weights":[8.471538E-4,6.318152E0,-6.4733396E0,8.997106E0,3.6378465E0,-5.9892178E0,-6.9640408E0,9.696643E0,8.960124E0,3.830965E0,3.501047E0,-6.354409E0,-5.9571176E0,-7.0007253E0,-6.617335E0,5.228357E-2,2.917141E-1,2.7093598E-1,2.5939482E-1,1.05866544E-1,1.312646E-1,1.0646061E-1,6.4224124E-2,-1.281751E-1,-1.9314133E-1,-2.0759616E-2,-1.7874467E-1,-1.8752511E-1,-2.1050347E-1,-9.725065E-2,-1.9919147E-1],"categories":[0,1,0,1,3,1],"categories_nodes":[0,1,2],"categories_segments":[0,2,5],"categories_sizes":[2,3,1],"default_left":[1,1,1,0,0,0,0,0,0,0,0,0,0,0,0,0,0,0,0,0,0,0,0,0,0,0,0,0,0,0,0],"id":54,"left_children":[1,3,5,7,9,11,13,15,17,19,21,23,25,27,29,-1,-1,-1,-1,-1,-1,-1,-1,-1,-1,-1,-1,-1,-1,-1,-1],"loss_changes":[7.6694575E5,6.811531E4,2.1570312E3,3.40625E1,1.1123047E2,1.5640625E1,1.0734375E1,3.0728516E1,2.0875E1,3.0567578E2,1.7263281E2,3.44541E1,1.8765625E1,4.609375E0,1.2087891E1,0E0,0E0,0E0,0E0,0E0,0E0,0E0,0E0,0E0,0E0,0E0,0E0,0E0,0E0,0E0,0E0],"parents":[2147483647,0,0,1,1,2,2,3,3,4,4,5,5,6,6,7,7,8,8,9,9,10,10,11,11,12,12,13,13,14,14],"right_children":[2,4,6,8,10,12,14,16,18,20,22,24,26,28,30,-1,-1,-1,-1,-1,-1,-1,-1,-1,-1,-1,-1,-1,-1,-1,-1],"split_conditions":[1E-45,1E-45,1E-45,5.2961E2,2.03E0,3.861E-1,3.54426E3,5.77E1,1.61738E3,1.39192E3,9E-1,1.1841E2,1.222E1,2.408E0,6.434E1,5.228357E-2,2.917141E-1,2.7093598E-1,2.5939482E-1,1.05866544E-1,1.312646E-1,1.0646061E-1,6.4224124E-2,-1.281751E-1,-1.9314133E-1,-2.0759616E-2,-1.7874467E-1,-1.8752511E-1,-2.1050347E-1,-9.725065E-2,-1.9919147E-1],"split_indices":[28,28,28,15,31,23,37,11,11,8,30,11,29,34,11,0,0,0,0,0,0,0,0,0,0,0,0,0,0,0,0],"split_type":[1,1,1,0,0,0,0,0,0,0,0,0,0,0,0,0,0,0,0,0,0,0,0,0,0,0,0,0,0,0,0],"sum_hessian":[1.875E4,9.49E3,9.26E3,4.745E3,4.745E3,4.668E3,4.592E3,2.25E2,4.52E3,1.956E3,2.789E3,3.61E2,4.307E3,4.135E3,4.57E2,1E0,2.24E2,3.662E3,8.58E2,1.263E3,6.93E2,2.693E3,9.6E1,1.6E1,3.45E2,1E0,4.306E3,9.5E1,4.04E3,4E0,4.53E2],"tree_param":{"num_deleted":"0","num_feature":"40","num_nodes":"31","size_leaf_vector":"1"}},{"base_weights":[8.254537E-4,6.1287456E0,-6.279273E0,8.72738E0,3.5287993E0,-5.809655E0,-6.7552724E0,9.407275E0,8.69144E0,4.44548E0,3.500155E0,-6.2340713E0,-5.782371E0,-6.8706985E0,-6.646055E0,5.1499307E-2,2.8300145E-1,2.5844508E-1,2.6967368E-1,1.4077754E-1,-5.515914E-2,8.5260294E-2,1.0630568E-1,-1.8954131E-1,-8.076646E-2,-5.4404844E-2,-1.735393E-1,-2.0425123E-1,-2.2333287E-1,-2.0327038E-1,-1.9343168E-1],"categories":[0,1,0,1,3,1,0],"categories_nodes":[0,1,2,14],"categories_segments":[0,2,5,6],"categories_sizes":[2,3,1,1],"default_left":[1,1,1,0,0,0,0,0,0,0,0,0,0,0,1,0,0,0,0,0,0,0,0,0,0,0,0,0,0,0,0],"id":55,"left_children":[1,3,5,7,9,11,13,15,17,19,21,23,25,27,29,-1,-1,-1,-1,-1,-1,-1,-1,-1,-1,-1,-1,-1,-1,-1,-1],"loss_changes":[7.216509E5,6.4092125E4,2.0296562E3,3.2375E1,1.0826172E2,1.6796875E1,1.0875E1,2.806836E1,2.390625E1,2.2631079E2,1.2078516E2,6.2095703E1,2.8453125E1,2.6664062E1,1.646875E1,0E0,0E0,0E0,0E0,0E0,0E0,0E0,0E0,0E0,0E0,0E0,0E0,0E0,0E0,0E0,0E0],"parents":[2147483647,0,0,1,1,2,2,3,3,4,4,5,5,6,6,7,7,8,8,9,9,10,10,11,11,12,12,13,13,14,14],"right_children":[2,4,6,8,10,12,14,16,18,20,22,24,26,28,30,-1,-1,-1,-1,-1,-1,-1,-1,-1,-1,-1,-1,-1,-1,-1,-1],"split_conditions":[1E-45,1E-45,1E-45,5.2961E2,6.864E-1,3.9682E2,3.7122E0,5.77E1,1E0,1.61088E2,6.9628E2,3.6941E1,8.2562E2,1.3169E0,1E-45,5.1499307E-2,2.8300145E-1,2.5844508E-1,2.6967368E-1,1.4077754E-1,-5.515914E-2,8.5260294E-2,1.0630568E-1,-1.8954131E-1,-8.076646E-2,-5.4404844E-2,-1.735393E-1,-2.0425123E-1,-2.2333287E-1,-2.0327038E-1,-1.9343168E-1],"split_indices":[28,28,28,15,21,16,21,11,39,34,17,18,37,23,4,0,0,0,0,0,0,0,0,0,0,0,0,0,0,0,0],"split_type":[1,1,1,0,0,0,0,0,0,0,0,0,0,0,1,0,0,0,0,0,0,0,0,0,0,0,0,0,0,0,0],"sum_hessian":[1.875E4,9.49E3,9.26E3,4.745E3,4.745E3,4.668E3,4.592E3,2.25E2,4.52E3,1.39E2,4.606E3,2.68E2,4.4E3,2.202E3,2.39E3,1E0,2.24E2,3.619E3,9.01E2,1.34E2,5E0,2.89E2,4.317E3,2.61E2,7E0,3E0,4.397E3,1.998E3,2.04E2,1.425E3,9.65E2],"tree_param":{"num_deleted":"0","num_feature":"40","num_nodes":"31","size_leaf_vector":"1"}},{"base_weights":[7.905016E-4,5.945005E0,-6.09104E0,8.46574E0,3.4229958E0,-5.635474E0,-6.552796E0,8.539229E0,8.157782E0,3.4991393E0,3.0904315E0,-5.5737514E0,-5.813981E0,-6.613639E0,-6.3525386E0,2.5224352E-1,2.6363626E-1,1.9738995E-1,2.4695277E-1,1.038412E-1,1.4440936E-1,1.0343134E-1,7.0513114E-2,-9.668307E-2,-1.6736607E-1,-1.755624E-1,-1.1211749E-1,-1.8274026E-1,-1.9928299E-1,-2.173151E-1,-1.8822525E-1],"categories":[0,1,0,1,3,1,3,0,0],"categories_nodes":[0,1,2,5,7,10],"categories_segments":[0,2,5,6,7,8],"categories_sizes":[2,3,1,1,1,1],"default_left":[1,1,1,0,0,1,0,1,0,0,1,0,0,0,0,0,0,0,0,0,0,0,0,0,0,0,0,0,0,0,0],"id":56,"left_children":[1,3,5,7,9,11,13,15,17,19,21,23,25,27,29,-1,-1,-1,-1,-1,-1,-1,-1,-1,-1,-1,-1,-1,-1,-1,-1],"loss_changes":[6.790314E5,6.0307156E4,1.9100312E3,3.60625E1,1.0871094E2,1.7890625E1,1.2640625E1,4.859375E1,5.3746094E1,1.7383594E2,2.2741113E2,2.3179688E1,7.021484E1,1.1484375E1,2.975E1,0E0,0E0,0E0,0E0,0E0,0E0,0E0,0E0,0E0,0E0,0E0,0E0,0E0,0E0,0E0,0E0],"parents":[2147483647,0,0,1,1,2,2,3,3,4,4,5,5,6,6,7,7,8,8,9,9,10,10,11,11,12,12,13,13,14,14],"right_children":[2,4,6,8,10,12,14,16,18,20,22,24,26,28,30,-1,-1,-1,-1,-1,-1,-1,-1,-1,-1,-1,-1,-1,-1,-1,-1],"split_conditions":[1E-45,1E-45,1E-45,1.60271E3,9.76E0,1E-45,1.27675E3,1E-45,1.29E0,5.62356E3,1E-45,1.716E1,3.69567E3,4.246E0,6.604E0,2.5224352E-1,2.6363626E-1,1.9738995E-1,2.4695277E-1,1.038412E-1,1.4440936E-1,1.0343134E-1,7.0513114E-2,-9.668307E-2,-1.6736607E-1,-1.755624E-1,-1.1211749E-1,-1.8274026E-1,-1.9928299E-1,-2.173151E-1,-1.8822525E-1],"split_indices":[28,28,28,11,35,5,16,14,35,17,2,29,37,34,18,0,0,0,0,0,0,0,0,0,0,0,0,0,0,0,0],"split_type":[1,1,1,0,0,1,0,1,0,0,1,0,0,0,0,0,0,0,0,0,0,0,0,0,0,0,0,0,0,0,0],"sum_hessian":[1.875E4,9.49E3,9.26E3,4.745E3,4.745E3,4.668E3,4.592E3,3.809E3,9.36E2,3.853E3,8.92E2,3.493E3,1.175E3,3.497E3,1.095E3,2.517E3,1.292E3,4.6E1,8.9E2,3.749E3,1.04E2,5.99E2,2.93E2,9E0,3.484E3,1.152E3,2.3E1,1.96E2,3.301E3,8.1E1,1.014E3],"tree_param":{"num_deleted":"0","num_feature":"40","num_nodes":"31","size_leaf_vector":"1"}},{"base_weights":[7.691868E-4,5.7668033E0,-5.908456E0,8.211973E0,3.3203979E0,-5.46653E0,-6.3563857E0,8.268562E0,7.8189816E0,3.3024611E0,4.7883687E0,-5.4717374E0,-3.8114588E0,-6.3849506E0,-5.9600034E0,2.4620366E-1,2.608989E-1,1.722848E-1,2.3859045E-1,1.05118975E-1,9.459331E-2,1.8846244E-1,6.1982058E-2,-1.7498465E-1,-1.6320205E-1,-1.4329347E-1,-4.79523E-2,-1.5815054E-1,-1.9181032E-1,-1.4162937E-1,-1.8280129E-1],"categories":[0,1,0,1,3,1,1],"categories_nodes":[0,1,2,10],"categories_segments":[0,2,5,6],"categories_sizes":[2,3,1,1],"default_left":[1,1,1,0,0,0,0,0,0,0,1,0,0,0,0,0,0,0,0,0,0,0,0,0,0,0,0,0,0,0,0],"id":57,"left_children":[1,3,5,7,9,11,13,15,17,19,21,23,25,27,29,-1,-1,-1,-1,-1,-1,-1,-1,-1,-1,-1,-1,-1,-1,-1,-1],"loss_changes":[6.38933E5,5.6745594E4,1.7973438E3,3.925E1,1.0834375E2,1.84375E1,1.271875E1,3.61875E1,1.2437891E2,1.2948828E2,2.0983447E2,2.034375E1,3.016806E1,6.609375E0,2.369336E1,0E0,0E0,0E0,0E0,0E0,0E0,0E0,0E0,0E0,0E0,0E0,0E0,0E0,0E0,0E0,0E0],"parents":[2147483647,0,0,1,1,2,2,3,3,4,4,5,5,6,6,7,7,8,8,9,9,10,10,11,11,12,12,13,13,14,14],"right_children":[2,4,6,8,10,12,14,16,18,20,22,24,26,28,30,-1,-1,-1,-1,-1,-1,-1,-1,-1,-1,-1,-1,-1,-1,-1,-1],"split_conditions":[1E-45,1E-45,1E-45,4.5229E1,2.05896E3,2.38475E3,1.70166E3,1.59511E3,4.6889E1,8.1086E2,1E-45,3.861E-1,1.65353E3,1.3939E2,1.7337E3,2.4620366E-1,2.608989E-1,1.722848E-1,2.3859045E-1,1.05118975E-1,9.459331E-2,1.8846244E-1,6.1982058E-2,-1.7498465E-1,-1.6320205E-1,-1.4329347E-1,-4.79523E-2,-1.5815054E-1,-1.9181032E-1,-1.4162937E-1,-1.8280129E-1],"split_indices":[28,28,28,18,16,15,16,27,18,16,12,23,16,27,16,0,0,0,0,0,0,0,0,0,0,0,0,0,0,0,0],"split_type":[1,1,1,0,0,0,0,0,0,0,1,0,0,0,0,0,0,0,0,0,0,0,0,0,0,0,0,0,0,0,0],"sum_hessian":[1.875E4,9.49E3,9.26E3,4.745E3,4.745E3,4.668E3,4.592E3,4.13E3,6.15E2,4.691E3,5.4E1,4.651E3,1.7E1,4.269E3,3.23E2,3.627E3,5.03E2,4E1,5.75E2,1.987E3,2.704E3,3.4E1,2E1,3.6E2,4.291E3,1.1E1,6E0,3.8E1,4.231E3,3.5E1,2.88E2],"tree_param":{"num_deleted":"0","num_feature":"40","num_nodes":"31","size_leaf_vector":"1"}},{"base_weights":[7.553914E-4,5.593947E0,-5.731334E0,7.965811E0,3.2208831E0,-5.302649E0,-6.165843E0,8.629198E0,7.9308643E0,2.4454877E0,3.252661E0,-5.329755E0,-4.932205E0,-6.2768297E0,-6.060962E0,2.0705047E-1,2.6603767E-1,2.5198394E-1,2.364581E-1,7.866605E-2,-3.0157706E-2,1.002172E-1,8.594265E-2,-1.6014723E-1,-1.1320157E-1,-1.5652373E-1,-1.2973234E-1,-1.8459181E-1,-1.9636253E-1,-1.8558158E-1,-1.7609778E-1],"categories":[0,1,0,1,3,1,3,0,0],"categories_nodes":[0,1,2,10,12,14],"categories_segments":[0,2,5,6,7,8],"categories_sizes":[2,3,1,1,1,1],"default_left":[1,1,1,0,0,0,0,0,0,0,1,0,1,0,1,0,0,0,0,0,0,0,0,0,0,0,0,0,0,0,0],"id":58,"left_children":[1,3,5,7,9,11,13,15,17,19,21,23,25,27,29,-1,-1,-1,-1,-1,-1,-1,-1,-1,-1,-1,-1,-1,-1,-1,-1],"loss_changes":[6.0120175E5,5.3394125E4,1.6911875E3,3.996875E1,1.0841406E2,1.95625E1,1.4171875E1,3.0421875E1,3.578125E1,1.1926868E2,1.4517969E2,3.6242188E1,3.4043945E1,3.1695312E1,1.9617188E1,0E0,0E0,0E0,0E0,0E0,0E0,0E0,0E0,0E0,0E0,0E0,0E0,0E0,0E0,0E0,0E0],"parents":[2147483647,0,0,1,1,2,2,3,3,4,4,5,5,6,6,7,7,8,8,9,9,10,10,11,11,12,12,13,13,14,14],"right_children":[2,4,6,8,10,12,14,16,18,20,22,24,26,28,30,-1,-1,-1,-1,-1,-1,-1,-1,-1,-1,-1,-1,-1,-1,-1,-1],"split_conditions":[1E-45,1E-45,1E-45,5.2961E2,3.558E0,1.554E1,3.7122E0,3.094E0,1.746E1,2.2543E3,1E-45,2.17388E1,1E-45,2.4533E0,1E-45,2.0705047E-1,2.6603767E-1,2.5198394E-1,2.364581E-1,7.866605E-2,-3.0157706E-2,1.002172E-1,8.594265E-2,-1.6014723E-1,-1.1320157E-1,-1.5652373E-1,-1.2973234E-1,-1.8459181E-1,-1.9636253E-1,-1.8558158E-1,-1.7609778E-1],"split_indices":[28,28,28,15,34,31,21,18,38,15,0,21,10,21,4,0,0,0,0,0,0,0,0,0,0,0,0,0,0,0,0],"split_type":[1,1,1,0,0,0,0,0,0,0,1,0,1,0,1,0,0,0,0,0,0,0,0,0,0,0,0,0,0,0,0],"sum_hessian":[1.875E4,9.49E3,9.26E3,4.745E3,4.745E3,4.668E3,4.592E3,2.25E2,4.52E3,1.9E2,4.555E3,4.337E3,3.31E2,2.202E3,2.39E3,3.1E1,1.94E2,4.11E2,4.109E3,1.81E2,9E0,3.707E3,8.48E2,4.311E3,2.6E1,2.2E2,1.11E2,1.524E3,6.78E2,1.425E3,9.65E2],"tree_param":{"num_deleted":"0","num_feature":"40","num_nodes":"31","size_leaf_vector":"1"}},{"base_weights":[7.270822E-4,5.4262567E0,-5.559537E0,7.7270412E0,3.124308E0,-5.143691E0,-5.981031E0,7.798401E0,7.428527E0,3.2291873E0,2.8845613E0,-5.5542526E0,-5.117405E0,-5.559973E0,-6.007158E0,2.2996435E-1,2.4132356E-1,1.7751649E-1,2.2499394E-1,1.0040913E-1,8.3221324E-2,2.1799009E-1,8.5748196E-2,-1.690595E-1,-6.577863E-2,-1.5008041E-1,-1.5688966E-1,-1.6812333E-1,-7.736765E-2,-1.808951E-1,-1.6266273E-1],"categories":[0,1,0,1,3,1,0,2,3],"categories_nodes":[0,1,2,7,12],"categories_segments":[0,2,5,6,7],"categories_sizes":[2,3,1,1,2],"default_left":[1,1,1,0,0,0,0,1,0,0,0,0,1,0,0,0,0,0,0,0,0,0,0,0,0,0,0,0,0,0,0],"id":59,"left_children":[1,3,5,7,9,11,13,15,17,19,21,23,25,27,29,-1,-1,-1,-1,-1,-1,-1,-1,-1,-1,-1,-1,-1,-1,-1,-1],"loss_changes":[5.656986E5,5.0241844E4,1.591375E3,4.1625E1,1.0941016E2,2.0898438E1,1.596875E1,6.1203125E1,5.520703E1,1.6663672E2,1.4570215E2,6.016504E1,2.9492188E1,2.183496E1,2.3375E1,0E0,0E0,0E0,0E0,0E0,0E0,0E0,0E0,0E0,0E0,0E0,0E0,0E0,0E0,0E0,0E0],"parents":[2147483647,0,0,1,1,2,2,3,3,4,4,5,5,6,6,7,7,8,8,9,9,10,10,11,11,12,12,13,13,14,14],"right_children":[2,4,6,8,10,12,14,16,18,20,22,24,26,28,30,-1,-1,-1,-1,-1,-1,-1,-1,-1,-1,-1,-1,-1,-1,-1,-1],"split_conditions":[1E-45,1E-45,1E-45,1.60271E3,1.39658E3,3.9682E2,4.695E0,1E-45,1.29E0,1.31982E3,2.5688E2,3.6941E1,1E-45,1.89697E3,1.604E1,2.2996435E-1,2.4132356E-1,1.7751649E-1,2.2499394E-1,1.0040913E-1,8.3221324E-2,2.1799009E-1,8.5748196E-2,-1.690595E-1,-6.577863E-2,-1.5008041E-1,-1.5688966E-1,-1.6812333E-1,-7.736765E-2,-1.808951E-1,-1.6266273E-1],"split_indices":[28,28,28,11,11,16,34,1,35,16,16,18,5,16,35,0,0,0,0,0,0,0,0,0,0,0,0,0,0,0,0],"split_type":[1,1,1,0,0,0,0,1,0,0,0,0,1,0,0,0,0,0,0,0,0,0,0,0,0,0,0,0,0,0,0],"sum_hessian":[1.875E4,9.49E3,9.26E3,4.745E3,4.745E3,4.668E3,4.592E3,3.809E3,9.36E2,3.292E3,1.453E3,2.68E2,4.4E3,2.81E2,4.311E3,2.493E3,1.316E3,4.6E1,8.9E2,2.61E3,6.82E2,7E0,1.446E3,2.61E2,7E0,2.199E3,2.201E3,2.76E2,5E0,4.141E3,1.7E2],"tree_param":{"num_deleted":"0","num_feature":"40","num_nodes":"31","size_leaf_vector":"1"}},{"base_weights":[7.1722653E-4,5.263614E0,-5.392875E0,7.4954157E0,3.030683E0,-4.989498E0,-5.8017306E0,7.550547E0,7.1133633E0,3.0981123E0,2.667155E0,-5.330371E0,-4.9596734E0,-5.866533E0,-5.630816E0,2.2472309E-1,2.3897007E-1,1.5338318E-1,2.1729729E-1,9.992854E-2,8.8159256E-2,8.574014E-2,3.7041698E-2,-1.4996813E-1,-1.7892942E-1,-1.2163148E-1,-1.4914446E-1,-1.7603649E-1,-1.9557528E-2,-1.9146192E-1,-1.666127E-1],"categories":[0,1,0,1,3,1,0,1,3],"categories_nodes":[0,1,2,9],"categories_segments":[0,2,5,6],"categories_sizes":[2,3,1,3],"default_left":[1,1,1,0,0,0,0,0,0,1,0,0,0,0,0,0,0,0,0,0,0,0,0,0,0,0,0,0,0,0,0],"id":60,"left_children":[1,3,5,7,9,11,13,15,17,19,21,23,25,27,29,-1,-1,-1,-1,-1,-1,-1,-1,-1,-1,-1,-1,-1,-1,-1,-1],"loss_changes":[5.3229275E5,4.727425E4,1.4973438E3,4.478125E1,1.0749609E2,1.9992188E1,1.66875E1,4.1296875E1,1.2178906E2,1.379961E2,2.0109668E2,4.514746E1,2.4992188E1,1.8804688E1,3.792578E1,0E0,0E0,0E0,0E0,0E0,0E0,0E0,0E0,0E0,0E0,0E0,0E0,0E0,0E0,0E0,0E0],"parents":[2147483647,0,0,1,1,2,2,3,3,4,4,5,5,6,6,7,7,8,8,9,9,10,10,11,11,12,12,13,13,14,14],"right_children":[2,4,6,8,10,12,14,16,18,20,22,24,26,28,30,-1,-1,-1,-1,-1,-1,-1,-1,-1,-1,-1,-1,-1,-1,-1,-1],"split_conditions":[1E-45,1E-45,1E-45,4.5229E1,1.529E1,3.861E-1,2.86702E3,1.59511E3,4.6889E1,1E-45,1.7603E3,2.4834E2,1.17E0,1.40711E3,7.062E0,2.2472309E-1,2.3897007E-1,1.5338318E-1,2.1729729E-1,9.992854E-2,8.8159256E-2,8.574014E-2,3.7041698E-2,-1.4996813E-1,-1.7892942E-1,-1.2163148E-1,-1.4914446E-1,-1.7603649E-1,-1.9557528E-2,-1.9146192E-1,-1.666127E-1],"split_indices":[28,28,28,18,31,23,37,27,18,0,11,27,35,16,18,0,0,0,0,0,0,0,0,0,0,0,0,0,0,0,0],"split_type":[1,1,1,0,0,0,0,0,0,1,0,0,0,0,0,0,0,0,0,0,0,0,0,0,0,0,0,0,0,0,0],"sum_hessian":[1.875E4,9.49E3,9.26E3,4.745E3,4.745E3,4.668E3,4.592E3,4.13E3,6.15E2,3.996E3,7.49E2,3.61E2,4.307E3,3.305E3,1.287E3,3.627E3,5.03E2,4E1,5.75E2,1.616E3,2.38E3,6.6E2,8.9E1,2.43E2,1.18E2,6E1,4.247E3,3.304E3,1E0,1.12E2,1.175E3],"tree_param":{"num_deleted":"0","num_feature":"40","num_nodes":"31","size_leaf_vector":"1"}},{"base_weights":[6.9507136E-4,5.105829E0,-5.2312155E0,7.27073E0,2.9398305E0,-4.839944E0,-5.627801E0,7.918488E0,7.236719E0,2.9243429E0,4.6024246E0,-5.2384286E0,-4.814465E0,-5.220298E0,-5.653123E0,2.4001685E-1,1.2580551E-1,2.0455427E-1,2.1860667E-1,9.368221E-2,8.3460145E-2,2.074793E-1,5.120155E-2,-1.6617732E-1,-1.2622714E-1,-1.4109711E-1,-1.4770079E-1,-7.586995E-2,-1.5807837E-1,-1.7025068E-1,-1.5267031E-1],"categories":[0,1,0,1,3,1,1,2,3],"categories_nodes":[0,1,2,10,12],"categories_segments":[0,2,5,6,7],"categories_sizes":[2,3,1,1,2],"default_left":[1,1,1,0,0,0,0,0,0,0,1,0,1,0,0,0,0,0,0,0,0,0,0,0,0,0,0,0,0,0,0],"id":61,"left_children":[1,3,5,7,9,11,13,15,17,19,21,23,25,27,29,-1,-1,-1,-1,-1,-1,-1,-1,-1,-1,-1,-1,-1,-1,-1,-1],"loss_changes":[5.008585E5,4.4482562E4,1.40875E3,4.5734375E1,1.0799219E2,2.11875E1,1.6796875E1,3.432422E1,4.3765625E1,1.2358984E2,2.6870764E2,5.9134766E1,2.9179688E1,2.306836E1,2.33125E1,0E0,0E0,0E0,0E0,0E0,0E0,0E0,0E0,0E0,0E0,0E0,0E0,0E0,0E0,0E0,0E0],"parents":[2147483647,0,0,1,1,2,2,3,3,4,4,5,5,6,6,7,7,8,8,9,9,10,10,11,11,12,12,13,13,14,14],"right_children":[2,4,6,8,10,12,14,16,18,20,22,24,26,28,30,-1,-1,-1,-1,-1,-1,-1,-1,-1,-1,-1,-1,-1,-1,-1,-1],"split_conditions":[1E-45,1E-45,1E-45,5.2961E2,4.39912E3,3.9682E2,4.695E0,3.4993E1,7.4436E2,2.03E0,1E-45,1.6099E3,1E-45,3.06E1,1.604E1,2.4001685E-1,1.2580551E-1,2.0455427E-1,2.1860667E-1,9.368221E-2,8.3460145E-2,2.074793E-1,5.120155E-2,-1.6617732E-1,-1.2622714E-1,-1.4109711E-1,-1.4770079E-1,-7.586995E-2,-1.5807837E-1,-1.7025068E-1,-1.5267031E-1],"split_indices":[28,28,28,15,37,16,34,18,15,31,12,11,5,29,35,0,0,0,0,0,0,0,0,0,0,0,0,0,0,0,0],"split_type":[1,1,1,0,0,0,0,0,0,0,1,0,1,0,0,0,0,0,0,0,0,0,0,0,0,0,0,0,0,0,0],"sum_hessian":[1.875E4,9.49E3,9.26E3,4.745E3,4.745E3,4.668E3,4.592E3,2.25E2,4.52E3,4.704E3,4.1E1,2.68E2,4.4E3,2.81E2,4.311E3,2.19E2,6E0,4.99E2,4.021E3,1.956E3,2.748E3,2.2E1,1.9E1,2.04E2,6.4E1,2.199E3,2.201E3,6E0,2.75E2,4.141E3,1.7E2],"tree_param":{"num_deleted":"0","num_feature":"40","num_nodes":"31","size_leaf_vector":"1"}},{"base_weights":[6.790348E-4,4.952786E0,-5.0744042E0,7.0527782E0,2.8517287E0,-4.694872E0,-5.45909E0,7.1220784E0,6.7633586E0,3.914435E0,2.8284585E0,-4.721059E0,-4.3382635E0,-5.521834E0,-5.2937245E0,2.097921E-1,2.2082688E-1,2.0448038E-1,1.4628746E-1,1.8574622E-1,5.701011E-2,6.741541E-2,8.6126834E-2,-1.4187767E-1,-9.700227E-2,-1.3914458E-1,-1.1328474E-1,-1.6569412E-1,-1.6710397E-2,-1.8348575E-1,-1.5680242E-1],"categories":[0,1,0,1,3,1,0,1,2,3,0],"categories_nodes":[0,1,2,7,9,12],"categories_segments":[0,2,5,6,7,10],"categories_sizes":[2,3,1,1,3,1],"default_left":[1,1,1,0,0,0,0,1,0,1,0,0,1,0,0,0,0,0,0,0,0,0,0,0,0,0,0,0,0,0,0],"id":62,"left_children":[1,3,5,7,9,11,13,15,17,19,21,23,25,27,29,-1,-1,-1,-1,-1,-1,-1,-1,-1,-1,-1,-1,-1,-1,-1,-1],"loss_changes":[4.7128188E5,4.185514E4,1.3254844E3,4.5625E1,1.0561328E2,2.2210938E1,1.734375E1,6.446875E1,5.869922E1,4.4146973E2,1.0769141E2,3.6804688E1,3.7609863E1,1.7703125E1,3.7847656E1,0E0,0E0,0E0,0E0,0E0,0E0,0E0,0E0,0E0,0E0,0E0,0E0,0E0,0E0,0E0,0E0],"parents":[2147483647,0,0,1,1,2,2,3,3,4,4,5,5,6,6,7,7,8,8,9,9,10,10,11,11,12,12,13,13,14,14],"right_children":[2,4,6,8,10,12,14,16,18,20,22,24,26,28,30,-1,-1,-1,-1,-1,-1,-1,-1,-1,-1,-1,-1,-1,-1,-1,-1],"split_conditions":[1E-45,1E-45,1E-45,1.60271E3,6.262E-1,1.554E1,2.86702E3,1E-45,1.68492E1,1E-45,6.9628E2,2.17388E1,1E-45,1.40711E3,6.604E0,2.097921E-1,2.2082688E-1,2.0448038E-1,1.4628746E-1,1.8574622E-1,5.701011E-2,6.741541E-2,8.6126834E-2,-1.4187767E-1,-9.700227E-2,-1.3914458E-1,-1.1328474E-1,-1.6569412E-1,-1.6710397E-2,-1.8348575E-1,-1.5680242E-1],"split_indices":[28,28,28,11,21,31,37,1,21,0,17,21,1,16,18,0,0,0,0,0,0,0,0,0,0,0,0,0,0,0,0],"split_type":[1,1,1,0,0,0,0,1,0,1,0,0,1,0,0,0,0,0,0,0,0,0,0,0,0,0,0,0,0,0,0],"sum_hessian":[1.875E4,9.49E3,9.26E3,4.745E3,4.745E3,4.668E3,4.592E3,3.809E3,9.36E2,9.8E1,4.647E3,4.337E3,3.31E2,3.305E3,1.287E3,2.493E3,1.316E3,9.08E2,2.8E1,4.5E1,5.3E1,3.2E2,4.327E3,4.311E3,2.6E1,2.11E2,1.2E2,3.304E3,1E0,9E1,1.197E3],"tree_param":{"num_deleted":"0","num_feature":"40","num_nodes":"31","size_leaf_vector":"1"}},{"base_weights":[6.6685764E-4,4.8043275E0,-4.9222836E0,6.841361E0,2.7662609E0,-4.5541325E0,-5.295433E0,8.096548E0,6.8238115E0,2.2673516E0,2.8136463E0,-4.559138E0,-3.00189E0,-5.3996024E0,-5.1971974E0,2.675967E-1,1.5805846E-1,2.0615949E-1,1.916125E-1,7.9950325E-2,2.312261E-2,8.732095E-2,7.124831E-2,-1.4691341E-1,-1.3588876E-1,-1.1882002E-1,-2.7454317E-2,-1.6018537E-1,-1.787619E-1,-1.5952185E-1,-1.5042838E-1],"categories":[0,1,0,1,3,1,3,3,0],"categories_nodes":[0,1,2,7,10,14],"categories_segments":[0,2,5,6,7,8],"categories_sizes":[2,3,1,1,1,1],"default_left":[1,1,1,0,0,0,0,1,0,0,1,0,0,0,1,0,0,0,0,0,0,0,0,0,0,0,0,0,0,0,0],"id":63,"left_children":[1,3,5,7,9,11,13,15,17,19,21,23,25,27,29,-1,-1,-1,-1,-1,-1,-1,-1,-1,-1,-1,-1,-1,-1,-1,-1],"loss_changes":[4.4345072E5,3.9383047E4,1.2471406E3,4.7796875E1,1.0531641E2,2.1835938E1,1.7882812E1,9.128711E1,5.3375E1,2.4577393E2,1.7691797E2,2.328125E1,3.1900879E1,4.1070312E1,2.4871094E1,0E0,0E0,0E0,0E0,0E0,0E0,0E0,0E0,0E0,0E0,0E0,0E0,0E0,0E0,0E0,0E0],"parents":[2147483647,0,0,1,1,2,2,3,3,4,4,5,5,6,6,7,7,8,8,9,9,10,10,11,11,12,12,13,13,14,14],"right_children":[2,4,6,8,10,12,14,16,18,20,22,24,26,28,30,-1,-1,-1,-1,-1,-1,-1,-1,-1,-1,-1,-1,-1,-1,-1,-1],"split_conditions":[1E-45,1E-45,1E-45,1.701E0,2.3011E2,2.38475E3,3.7122E0,1E-45,4.9498E1,7.4008E0,1E-45,3.861E-1,1.65353E3,1.3169E0,1E-45,2.675967E-1,1.5805846E-1,2.0615949E-1,1.916125E-1,7.9950325E-2,2.312261E-2,8.732095E-2,7.124831E-2,-1.4691341E-1,-1.3588876E-1,-1.1882002E-1,-2.7454317E-2,-1.6018537E-1,-1.787619E-1,-1.5952185E-1,-1.5042838E-1],"split_indices":[28,28,28,34,11,15,21,3,18,21,0,23,16,23,4,0,0,0,0,0,0,0,0,0,0,0,0,0,0,0,0],"split_type":[1,1,1,0,0,0,0,1,0,0,1,0,0,0,1,0,0,0,0,0,0,0,0,0,0,0,0,0,0,0,0],"sum_hessian":[1.875E4,9.49E3,9.26E3,4.745E3,4.745E3,4.668E3,4.592E3,5.9E1,4.686E3,4.16E2,4.329E3,4.651E3,1.7E1,2.202E3,2.39E3,4.4E1,1.5E1,4.207E3,4.79E2,3.28E2,8.8E1,3.54E3,7.89E2,3.6E2,4.291E3,1.1E1,6E0,1.998E3,2.04E2,1.425E3,9.65E2],"tree_param":{"num_deleted":"0","num_feature":"40","num_nodes":"31","size_leaf_vector":"1"}},{"base_weights":[6.466333E-4,4.660313E0,-4.7747335E0,6.636294E0,2.6833296E0,-4.417602E0,-5.136713E0,7.2661023E0,6.60332E0,2.6682234E0,4.309291E0,-4.803628E0,-4.3929806E0,-4.7421355E0,-5.1613035E0,1.6872539E-1,2.2493312E-1,2.1193568E-1,1.966637E-1,8.216371E-2,6.851472E-2,1.9661123E-1,4.5232423E-2,-1.7925838E-1,-1.3584629E-1,-2.5481254E-2,-1.3185546E-1,-6.561547E-2,-1.4368175E-1,-1.5546988E-1,-1.3863698E-1],"categories":[0,1,0,1,3,1,1],"categories_nodes":[0,1,2,10],"categories_segments":[0,2,5,6],"categories_sizes":[2,3,1,1],"default_left":[1,1,1,0,0,0,0,0,0,0,1,0,0,0,0,0,0,0,0,0,0,0,0,0,0,0,0,0,0,0,0],"id":64,"left_children":[1,3,5,7,9,11,13,15,17,19,21,23,25,27,29,-1,-1,-1,-1,-1,-1,-1,-1,-1,-1,-1,-1,-1,-1,-1,-1],"loss_changes":[4.1726347E5,3.705767E4,1.1735469E3,4.9203125E1,1.0437891E2,2.2359375E1,1.9101562E1,4.248535E1,5.2140625E1,1.2086719E2,2.5340137E2,5.8697266E1,3.00625E1,2.2874512E1,2.4039062E1,0E0,0E0,0E0,0E0,0E0,0E0,0E0,0E0,0E0,0E0,0E0,0E0,0E0,0E0,0E0,0E0],"parents":[2147483647,0,0,1,1,2,2,3,3,4,4,5,5,6,6,7,7,8,8,9,9,10,10,11,11,12,12,13,13,14,14],"right_children":[2,4,6,8,10,12,14,16,18,20,22,24,26,28,30,-1,-1,-1,-1,-1,-1,-1,-1,-1,-1,-1,-1,-1,-1,-1,-1],"split_conditions":[1E-45,1E-45,1E-45,5.2961E2,4.39912E3,3.9682E2,4.695E0,3.094E0,1.746E1,1.529E1,1E-45,3.5735E2,8.2562E2,3.06E1,1.604E1,1.6872539E-1,2.2493312E-1,2.1193568E-1,1.966637E-1,8.216371E-2,6.851472E-2,1.9661123E-1,4.5232423E-2,-1.7925838E-1,-1.3584629E-1,-2.5481254E-2,-1.3185546E-1,-6.561547E-2,-1.4368175E-1,-1.5546988E-1,-1.3863698E-1],"split_indices":[28,28,28,15,37,16,34,18,38,31,12,11,37,29,35,0,0,0,0,0,0,0,0,0,0,0,0,0,0,0,0],"split_type":[1,1,1,0,0,0,0,0,0,0,1,0,0,0,0,0,0,0,0,0,0,0,0,0,0,0,0,0,0,0,0],"sum_hessian":[1.875E4,9.49E3,9.26E3,4.745E3,4.745E3,4.668E3,4.592E3,2.25E2,4.52E3,4.704E3,4.1E1,2.68E2,4.4E3,2.81E2,4.311E3,3.1E1,1.94E2,4.11E2,4.109E3,3.969E3,7.35E2,2.2E1,1.9E1,4.7E1,2.21E2,3E0,4.397E3,6E0,2.75E2,4.141E3,1.7E2],"tree_param":{"num_deleted":"0","num_feature":"40","num_nodes":"31","size_leaf_vector":"1"}},{"base_weights":[6.3855894E-4,4.520632E0,-4.6315994E0,6.4373765E0,2.6029131E0,-4.285177E0,-4.982723E0,7.6659184E0,6.4202547E0,2.704136E0,2.3718064E0,-4.2291274E0,-4.447979E0,-5.009001E0,-4.6207256E0,2.580459E-1,1.5566969E-1,1.9401301E-1,1.7987968E-1,8.02438E-2,1.354494E-1,2.008871E-1,7.038569E-2,-1.3469103E-1,-1.2518582E-1,-1.3454212E-1,-7.477629E-2,-1.18792996E-1,-1.5052387E-1,-1.0358076E-1,-1.4249669E-1],"categories":[0,1,0,1,3,1,3,0],"categories_nodes":[0,1,2,5,7],"categories_segments":[0,2,5,6,7],"categories_sizes":[2,3,1,1,1],"default_left":[1,1,1,0,0,1,0,1,0,0,0,0,0,0,0,0,0,0,0,0,0,0,0,0,0,0,0,0,0,0,0],"id":65,"left_children":[1,3,5,7,9,11,13,15,17,19,21,23,25,27,29,-1,-1,-1,-1,-1,-1,-1,-1,-1,-1,-1,-1,-1,-1,-1,-1],"loss_changes":[3.9262344E5,3.486914E4,1.1041875E3,4.9203125E1,1.0410156E2,2.2921875E1,1.9585938E1,9.3034424E1,5.3140625E1,1.6217578E2,1.4445459E2,3.1628906E1,7.26543E1,1.7148438E1,3.1661133E1,0E0,0E0,0E0,0E0,0E0,0E0,0E0,0E0,0E0,0E0,0E0,0E0,0E0,0E0,0E0,0E0],"parents":[2147483647,0,0,1,1,2,2,3,3,4,4,5,5,6,6,7,7,8,8,9,9,10,10,11,11,12,12,13,13,14,14],"right_children":[2,4,6,8,10,12,14,16,18,20,22,24,26,28,30,-1,-1,-1,-1,-1,-1,-1,-1,-1,-1,-1,-1,-1,-1,-1,-1],"split_conditions":[1E-45,1E-45,1E-45,1.701E0,1.39658E3,1E-45,1.70166E3,1E-45,4.9498E1,1.99975E3,2.5688E2,3.8882E2,3.69567E3,1.3939E2,1.7337E3,2.580459E-1,1.5566969E-1,1.9401301E-1,1.7987968E-1,8.02438E-2,1.354494E-1,2.008871E-1,7.038569E-2,-1.3469103E-1,-1.2518582E-1,-1.3454212E-1,-7.477629E-2,-1.18792996E-1,-1.5052387E-1,-1.0358076E-1,-1.4249669E-1],"split_indices":[28,28,28,34,11,5,16,2,18,16,16,11,37,27,16,0,0,0,0,0,0,0,0,0,0,0,0,0,0,0,0],"split_type":[1,1,1,0,0,1,0,1,0,0,0,0,0,0,0,0,0,0,0,0,0,0,0,0,0,0,0,0,0,0,0],"sum_hessian":[1.875E4,9.49E3,9.26E3,4.745E3,4.745E3,4.668E3,4.592E3,5.9E1,4.686E3,3.292E3,1.453E3,3.493E3,1.175E3,4.269E3,3.23E2,4.1E1,1.8E1,4.207E3,4.79E2,3.242E3,5E1,7E0,1.446E3,6.06E2,2.887E3,1.152E3,2.3E1,3.8E1,4.231E3,3.5E1,2.88E2],"tree_param":{"num_deleted":"0","num_feature":"40","num_nodes":"31","size_leaf_vector":"1"}},{"base_weights":[6.346373E-4,4.385149E0,-4.4927597E0,6.244421E0,2.5249317E0,-4.1567245E0,-4.8333554E0,6.1732287E0,6.5157967E0,2.5556028E0,1.7754936E0,-4.1819487E0,-3.8143167E0,-4.9340324E0,-4.738531E0,1.8621825E-1,1.3223052E-1,1.9653757E-1,1.0874017E-1,7.839108E-2,6.316438E-2,7.319065E-2,1.7218176E-2,-1.2569574E-1,-8.280643E-2,-1.2276718E-1,-9.6929E-2,-1.4444557E-1,-1.5582871E-1,-1.4565E-1,-1.3684776E-1],"categories":[0,1,0,1,3,1,0,0,0],"categories_nodes":[0,1,2,10,12,14],"categories_segments":[0,2,5,6,7,8],"categories_sizes":[2,3,1,1,1,1],"default_left":[1,1,1,0,0,0,0,0,0,0,1,0,1,0,1,0,0,0,0,0,0,0,0,0,0,0,0,0,0,0,0],"id":66,"left_children":[1,3,5,7,9,11,13,15,17,19,21,23,25,27,29,-1,-1,-1,-1,-1,-1,-1,-1,-1,-1,-1,-1,-1,-1,-1,-1],"loss_changes":[3.6943975E5,3.2809406E4,1.0389531E3,5.0203125E1,1.0412109E2,2.3578125E1,1.95E1,1.9875E2,7.446094E1,1.11833984E2,1.4993097E2,3.6523438E1,3.9871582E1,4.232422E1,2.6183594E1,0E0,0E0,0E0,0E0,0E0,0E0,0E0,0E0,0E0,0E0,0E0,0E0,0E0,0E0,0E0,0E0],"parents":[2147483647,0,0,1,1,2,2,3,3,4,4,5,5,6,6,7,7,8,8,9,9,10,10,11,11,12,12,13,13,14,14],"right_children":[2,4,6,8,10,12,14,16,18,20,22,24,26,28,30,-1,-1,-1,-1,-1,-1,-1,-1,-1,-1,-1,-1,-1,-1,-1,-1],"split_conditions":[1E-45,1E-45,1E-45,1E0,3.07233E3,1.554E1,3.7122E0,9.9E-1,1.83218E3,1.33509E2,1E-45,2.17388E1,1E-45,2.4533E0,1E-45,1.8621825E-1,1.3223052E-1,1.9653757E-1,1.0874017E-1,7.839108E-2,6.316438E-2,7.319065E-2,1.7218176E-2,-1.2569574E-1,-8.280643E-2,-1.2276718E-1,-9.6929E-2,-1.4444557E-1,-1.5582871E-1,-1.4565E-1,-1.3684776E-1],"split_indices":[28,28,28,39,27,31,21,39,27,34,13,21,10,21,4,0,0,0,0,0,0,0,0,0,0,0,0,0,0,0,0],"split_type":[1,1,1,0,0,0,0,0,0,0,1,0,1,0,1,0,0,0,0,0,0,0,0,0,0,0,0,0,0,0,0],"sum_hessian":[1.875E4,9.49E3,9.26E3,4.745E3,4.745E3,4.668E3,4.592E3,3.778E3,9.67E2,4.556E3,1.89E2,4.337E3,3.31E2,2.202E3,2.39E3,3.704E3,7.4E1,9.54E2,1.3E1,4.036E3,5.2E2,1.21E2,6.8E1,4.311E3,2.6E1,2.2E2,1.11E2,1.524E3,6.78E2,1.425E3,9.65E2],"tree_param":{"num_deleted":"0","num_feature":"40","num_nodes":"31","size_leaf_vector":"1"}},{"base_weights":[6.0686196E-4,4.253686E0,-4.358088E0,6.057221E0,2.4492338E0,-4.032116E0,-4.6884837E0,6.124349E0,5.777695E0,3.1667893E0,2.4166164E0,-4.535439E0,-4.014037E0,-4.3074207E0,-4.7122946E0,1.8319505E-1,2.4112481E-1,1.6901466E-1,1.9707449E-1,1.19462855E-1,4.8800677E-2,-4.4343486E-2,7.276663E-2,-2.8907118E-2,-1.4019173E-1,-1.20568424E-1,-7.674413E-2,-1.378063E-1,-1.1269449E-1,-1.4197558E-1,-1.2582771E-1],"categories":[0,1,0,1,3,1,1,3,2],"categories_nodes":[0,1,2,9,13],"categories_segments":[0,2,5,6,8],"categories_sizes":[2,3,1,2,1],"default_left":[1,1,1,0,0,0,0,0,0,1,0,0,0,1,0,0,0,0,0,0,0,0,0,0,0,0,0,0,0,0,0],"id":67,"left_children":[1,3,5,7,9,11,13,15,17,19,21,23,25,27,29,-1,-1,-1,-1,-1,-1,-1,-1,-1,-1,-1,-1,-1,-1,-1,-1],"loss_changes":[3.4762222E5,3.0871766E4,9.776406E2,5.2484375E1,1.0286719E2,2.3421875E1,2.0476562E1,7.959375E1,6.84668E1,2.4785913E2,1.6186328E2,7.06333E1,2.1359375E1,2.6362305E1,2.44375E1,0E0,0E0,0E0,0E0,0E0,0E0,0E0,0E0,0E0,0E0,0E0,0E0,0E0,0E0,0E0,0E0],"parents":[2147483647,0,0,1,1,2,2,3,3,4,4,5,5,6,6,7,7,8,8,9,9,10,10,11,11,12,12,13,13,14,14],"right_children":[2,4,6,8,10,12,14,16,18,20,22,24,26,28,30,-1,-1,-1,-1,-1,-1,-1,-1,-1,-1,-1,-1,-1,-1,-1,-1],"split_conditions":[1E-45,1E-45,1E-45,1.60271E3,7.648E-1,5.0015E2,4.695E0,1.5627E2,1.81711E2,1E-45,2.571E0,8.823E1,2.38475E3,1E-45,1.604E1,1.8319505E-1,2.4112481E-1,1.6901466E-1,1.9707449E-1,1.19462855E-1,4.8800677E-2,-4.4343486E-2,7.276663E-2,-2.8907118E-2,-1.4019173E-1,-1.20568424E-1,-7.674413E-2,-1.378063E-1,-1.1269449E-1,-1.4197558E-1,-1.2582771E-1],"split_indices":[28,28,28,11,21,15,34,34,34,0,18,11,15,14,35,0,0,0,0,0,0,0,0,0,0,0,0,0,0,0,0],"split_type":[1,1,1,0,0,0,0,0,0,1,0,0,0,1,0,0,0,0,0,0,0,0,0,0,0,0,0,0,0,0,0],"sum_hessian":[1.875E4,9.49E3,9.26E3,4.745E3,4.745E3,4.668E3,4.592E3,3.809E3,9.36E2,2.02E2,4.543E3,1.53E2,4.515E3,2.81E2,4.311E3,3.778E3,3.1E1,7.99E2,1.37E2,1.31E2,7.1E1,1E1,4.533E3,6E0,1.47E2,4.498E3,1.7E1,1.8E2,1.01E2,4.141E3,1.7E2],"tree_param":{"num_deleted":"0","num_feature":"40","num_nodes":"31","size_leaf_vector":"1"}},{"base_weights":[5.935081E-4,4.126181E0,-4.2274437E0,5.8756714E0,2.3758001E0,-3.911233E0,-4.547944E0,5.7758255E0,6.067591E0,1.6358746E0,2.4062765E0,-4.2282662E0,-3.8836615E0,-4.600981E0,-4.3744307E0,1.7451122E-1,1.4147288E-1,1.9100122E-1,1.7342596E-1,5.600621E-2,-3.003322E-2,7.569288E-2,6.46574E-2,-1.1717369E-1,-1.4559321E-1,-9.06274E-2,-1.1685337E-1,-1.1649487E-1,-1.384985E-1,-1.5623263E-1,-1.2908098E-1],"categories":[0,1,0,1,3,1,0],"categories_nodes":[0,1,2,3],"categories_segments":[0,2,5,6],"categories_sizes":[2,3,1,1],"default_left":[1,1,1,1,0,0,0,0,0,0,0,0,0,0,0,0,0,0,0,0,0,0,0,0,0,0,0,0,0,0,0],"id":68,"left_children":[1,3,5,7,9,11,13,15,17,19,21,23,25,27,29,-1,-1,-1,-1,-1,-1,-1,-1,-1,-1,-1,-1,-1,-1,-1,-1],"loss_changes":[3.270937E5,2.904925E4,9.199375E2,5.471875E1,1.0268359E2,2.3578125E1,2.1242188E1,1.0884375E2,9.954297E1,1.1830136E2,1.2769922E2,5.311035E1,3.0101562E1,2.0484375E1,4.2154297E1,0E0,0E0,0E0,0E0,0E0,0E0,0E0,0E0,0E0,0E0,0E0,0E0,0E0,0E0,0E0,0E0],"parents":[2147483647,0,0,1,1,2,2,3,3,4,4,5,5,6,6,7,7,8,8,9,9,10,10,11,11,12,12,13,13,14,14],"right_children":[2,4,6,8,10,12,14,16,18,20,22,24,26,28,30,-1,-1,-1,-1,-1,-1,-1,-1,-1,-1,-1,-1,-1,-1,-1,-1],"split_conditions":[1E-45,1E-45,1E-45,1E-45,3.558E0,3.861E-1,1.27675E3,6.6416E1,2.175E1,2.162E2,1.39658E3,2.4834E2,1.17E0,4.3151E2,6.604E0,1.7451122E-1,1.4147288E-1,1.9100122E-1,1.7342596E-1,5.600621E-2,-3.003322E-2,7.569288E-2,6.46574E-2,-1.1717369E-1,-1.4559321E-1,-9.06274E-2,-1.1685337E-1,-1.1649487E-1,-1.384985E-1,-1.5623263E-1,-1.2908098E-1],"split_indices":[28,28,28,14,34,23,16,18,29,11,11,27,35,17,18,0,0,0,0,0,0,0,0,0,0,0,0,0,0,0,0],"split_type":[1,1,1,1,0,0,0,0,0,0,0,0,0,0,0,0,0,0,0,0,0,0,0,0,0,0,0,0,0,0,0],"sum_hessian":[1.875E4,9.49E3,9.26E3,4.745E3,4.745E3,4.668E3,4.592E3,3.142E3,1.603E3,1.9E2,4.555E3,3.61E2,4.307E3,3.497E3,1.095E3,3.02E3,1.22E2,7.74E2,8.29E2,1.75E2,1.5E1,3.102E3,1.453E3,2.43E2,1.18E2,6E1,4.247E3,8E1,3.417E3,8.1E1,1.014E3],"tree_param":{"num_deleted":"0","num_feature":"40","num_nodes":"31","size_leaf_vector":"1"}},{"base_weights":[5.661621E-4,4.0024858E0,-4.1007314E0,5.6995444E0,2.3045623E0,-3.7939982E0,-4.411626E0,6.3101783E0,5.6677365E0,3.3230243E0,2.2823522E0,-3.811894E0,-3.3466456E0,-4.246206E0,-4.4651704E0,1.4212176E-1,1.960621E-1,1.8375286E-1,1.6861458E-1,1.6524543E-1,4.1946143E-2,6.708568E-2,8.457702E-2,